{"learner":{"attributes":{"scikit_learn":"{\"_estimator_type\": \"classifier\"}"},"feature_names":["url_length","num_digits","num_at","num_percent20","num_special_chars","num_parameters","num_fragments","subdomain","root_domain","domain_extension","has_http","has_https","has_ip"],"feature_types":["int","int","int","int","int","int","int","int","int","int","int","int","int"],"gradient_booster":{"model":{"gbtree_model_param":{"num_parallel_tree":"1","num_trees":"150"},"iteration_indptr":[0,1,2,3,4,5,6,7,8,9,10,11,12,13,14,15,16,17,18,19,20,21,22,23,24,25,26,27,28,29,30,31,32,33,34,35,36,37,38,39,40,41,42,43,44,45,46,47,48,49,50,51,52,53,54,55,56,57,58,59,60,61,62,63,64,65,66,67,68,69,70,71,72,73,74,75,76,77,78,79,80,81,82,83,84,85,86,87,88,89,90,91,92,93,94,95,96,97,98,99,100,101,102,103,104,105,106,107,108,109,110,111,112,113,114,115,116,117,118,119,120,121,122,123,124,125,126,127,128,129,130,131,132,133,134,135,136,137,138,139,140,141,142,143,144,145,146,147,148,149,150],"tree_info":[0,0,0,0,0,0,0,0,0,0,0,0,0,0,0,0,0,0,0,0,0,0,0,0,0,0,0,0,0,0,0,0,0,0,0,0,0,0,0,0,0,0,0,0,0,0,0,0,0,0,0,0,0,0,0,0,0,0,0,0,0,0,0,0,0,0,0,0,0,0,0,0,0,0,0,0,0,0,0,0,0,0,0,0,0,0,0,0,0,0,0,0,0,0,0,0,0,0,0,0,0,0,0,0,0,0,0,0,0,0,0,0,0,0,0,0,0,0,0,0,0,0,0,0,0,0,0,0,0,0,0,0,0,0,0,0,0,0,0,0,0,0,0,0,0,0,0,0,0,0],"trees":[{"base_weights":[1.6985519E-3,7.122627E-1,-3.523473E-1,-5.301526E-1,7.3303586E-1,-2.4323595E-1,-1.7735959E0,-4.5020548E-1,-1.9059174E0,1.2824225E0,6.982279E-1,-6.9280076E-1,1.3333107E-2,-1.9485992E0,-1.0071615E0,1.6798563E-2,-2.8337747E-2,-1.0806557E-1,-8.321901E-2,6.507623E-2,3.700373E-2,2.4151808E-2,3.633255E-2,1.5873539E-3,-4.8406046E-2,1.960571E-2,-2.87664E-2,-1.033416E-1,-8.126377E-2,-7.0393324E-2,-1.9541293E-2],"categories":[],"categories_nodes":[],"categories_segments":[],"categories_sizes":[],"default_left":[0,0,0,0,0,0,0,0,0,0,0,0,0,0,0,0,0,0,0,0,0,0,0,0,0,0,0,0,0,0,0],"id":0,"left_children":[1,3,5,7,9,11,13,15,17,19,21,23,25,27,29,-1,-1,-1,-1,-1,-1,-1,-1,-1,-1,-1,-1,-1,-1,-1,-1],"loss_changes":[1.02691945E5,3.5038047E3,4.2249523E4,2.4490015E2,2.5526328E3,2.9185098E4,2.6041562E3,1.9352292E2,5.3688965E0,8.172363E1,7.6770703E2,1.8339574E4,3.5919023E4,6.0246094E2,8.916033E2,0E0,0E0,0E0,0E0,0E0,0E0,0E0,0E0,0E0,0E0,0E0,0E0,0E0,0E0,0E0,0E0],"parents":[2147483647,0,0,1,1,2,2,3,3,4,4,5,5,6,6,7,7,8,8,9,9,10,10,11,11,12,12,13,13,14,14],"right_children":[2,4,6,8,10,12,14,16,18,20,22,24,26,28,30,-1,-1,-1,-1,-1,-1,-1,-1,-1,-1,-1,-1,-1,-1,-1,-1],"split_conditions":[2E0,3.9523E4,1E0,2.6E1,9E0,4.02031E5,5.1E1,9E0,5.056E3,1.424555E6,2.03858E5,2.2E1,4.05405E5,6.12535E5,6.12535E5,1.6798563E-2,-2.8337747E-2,-1.0806557E-1,-8.321901E-2,6.507623E-2,3.700373E-2,2.4151808E-2,3.633255E-2,1.5873539E-3,-4.8406046E-2,1.960571E-2,-2.87664E-2,-1.033416E-1,-8.126377E-2,-7.0393324E-2,-1.9541293E-2],"split_indices":[4,8,11,0,0,7,0,0,8,8,8,0,7,7,7,0,0,0,0,0,0,0,0,0,0,0,0,0,0,0,0],"split_type":[0,0,0,0,0,0,0,0,0,0,0,0,0,0,0,0,0,0,0,0,0,0,0,0,0,0,0,0,0,0,0],"sum_hessian":[4.0819938E5,1.3575039E5,2.7244897E5,2.2321406E3,1.3351825E5,2.5302456E5,1.942442E4,2.110248E3,1.2189248E2,7.9541646E3,1.2556409E5,9.1934625E4,1.6108994E5,1.5812892E4,3.6115283E3,2.722183E2,1.8380298E3,5.7113922E1,6.477856E1,7.682688E3,2.7147656E2,1.4651328E4,1.10912766E5,2.5314818E4,6.6619805E4,9.801886E4,6.307108E4,1.1576571E4,4.23632E3,2.1881309E3,1.4233976E3],"tree_param":{"num_deleted":"0","num_feature":"13","num_nodes":"31","size_leaf_vector":"1"}},{"base_weights":[-1.2643468E-3,3.1172153E-1,-7.644503E-1,6.734222E-1,-1.71972E-1,-1.3594071E0,-4.240614E-1,7.7405685E-1,-1.0433542E0,-3.734598E-2,-1.612355E0,-1.5868014E0,-7.6149297E-1,8.1494674E-2,-1.1909641E0,4.4973765E-2,2.6495049E-2,-2.2926657E-2,-6.662942E-2,3.5430167E-3,-7.822166E-2,-9.029261E-2,-4.0706553E-2,-1.03603184E-1,-7.421342E-2,-7.413285E-2,-1.8745327E-2,1.888774E-2,-9.427744E-2,-9.902923E-2,-5.270348E-2],"categories":[],"categories_nodes":[],"categories_segments":[],"categories_sizes":[],"default_left":[0,0,0,0,0,0,0,0,0,0,0,0,0,0,0,0,0,0,0,0,0,0,0,0,0,0,0,0,0,0,0],"id":1,"left_children":[1,3,5,7,9,11,13,15,17,19,21,23,25,27,29,-1,-1,-1,-1,-1,-1,-1,-1,-1,-1,-1,-1,-1,-1,-1,-1],"loss_changes":[9.752922E4,5.0658055E4,2.4047805E4,2.8622422E4,2.4022738E4,5.8746016E3,2.9285516E4,4.7917734E3,1.5512373E3,1.8721357E4,1.6345449E3,1.5557891E3,3.319293E3,2.6529658E4,3.242586E3,0E0,0E0,0E0,0E0,0E0,0E0,0E0,0E0,0E0,0E0,0E0,0E0,0E0,0E0,0E0,0E0],"parents":[2147483647,0,0,1,1,2,2,3,3,4,4,5,5,6,6,7,7,8,8,9,9,10,10,11,11,12,12,13,13,14,14],"right_children":[2,4,6,8,10,12,14,16,18,20,22,24,26,28,30,-1,-1,-1,-1,-1,-1,-1,-1,-1,-1,-1,-1,-1,-1,-1,-1],"split_conditions":[1E0,2.1E1,4.02031E5,2.327E3,1E0,4.4E1,4.05405E5,1.7E1,1.3E1,2.061E3,4.4E1,4.13E2,9.8413E4,2.093E3,4.12E2,4.4973765E-2,2.6495049E-2,-2.2926657E-2,-6.662942E-2,3.5430167E-3,-7.822166E-2,-9.029261E-2,-4.0706553E-2,-1.03603184E-1,-7.421342E-2,-7.413285E-2,-1.8745327E-2,1.888774E-2,-9.427744E-2,-9.902923E-2,-5.270348E-2],"split_indices":[1,0,7,9,11,0,7,0,0,9,0,9,7,9,9,0,0,0,0,0,0,0,0,0,0,0,0,0,0,0,0],"split_type":[0,0,0,0,0,0,0,0,0,0,0,0,0,0,0,0,0,0,0,0,0,0,0,0,0,0,0,0,0,0,0],"sum_hessian":[4.0829903E5,2.8955247E5,1.1874656E5,1.6566788E5,1.2388459E5,4.3213332E4,7.553323E4,1.5649475E5,9.173132E3,1.1329592E5,1.058867E4,3.13062E4,1.1907134E4,4.552358E4,3.0009646E4,1.0338564E5,5.31091E4,3.036029E3,6.137103E3,1.05799586E5,7.496334E3,8.522079E3,2.06659E3,5.4591E3,2.58471E4,4.154805E3,7.752328E3,3.9565066E4,5.9585137E3,4.432883E3,2.5576764E4],"tree_param":{"num_deleted":"0","num_feature":"13","num_nodes":"31","size_leaf_vector":"1"}},{"base_weights":[1.3435683E-3,2.9964188E-1,-7.246439E-1,6.452359E-1,-1.6028321E-1,-1.3003552E0,-2.983079E-1,7.416069E-1,-9.8256063E-1,-3.3172596E-2,-1.524618E0,-4.9194074E-1,-1.4776379E0,-1.0483392E-1,-1.677795E0,7.166501E-3,3.954072E-2,-2.1111373E-2,-6.292295E-2,3.4893341E-3,-7.368369E-2,-8.6203925E-2,-3.9774902E-2,-1.4123584E-2,-1.0133783E-1,-6.3625984E-2,-9.3900144E-2,-4.6702206E-2,1.2033486E-2,-9.307967E-2,-3.638668E-2],"categories":[],"categories_nodes":[],"categories_segments":[],"categories_sizes":[],"default_left":[0,0,0,0,0,0,0,0,0,0,0,0,0,0,0,0,0,0,0,0,0,0,0,0,0,0,0,0,0,0,0],"id":2,"left_children":[1,3,5,7,9,11,13,15,17,19,21,23,25,27,29,-1,-1,-1,-1,-1,-1,-1,-1,-1,-1,-1,-1,-1,-1,-1,-1],"loss_changes":[8.8303125E4,4.5936594E4,2.9145875E4,2.588621E4,2.1502795E4,7.24025E3,1.8208777E4,4.586242E3,1.4254551E3,1.6822697E4,1.5358809E3,2.9211238E3,3.401289E3,1.7142445E4,1.4644082E3,0E0,0E0,0E0,0E0,0E0,0E0,0E0,0E0,0E0,0E0,0E0,0E0,0E0,0E0,0E0,0E0],"parents":[2147483647,0,0,1,1,2,2,3,3,4,4,5,5,6,6,7,7,8,8,9,9,10,10,11,11,12,12,13,13,14,14],"right_children":[2,4,6,8,10,12,14,16,18,20,22,24,26,28,30,-1,-1,-1,-1,-1,-1,-1,-1,-1,-1,-1,-1,-1,-1,-1,-1],"split_conditions":[1E0,2.1E1,4E0,2.327E3,1E0,2E0,1E0,4.19E2,1.3E1,2.048E3,4.3E1,5E0,2.9E1,3.85354E5,1.2E1,7.166501E-3,3.954072E-2,-2.1111373E-2,-6.292295E-2,3.4893341E-3,-7.368369E-2,-8.6203925E-2,-3.9774902E-2,-1.4123584E-2,-1.0133783E-1,-6.3625984E-2,-9.3900144E-2,-4.6702206E-2,1.2033486E-2,-9.307967E-2,-3.638668E-2],"split_indices":[1,0,4,9,11,4,11,9,0,9,0,1,0,7,4,0,0,0,0,0,0,0,0,0,0,0,0,0,0,0,0],"split_type":[0,0,0,0,0,0,0,0,0,0,0,0,0,0,0,0,0,0,0,0,0,0,0,0,0,0,0,0,0,0,0],"sum_hessian":[4.0775122E5,2.890039E5,1.1874732E5,1.650118E5,1.239921E5,5.0522285E4,6.822503E4,1.557889E5,9.222892E3,1.13425234E5,1.0566871E4,9.087132E3,4.1435156E4,5.9833902E4,8.391133E3,1.1839938E4,1.4394897E5,3.0434502E3,6.179442E3,1.0585938E5,7.565853E3,8.296448E3,2.2704229E3,7.9964478E3,1.0906843E3,2.7399809E4,1.4035346E4,1.759802E4,4.2235883E4,7.0304424E3,1.3606901E3],"tree_param":{"num_deleted":"0","num_feature":"13","num_nodes":"31","size_leaf_vector":"1"}},{"base_weights":[7.020757E-4,2.8508243E-1,-6.876586E-1,6.1528957E-1,-1.520854E-1,-1.2344933E0,-2.8129396E-1,7.073101E-1,-9.2961013E-1,-3.0946301E-2,-1.4499322E0,-8.7633795E-1,-1.5975801E0,-9.617143E-2,-1.5971769E0,4.139875E-2,2.3674538E-2,-6.514608E-2,-2.581445E-2,3.3746269E-3,-7.008788E-2,-7.832276E-2,-1.8731602E-2,-3.2265898E-2,-8.659988E-2,-6.930756E-2,-9.037232E-2,3.8801774E-3,-8.036388E-2,-8.857906E-2,-3.466796E-2],"categories":[],"categories_nodes":[],"categories_segments":[],"categories_sizes":[],"default_left":[0,0,0,0,0,0,0,0,0,0,0,0,0,0,0,0,0,0,0,0,0,0,0,0,0,0,0,0,0,0,0],"id":3,"left_children":[1,3,5,7,9,11,13,15,17,19,21,23,25,27,29,-1,-1,-1,-1,-1,-1,-1,-1,-1,-1,-1,-1,-1,-1,-1,-1],"loss_changes":[7.972986E4,4.16064E4,2.645905E4,2.3342996E4,1.9498818E4,6.6001953E3,1.6640057E4,4.371883E3,1.4237412E3,1.5307394E4,1.3261387E3,5.050918E3,1.1168945E3,1.5725778E4,1.327127E3,0E0,0E0,0E0,0E0,0E0,0E0,0E0,0E0,0E0,0E0,0E0,0E0,0E0,0E0,0E0,0E0],"parents":[2147483647,0,0,1,1,2,2,3,3,4,4,5,5,6,6,7,7,8,8,9,9,10,10,11,11,12,12,13,13,14,14],"right_children":[2,4,6,8,10,12,14,16,18,20,22,24,26,28,30,-1,-1,-1,-1,-1,-1,-1,-1,-1,-1,-1,-1,-1,-1,-1,-1],"split_conditions":[1E0,2.1E1,4E0,2.327E3,1E0,2.4E1,1E0,1.7E1,2.498E3,2.048E3,5.2E1,2.211E3,3E1,1.8E1,1.2E1,4.139875E-2,2.3674538E-2,-6.514608E-2,-2.581445E-2,3.3746269E-3,-7.008788E-2,-7.832276E-2,-1.8731602E-2,-3.2265898E-2,-8.659988E-2,-6.930756E-2,-9.037232E-2,3.8801774E-3,-8.036388E-2,-8.857906E-2,-3.466796E-2],"split_indices":[1,0,4,9,11,0,11,0,9,9,0,9,0,1,4,0,0,0,0,0,0,0,0,0,0,0,0,0,0,0,0],"split_type":[0,0,0,0,0,0,0,0,0,0,0,0,0,0,0,0,0,0,0,0,0,0,0,0,0,0,0,0,0,0,0],"sum_hessian":[4.0729072E5,2.8821978E5,1.1907092E5,1.6419669E5,1.240231E5,5.0761367E4,6.8309555E4,1.5496658E5,9.230106E3,1.13435766E5,1.0587336E4,2.5555225E4,2.5206145E4,5.9885316E4,8.42424E3,1.022155E5,5.2751082E4,4.849091E3,4.3810156E3,1.05836016E5,7.59975E3,9.551936E3,1.0354004E3,2.0123156E4,5.4320684E3,1.2558453E4,1.264769E4,5.3709242E4,6.1760757E3,7.06111E3,1.3631306E3],"tree_param":{"num_deleted":"0","num_feature":"13","num_nodes":"31","size_leaf_vector":"1"}},{"base_weights":[1.3452905E-3,6.0925967E-1,-2.9666138E-1,6.84212E-1,-4.1843864E-1,-2.0660473E-1,-1.4609413E0,1.2140781E0,6.5123355E-1,-2.199192E-1,-1.8607929E0,5.7528846E-2,-6.007963E-1,-1.599502E0,-7.786624E-1,6.549019E-2,5.6444902E-2,2.2802187E-2,3.38477E-2,-5.866691E-3,-3.400777E-2,-8.818562E-2,-9.7766146E-2,3.1585716E-2,-3.8692013E-3,-6.6672556E-2,-4.5702285E-3,-8.6051404E-2,-6.3747406E-2,-2.0929718E-2,-8.0428265E-2],"categories":[],"categories_nodes":[],"categories_segments":[],"categories_sizes":[],"default_left":[0,0,0,0,0,0,0,0,0,0,0,0,0,0,0,0,0,0,0,0,0,0,0,0,0,0,0,0,0,0,0],"id":4,"left_children":[1,3,5,7,9,11,13,15,17,19,21,23,25,27,29,-1,-1,-1,-1,-1,-1,-1,-1,-1,-1,-1,-1,-1,-1,-1,-1],"loss_changes":[7.365745E4,1.0302492E4,2.8606734E4,2.1776758E3,2.6028447E3,2.6367959E4,1.8509648E3,5.856543E1,5.888867E2,3.7722592E2,7.996582E0,1.1746831E4,3.7920785E4,6.407617E2,9.878666E2,0E0,0E0,0E0,0E0,0E0,0E0,0E0,0E0,0E0,0E0,0E0,0E0,0E0,0E0,0E0,0E0],"parents":[2147483647,0,0,1,1,2,2,3,3,4,4,5,5,6,6,7,7,8,8,9,9,10,10,11,11,12,12,13,13,14,14],"right_children":[2,4,6,8,10,12,14,16,18,20,22,24,26,28,30,-1,-1,-1,-1,-1,-1,-1,-1,-1,-1,-1,-1,-1,-1,-1,-1],"split_conditions":[2E0,1E0,1E0,9E0,5E0,1E0,5.3E1,8E0,2.03858E5,1.8E1,7E0,1.7E1,4E0,6.12535E5,1E0,6.549019E-2,5.6444902E-2,2.2802187E-2,3.38477E-2,-5.866691E-3,-3.400777E-2,-8.818562E-2,-9.7766146E-2,3.1585716E-2,-3.8692013E-3,-6.6672556E-2,-4.5702285E-3,-8.6051404E-2,-6.3747406E-2,-2.0929718E-2,-8.0428265E-2],"split_indices":[4,1,11,0,1,1,0,0,8,0,1,0,4,7,5,0,0,0,0,0,0,0,0,0,0,0,0,0,0,0,0],"split_type":[0,0,0,0,0,0,0,0,0,0,0,0,0,0,0,0,0,0,0,0,0,0,0,0,0,0,0,0,0,0,0],"sum_hessian":[4.0658097E5,1.3374652E5,2.7283447E5,1.2465538E5,9.091138E3,2.532466E5,1.958786E4,7.302644E3,1.17352734E5,7.9918228E3,1.0993146E3,1.5163897E5,1.0160764E5,1.6280679E4,3.30718E3,3.4345352E3,3.8681091E3,1.3664824E4,1.03687914E5,6.5358457E3,1.4559773E3,5.4771173E2,5.5160284E2,2.8850582E4,1.22788375E5,4.167121E4,5.9936426E4,1.18435205E4,4.437158E3,2.3070837E3,1.00009625E3],"tree_param":{"num_deleted":"0","num_feature":"13","num_nodes":"31","size_leaf_vector":"1"}},{"base_weights":[1.0192393E-3,5.8109564E-1,-2.8171057E-1,6.537896E-1,-4.014204E-1,-1.9640663E-1,-1.3905332E0,1.1626862E0,6.2218034E-1,-2.1253839E-1,-1.7730652E0,5.433331E-2,-5.7031155E-1,-1.5256362E0,-6.90762E-1,6.2215645E-2,5.4510575E-2,3.150783E-2,1.4922375E-2,-4.6656756E-3,-3.0461947E-2,-8.178919E-2,-9.108013E-2,3.0378267E-2,-3.7450541E-3,-6.359652E-2,-4.1718525E-3,-8.195735E-2,-6.1211705E-2,-1.645757E-2,-7.592902E-2],"categories":[],"categories_nodes":[],"categories_segments":[],"categories_sizes":[],"default_left":[0,0,0,0,0,0,0,0,0,0,0,0,0,0,0,0,0,0,0,0,0,0,0,0,0,0,0,0,0,0,0],"id":5,"left_children":[1,3,5,7,9,11,13,15,17,19,21,23,25,27,29,-1,-1,-1,-1,-1,-1,-1,-1,-1,-1,-1,-1,-1,-1,-1,-1],"loss_changes":[6.6438734E4,9.481305E3,2.5760979E4,1.9876953E3,2.368939E3,2.371018E4,1.8386328E3,4.1845703E1,3.003125E2,3.801142E2,5.5393066E0,1.0823466E4,3.4678164E4,5.566094E2,9.423529E2,0E0,0E0,0E0,0E0,0E0,0E0,0E0,0E0,0E0,0E0,0E0,0E0,0E0,0E0,0E0,0E0],"parents":[2147483647,0,0,1,1,2,2,3,3,4,4,5,5,6,6,7,7,8,8,9,9,10,10,11,11,12,12,13,13,14,14],"right_children":[2,4,6,8,10,12,14,16,18,20,22,24,26,28,30,-1,-1,-1,-1,-1,-1,-1,-1,-1,-1,-1,-1,-1,-1,-1,-1],"split_conditions":[2E0,1E0,1E0,9E0,5E0,1E0,5.4E1,8E0,2.7E1,1.7E1,6E0,1.7E1,4E0,6.12535E5,1E0,6.2215645E-2,5.4510575E-2,3.150783E-2,1.4922375E-2,-4.6656756E-3,-3.0461947E-2,-8.178919E-2,-9.108013E-2,3.0378267E-2,-3.7450541E-3,-6.359652E-2,-4.1718525E-3,-8.195735E-2,-6.1211705E-2,-1.645757E-2,-7.592902E-2],"split_indices":[4,1,11,0,1,1,0,0,0,0,1,0,4,7,5,0,0,0,0,0,0,0,0,0,0,0,0,0,0,0,0],"split_type":[0,0,0,0,0,0,0,0,0,0,0,0,0,0,0,0,0,0,0,0,0,0,0,0,0,0,0,0,0,0,0],"sum_hessian":[4.05101E5,1.32746E5,2.72355E5,1.2360132E5,9.144687E3,2.528996E5,1.945539E4,7.2270703E3,1.1637425E5,8.03841E3,1.106277E3,1.5138275E5,1.0151684E5,1.6306419E4,3.1489714E3,3.394479E3,3.8325913E3,1.1357516E5,2.7990962E3,6.1814873E3,1.8569225E3,2.9403903E2,8.122379E2,2.8666201E4,1.22716555E5,4.158666E4,5.9930184E4,1.1843504E4,4.4629155E3,2.1921904E3,9.5678094E2],"tree_param":{"num_deleted":"0","num_feature":"13","num_nodes":"31","size_leaf_vector":"1"}},{"base_weights":[7.8867405E-4,5.567556E-1,-2.690384E-1,6.376645E-1,-8.8716733E-1,-1.4575285E-1,-1.3938994E0,6.9449514E-1,-1.9926353E-1,-1.2782501E0,-4.6479225E-1,-1.2523385E0,-1.2972853E-2,-9.107276E-1,-1.6116552E0,3.1019097E-2,5.670754E-2,-1.2889754E-3,-8.329163E-2,-2.6465684E-2,-8.926633E-2,3.008771E-2,-6.815861E-2,6.379451E-2,-6.956479E-2,-2.0400109E-2,9.8690605E-3,-1.9261843E-2,-7.522333E-2,-7.3199846E-2,-8.946558E-2],"categories":[],"categories_nodes":[],"categories_segments":[],"categories_sizes":[],"default_left":[0,0,0,0,0,0,0,0,0,0,0,0,0,0,0,0,0,0,0,0,0,0,0,0,0,0,0,0,0,0,0],"id":6,"left_children":[1,3,5,7,9,11,13,15,17,19,21,23,25,27,29,-1,-1,-1,-1,-1,-1,-1,-1,-1,-1,-1,-1,-1,-1,-1,-1],"loss_changes":[6.061396E4,1.5424086E4,3.7724465E4,5.9464062E3,1.1567119E3,3.6021805E4,2.8260508E3,3.8140977E3,2.0224312E3,1.3805317E3,3.2284282E3,9.228285E3,1.8189375E4,2.6043774E3,4.8421875E2,0E0,0E0,0E0,0E0,0E0,0E0,0E0,0E0,0E0,0E0,0E0,0E0,0E0,0E0,0E0,0E0],"parents":[2147483647,0,0,1,1,2,2,3,3,4,4,5,5,6,6,7,7,8,8,9,9,10,10,11,11,12,12,13,13,14,14],"right_children":[2,4,6,8,10,12,14,16,18,20,22,24,26,28,30,-1,-1,-1,-1,-1,-1,-1,-1,-1,-1,-1,-1,-1,-1,-1,-1],"split_conditions":[2E0,2.327E3,2.048E3,1E0,2.498E3,4.12E2,2.309E3,1.908E3,5E0,2.458E3,2.637E3,7.2E1,4.02031E5,1E0,1E0,3.1019097E-2,5.670754E-2,-1.2889754E-3,-8.329163E-2,-2.6465684E-2,-8.926633E-2,3.008771E-2,-6.815861E-2,6.379451E-2,-6.956479E-2,-2.0400109E-2,9.8690605E-3,-1.9261843E-2,-7.522333E-2,-7.3199846E-2,-8.946558E-2],"split_indices":[4,9,9,1,9,9,9,9,1,9,9,9,7,1,1,0,0,0,0,0,0,0,0,0,0,0,0,0,0,0,0],"split_type":[0,0,0,0,0,0,0,0,0,0,0,0,0,0,0,0,0,0,0,0,0,0,0,0,0,0,0,0,0,0,0],"sum_hessian":[4.0405162E5,1.3202327E5,2.7202834E5,1.2501833E5,7.0049355E3,2.4515938E5,2.6868984E4,1.1706909E5,7.9492363E3,3.6365525E3,3.3683833E3,2.6264729E4,2.1889464E5,8.348282E3,1.8520701E4,1.0018264E5,1.6886451E4,7.1088857E3,8.4035046E2,1.4686382E3,2.1679143E3,1.540076E3,1.8283071E3,1.3681113E3,2.4896617E4,7.605987E4,1.4283478E5,4.4291978E3,3.9190842E3,1.0117099E4,8.403604E3],"tree_param":{"num_deleted":"0","num_feature":"13","num_nodes":"31","size_leaf_vector":"1"}},{"base_weights":[2.383004E-4,2.3918708E-1,-5.734911E-1,3.2157916E-1,-1.1451056E0,-8.9484394E-1,-5.846645E-2,5.9408975E-1,-9.291919E-2,-4.921083E-1,-1.353358E0,-9.636034E-1,1.4105675E0,1.4830786E-1,-1.5253168E0,1.1240083E-3,3.2037124E-2,-6.344736E-2,8.516133E-4,-4.799249E-2,-5.624759E-4,-7.60514E-2,-5.3946387E-2,-6.552628E-2,-3.49872E-2,7.80929E-2,-3.2951594E-3,2.1158991E-2,-6.462836E-2,-5.9878767E-2,-9.540708E-2],"categories":[],"categories_nodes":[],"categories_segments":[],"categories_sizes":[],"default_left":[0,0,0,0,0,0,0,0,0,0,0,0,0,0,0,0,0,0,0,0,0,0,0,0,0,0,0,0,0,0,0],"id":7,"left_children":[1,3,5,7,9,11,13,15,17,19,21,23,25,27,29,-1,-1,-1,-1,-1,-1,-1,-1,-1,-1,-1,-1,-1,-1,-1,-1],"loss_changes":[5.5240914E4,3.2445375E4,1.9608418E4,3.032754E4,2.172629E3,1.1565496E4,1.3807381E4,4.3197617E3,1.3771299E4,8.6920496E2,5.5641797E2,6.4842344E3,4.7220996E2,1.5802108E4,7.042119E2,0E0,0E0,0E0,0E0,0E0,0E0,0E0,0E0,0E0,0E0,0E0,0E0,0E0,0E0,0E0,0E0],"parents":[2147483647,0,0,1,1,2,2,3,3,4,4,5,5,6,6,7,7,8,8,9,9,10,10,11,11,12,12,13,13,14,14],"right_children":[2,4,6,8,10,12,14,16,18,20,22,24,26,28,30,-1,-1,-1,-1,-1,-1,-1,-1,-1,-1,-1,-1,-1,-1,-1,-1],"split_conditions":[1E0,2.309E3,6E0,2.2E1,1.4E1,1E0,1.9E1,4.19E2,4.19E2,2.498E3,2.498E3,4.02031E5,4.3E1,1E0,3.2E1,1.1240083E-3,3.2037124E-2,-6.344736E-2,8.516133E-4,-4.799249E-2,-5.624759E-4,-7.60514E-2,-5.3946387E-2,-6.552628E-2,-3.49872E-2,7.80929E-2,-3.2951594E-3,2.1158991E-2,-6.462836E-2,-5.9878767E-2,-9.540708E-2],"split_indices":[1,9,4,0,0,5,1,9,9,9,9,7,0,11,1,0,0,0,0,0,0,0,0,0,0,0,0,0,0,0,0],"split_type":[0,0,0,0,0,0,0,0,0,0,0,0,0,0,0,0,0,0,0,0,0,0,0,0,0,0,0,0,0,0,0],"sum_hessian":[4.0294722E5,2.8447047E5,1.1847676E5,2.6849056E5,1.5979905E4,7.295529E4,4.552147E4,1.6199047E5,1.0650008E5,3.8645046E3,1.21154E4,7.084272E4,2.112566E3,3.989768E4,5.623788E3,1.2223676E4,1.497668E5,9.105402E3,9.739468E4,1.9586136E3,1.905891E3,7.518905E3,4.5964956E3,3.060324E4,4.023948E4,1.9162509E3,1.9631502E2,3.350621E4,6.391469E3,3.031126E3,2.592662E3],"tree_param":{"num_deleted":"0","num_feature":"13","num_nodes":"31","size_leaf_vector":"1"}},{"base_weights":[1.0768042E-3,5.154983E-1,-2.4655457E-1,5.9088284E-1,-8.0428624E-1,-1.3233921E-1,-1.2962819E0,6.3306576E-1,-3.8232458E-1,9.2735785E-1,-8.8673985E-1,-1.1516845E0,-9.604181E-3,-8.6517876E-1,-1.4915092E0,2.8005147E-2,5.362019E-2,-7.337699E-3,-7.944026E-2,5.124219E-2,1.16266515E-2,-6.0799878E-2,-2.6168833E-2,6.1218005E-2,-6.4030714E-2,-1.8687148E-2,9.248807E-3,-1.9341579E-2,-6.999884E-2,-6.676816E-2,-8.398575E-2],"categories":[],"categories_nodes":[],"categories_segments":[],"categories_sizes":[],"default_left":[0,0,0,0,0,0,0,0,0,0,0,0,0,0,0,0,0,0,0,0,0,0,0,0,0,0,0,0,0,0,0],"id":8,"left_children":[1,3,5,7,9,11,13,15,17,19,21,23,25,27,29,-1,-1,-1,-1,-1,-1,-1,-1,-1,-1,-1,-1,-1,-1,-1,-1],"loss_changes":[5.1148035E4,1.2981277E4,3.2496434E4,5.067074E3,1.0070073E3,3.0582432E4,2.237586E3,3.7916055E3,1.4570664E3,2.1472656E1,8.046714E2,8.0483047E3,1.5458846E4,2.12069E3,5.3653516E2,0E0,0E0,0E0,0E0,0E0,0E0,0E0,0E0,0E0,0E0,0E0,0E0,0E0,0E0,0E0,0E0],"parents":[2147483647,0,0,1,1,2,2,3,3,4,4,5,5,6,6,7,7,8,8,9,9,10,10,11,11,12,12,13,13,14,14],"right_children":[2,4,6,8,10,12,14,16,18,20,22,24,26,28,30,-1,-1,-1,-1,-1,-1,-1,-1,-1,-1,-1,-1,-1,-1,-1,-1],"split_conditions":[2E0,2.327E3,2.048E3,2E0,8E0,4.13E2,2.309E3,1.908E3,5E0,1E0,2.498E3,7.2E1,4.02031E5,1E0,1E0,2.8005147E-2,5.362019E-2,-7.337699E-3,-7.944026E-2,5.124219E-2,1.16266515E-2,-6.0799878E-2,-2.6168833E-2,6.1218005E-2,-6.4030714E-2,-1.8687148E-2,9.248807E-3,-1.9341579E-2,-6.999884E-2,-6.676816E-2,-8.398575E-2],"split_indices":[4,9,9,1,0,9,9,9,1,1,9,9,7,1,1,0,0,0,0,0,0,0,0,0,0,0,0,0,0,0,0],"split_type":[0,0,0,0,0,0,0,0,0,0,0,0,0,0,0,0,0,0,0,0,0,0,0,0,0,0,0,0,0,0,0],"sum_hessian":[4.0151603E5,1.304738E5,2.7104225E5,1.234243E5,7.049497E3,2.44446E5,2.6596234E4,1.1829708E5,5.1272207E3,3.2012265E2,6.7293745E3,2.6269145E4,2.1817686E5,8.291058E3,1.8305176E4,1.0145016E5,1.6846922E4,4.2901865E3,8.37034E2,2.804003E2,3.972235E1,3.5296084E3,3.1997659E3,1.3518004E3,2.4917344E4,7.598261E4,1.4219425E5,4.3770645E3,3.9139932E3,1.0007211E4,8.297965E3],"tree_param":{"num_deleted":"0","num_feature":"13","num_nodes":"31","size_leaf_vector":"1"}},{"base_weights":[1.2234166E-3,2.24046E-1,-5.316793E-1,4.7124824E-1,-1.5119658E-1,-1.0021777E0,-2.639467E-1,5.9555805E-1,2.7311057E-1,-4.8177257E-2,-1.1908586E0,-1.1589439E0,-4.9273348E-1,1.7997475E-1,-9.3859184E-1,4.716703E-2,2.7246162E-2,1.4807207E-2,-8.201404E-2,1.4105275E-3,-5.435E-2,-6.8426624E-2,-2.8859077E-2,-5.877502E-2,3.968837E-2,-5.790813E-2,-5.7471204E-3,-2.5700836E-2,3.1827863E-2,-4.258362E-2,-8.420382E-2],"categories":[],"categories_nodes":[],"categories_segments":[],"categories_sizes":[],"default_left":[0,0,0,0,0,0,0,0,0,0,0,0,0,0,0,0,0,0,0,0,0,0,0,0,0,0,0,0,0,0,0],"id":9,"left_children":[1,3,5,7,9,11,13,15,17,19,21,23,25,27,29,-1,-1,-1,-1,-1,-1,-1,-1,-1,-1,-1,-1,-1,-1,-1,-1],"loss_changes":[4.7529824E4,2.6182379E4,1.4866406E4,4.1909336E3,1.200608E4,3.4178398E3,2.2527312E4,1.8408633E3,2.8912866E3,8.093521E3,1.1013252E3,1.0586484E3,2.5320066E3,1.4375407E4,1.9333477E3,0E0,0E0,0E0,0E0,0E0,0E0,0E0,0E0,0E0,0E0,0E0,0E0,0E0,0E0,0E0,0E0],"parents":[2147483647,0,0,1,1,2,2,3,3,4,4,5,5,6,6,7,7,8,8,9,9,10,10,11,11,12,12,13,13,14,14],"right_children":[2,4,6,8,10,12,14,16,18,20,22,24,26,28,30,-1,-1,-1,-1,-1,-1,-1,-1,-1,-1,-1,-1,-1,-1,-1,-1],"split_conditions":[1E0,2.2E1,4.02031E5,1.7E1,1E0,4.8E1,4.05405E5,1E1,1E0,1E0,4.3E1,1E0,9.8413E4,2.9E1,1.7E1,4.716703E-2,2.7246162E-2,1.4807207E-2,-8.201404E-2,1.4105275E-3,-5.435E-2,-6.8426624E-2,-2.8859077E-2,-5.877502E-2,3.968837E-2,-5.790813E-2,-5.7471204E-3,-2.5700836E-2,3.1827863E-2,-4.258362E-2,-8.420382E-2],"split_indices":[1,0,7,0,11,0,7,0,11,10,0,5,7,0,1,0,0,0,0,0,0,0,0,0,0,0,0,0,0,0,0],"split_type":[0,0,0,0,0,0,0,0,0,0,0,0,0,0,0,0,0,0,0,0,0,0,0,0,0,0,0,0,0,0,0],"sum_hessian":[4.002748E5,2.8225572E5,1.180191E5,1.7015873E5,1.12096984E5,4.2801082E4,7.5218016E4,1.0455828E5,6.5600445E4,1.0199136E5,1.0105627E4,3.2728912E4,1.0072171E4,4.536665E4,2.9851371E4,1.3286924E4,9.127136E4,6.4820605E4,7.7984076E2,9.500569E4,6.985668E3,7.8361123E3,2.2695151E3,3.2453994E4,2.749189E2,3.6470596E3,6.4251113E3,1.8002744E4,2.7363904E4,2.6735373E4,3.1159976E3],"tree_param":{"num_deleted":"0","num_feature":"13","num_nodes":"31","size_leaf_vector":"1"}},{"base_weights":[-5.6512817E-4,2.1102202E-1,-5.06459E-1,2.860834E-1,-1.0470626E0,-2.3694973E-1,-9.537148E-1,-4.83986E-1,3.529812E-1,-1.2838477E0,-7.030828E-1,-1.3680165E0,1.897868E-2,-7.319257E-1,-1.453262E0,8.129317E-3,-5.6162156E-2,1.921582E-2,-4.5287114E-2,-3.8598523E-2,-8.84278E-2,7.689097E-3,-6.8610236E-2,-5.1685896E-2,-8.0666E-2,-3.5572633E-2,1.683475E-2,-5.9475686E-2,-3.403121E-3,-6.427329E-2,-8.4430285E-2],"categories":[],"categories_nodes":[],"categories_segments":[],"categories_sizes":[],"default_left":[0,0,0,0,0,0,0,0,0,0,0,0,0,0,0,0,0,0,0,0,0,0,0,0,0,0,0,0,0,0,0],"id":10,"left_children":[1,3,5,7,9,11,13,15,17,19,21,23,25,27,29,-1,-1,-1,-1,-1,-1,-1,-1,-1,-1,-1,-1,-1,-1,-1,-1],"loss_changes":[4.2683723E4,2.655154E4,1.4174744E4,1.3669074E4,1.2887539E3,2.1241559E4,4.898203E3,8.766018E3,9.629082E3,2.325251E3,3.7015679E3,1.109252E3,1.3887193E4,9.30223E3,5.3546484E2,0E0,0E0,0E0,0E0,0E0,0E0,0E0,0E0,0E0,0E0,0E0,0E0,0E0,0E0,0E0,0E0],"parents":[2147483647,0,0,1,1,2,2,3,3,4,4,5,5,6,6,7,7,8,8,9,9,10,10,11,11,12,12,13,13,14,14],"right_children":[2,4,6,8,10,12,14,16,18,20,22,24,26,28,30,-1,-1,-1,-1,-1,-1,-1,-1,-1,-1,-1,-1,-1,-1,-1,-1],"split_conditions":[1E0,2.309E3,4.57E2,4.19E2,2.498E3,4.38E2,2.048E3,3.34E2,1E0,2.479E3,2.612E3,3.21E2,3.85354E5,1.736E3,7E0,8.129317E-3,-5.6162156E-2,1.921582E-2,-4.5287114E-2,-3.8598523E-2,-8.84278E-2,7.689097E-3,-6.8610236E-2,-5.1685896E-2,-8.0666E-2,-3.5572633E-2,1.683475E-2,-5.9475686E-2,-3.403121E-3,-6.427329E-2,-8.4430285E-2],"split_indices":[1,9,9,9,9,9,9,9,10,9,9,9,7,9,1,0,0,0,0,0,0,0,0,0,0,0,0,0,0,0,0],"split_type":[0,0,0,0,0,0,0,0,0,0,0,0,0,0,0,0,0,0,0,0,0,0,0,0,0,0,0,0,0,0,0],"sum_hessian":[3.9876056E5,2.8116503E5,1.1759553E5,2.6533478E5,1.5830261E4,7.337931E4,4.4216223E4,2.1207533E4,2.4412723E5,9.375087E3,6.455174E3,1.3539625E4,5.9839688E4,3.0622068E4,1.3594155E4,1.0543548E4,1.0663985E4,2.3819788E5,5.9293687E3,4.560482E3,4.8146055E3,2.8305986E3,3.6245752E3,5.7316147E3,7.80801E3,1.8138426E4,4.170126E4,1.8126963E4,1.2495105E4,7.9380845E3,5.6560713E3],"tree_param":{"num_deleted":"0","num_feature":"13","num_nodes":"31","size_leaf_vector":"1"}},{"base_weights":[2.0166466E-3,2.0407912E-1,-4.8219633E-1,2.7595276E-1,-1.002166E0,-2.2433558E-1,-9.112074E-1,3.2703224E-1,-1.1155216E0,-1.2310528E0,-6.713121E-1,-1.3137572E0,1.9550195E-2,-6.99077E-1,-1.3944494E0,1.8038604E-2,-4.716752E-2,-6.643937E-2,-3.2135095E-2,-3.7160605E-2,-8.482364E-2,6.6275797E-3,-6.525519E-2,-4.9481686E-2,-7.762521E-2,-3.3891276E-2,1.6081344E-2,-5.6700703E-2,-3.617887E-3,-6.1487164E-2,-8.135758E-2],"categories":[],"categories_nodes":[],"categories_segments":[],"categories_sizes":[],"default_left":[0,0,0,0,0,0,0,0,0,0,0,0,0,0,0,0,0,0,0,0,0,0,0,0,0,0,0,0,0,0,0],"id":11,"left_children":[1,3,5,7,9,11,13,15,17,19,21,23,25,27,29,-1,-1,-1,-1,-1,-1,-1,-1,-1,-1,-1,-1,-1,-1,-1,-1],"loss_changes":[3.887524E4,2.4305012E4,1.2941498E4,1.880523E4,1.1932354E3,1.9414277E4,4.501367E3,1.0939068E4,9.440625E2,2.1146836E3,3.2852192E3,1.0332676E3,1.2577399E4,8.319532E3,5.121875E2,0E0,0E0,0E0,0E0,0E0,0E0,0E0,0E0,0E0,0E0,0E0,0E0,0E0,0E0,0E0,0E0],"parents":[2147483647,0,0,1,1,2,2,3,3,4,4,5,5,6,6,7,7,8,8,9,9,10,10,11,11,12,12,13,13,14,14],"right_children":[2,4,6,8,10,12,14,16,18,20,22,24,26,28,30,-1,-1,-1,-1,-1,-1,-1,-1,-1,-1,-1,-1,-1,-1,-1,-1],"split_conditions":[1E0,2.309E3,4.57E2,1E0,2.498E3,4.38E2,2.048E3,1E0,6.12535E5,2.479E3,2.612E3,3.21E2,3.85354E5,1.736E3,7E0,1.8038604E-2,-4.716752E-2,-6.643937E-2,-3.2135095E-2,-3.7160605E-2,-8.482364E-2,6.6275797E-3,-6.525519E-2,-4.9481686E-2,-7.762521E-2,-3.3891276E-2,1.6081344E-2,-5.6700703E-2,-3.617887E-3,-6.1487164E-2,-8.135758E-2],"split_indices":[1,9,9,11,9,9,9,10,7,9,9,9,7,9,1,0,0,0,0,0,0,0,0,0,0,0,0,0,0,0,0],"split_type":[0,0,0,0,0,0,0,0,0,0,0,0,0,0,0,0,0,0,0,0,0,0,0,0,0,0,0,0,0,0,0],"sum_hessian":[3.9732894E5,2.8034234E5,1.169866E5,2.6457803E5,1.5764307E4,7.306891E4,4.391769E4,2.5521002E5,9.368023E3,9.317052E3,6.447255E3,1.3365284E4,5.970362E4,3.0521148E4,1.3396545E4,2.4860773E5,6.602284E3,6.455258E3,2.9127659E3,4.549697E3,4.767355E3,2.8423828E3,3.604872E3,5.670285E3,7.6949995E3,1.8044666E4,4.1658957E4,1.8016979E4,1.250417E4,7.846433E3,5.5501123E3],"tree_param":{"num_deleted":"0","num_feature":"13","num_nodes":"31","size_leaf_vector":"1"}},{"base_weights":[1.7867264E-3,4.572559E-1,-2.1557827E-1,5.2349985E-1,-6.818562E-1,-1.1522755E-1,-1.1543826E0,4.4924402E-1,9.791158E-1,-5.108067E-1,-1.3382468E0,-1.0217769E0,-7.710519E-3,-7.716147E-1,-1.3299614E0,2.4500407E-2,-2.2000715E-2,6.0951617E-2,1.4018361E-2,-4.995566E-2,2.0044995E-2,-6.4602375E-2,-7.588598E-2,5.8771413E-2,-5.7075124E-2,1.9591537E-3,-6.967403E-2,-2.1696705E-2,-6.3110046E-2,-5.990545E-2,-7.4618384E-2],"categories":[],"categories_nodes":[],"categories_segments":[],"categories_sizes":[],"default_left":[0,0,0,0,0,0,0,0,0,0,0,0,0,0,0,0,0,0,0,0,0,0,0,0,0,0,0,0,0,0,0],"id":12,"left_children":[1,3,5,7,9,11,13,15,17,19,21,23,25,27,29,-1,-1,-1,-1,-1,-1,-1,-1,-1,-1,-1,-1,-1,-1,-1,-1],"loss_changes":[3.9186645E4,9.649197E3,2.5242488E4,4.0880352E3,7.885054E2,2.359405E4,1.7382188E3,3.7668242E3,2.8385703E3,2.4825713E3,1.0780762E1,6.752201E3,1.4062798E4,1.3477129E3,3.7865625E2,0E0,0E0,0E0,0E0,0E0,0E0,0E0,0E0,0E0,0E0,0E0,0E0,0E0,0E0,0E0,0E0],"parents":[2147483647,0,0,1,1,2,2,3,3,4,4,5,5,6,6,7,7,8,8,9,9,10,10,11,11,12,12,13,13,14,14],"right_children":[2,4,6,8,10,12,14,16,18,20,22,24,26,28,30,-1,-1,-1,-1,-1,-1,-1,-1,-1,-1,-1,-1,-1,-1,-1,-1],"split_conditions":[2E0,2.327E3,2.048E3,1.908E3,2.684E3,4.13E2,2.309E3,2E0,1.922E3,2.498E3,1E0,7.2E1,1.8E1,2E0,1E0,2.4500407E-2,-2.2000715E-2,6.0951617E-2,1.4018361E-2,-4.995566E-2,2.0044995E-2,-6.4602375E-2,-7.588598E-2,5.8771413E-2,-5.7075124E-2,1.9591537E-3,-6.967403E-2,-2.1696705E-2,-6.3110046E-2,-5.990545E-2,-7.4618384E-2],"split_indices":[4,9,9,9,9,9,9,1,9,9,1,9,1,1,1,0,0,0,0,0,0,0,0,0,0,0,0,0,0,0,0],"split_type":[0,0,0,0,0,0,0,0,0,0,0,0,0,0,0,0,0,0,0,0,0,0,0,0,0,0,0,0,0,0,0],"sum_hessian":[3.958112E5,1.27870266E5,2.6794094E5,1.2084311E5,7.027156E3,2.4206661E5,2.587433E4,1.039093E5,1.6933816E4,5.575319E3,1.4518369E3,2.5664715E4,2.1640189E5,8.137521E3,1.7736809E4,9.935513E4,4.5541597E3,1.2605264E4,4.3285527E3,3.6307595E3,1.9445591E3,1.1583221E3,2.9351474E2,1.3259327E3,2.4338781E4,2.0931908E5,7.0828135E3,4.8205703E3,3.316951E3,9.791891E3,7.944919E3],"tree_param":{"num_deleted":"0","num_feature":"13","num_nodes":"31","size_leaf_vector":"1"}},{"base_weights":[1.5957134E-3,3.3111706E-1,-2.651036E-1,4.242521E-1,-8.688496E-1,-6.848003E-1,-4.565811E-2,4.900916E-1,-5.093707E-1,-6.7517614E-1,-1.3674034E0,-8.0064094E-1,4.078833E-1,3.467488E-1,-6.129323E-1,2.1336656E-2,4.2153172E-2,-1.51914E-2,-6.428225E-2,2.8622279E-2,-3.7687685E-2,1.7769871E-2,-6.9337726E-2,-3.626997E-2,-8.472576E-2,8.79429E-2,-2.5191953E-2,2.2692613E-2,-8.065617E-2,-2.1388449E-2,-5.1462423E-2],"categories":[],"categories_nodes":[],"categories_segments":[],"categories_sizes":[],"default_left":[0,0,0,0,0,0,0,0,0,0,0,0,0,0,0,0,0,0,0,0,0,0,0,0,0,0,0,0,0,0,0],"id":13,"left_children":[1,3,5,7,9,11,13,15,17,19,21,23,25,27,29,-1,-1,-1,-1,-1,-1,-1,-1,-1,-1,-1,-1,-1,-1,-1,-1],"loss_changes":[3.4651953E4,1.9711645E4,2.0070527E4,1.0060934E4,1.2259336E3,9.470895E3,3.1854443E4,3.4189023E3,1.7200017E3,8.972886E2,1.18819336E2,4.549039E3,8.834558E3,1.7755918E4,4.510176E3,0E0,0E0,0E0,0E0,0E0,0E0,0E0,0E0,0E0,0E0,0E0,0E0,0E0,0E0,0E0,0E0],"parents":[2147483647,0,0,1,1,2,2,3,3,4,4,5,5,6,6,7,7,8,8,9,9,10,10,11,11,12,12,13,13,14,14],"right_children":[2,4,6,8,10,12,14,16,18,20,22,24,26,28,30,-1,-1,-1,-1,-1,-1,-1,-1,-1,-1,-1,-1,-1,-1,-1,-1],"split_conditions":[2.1E1,2.327E3,4.02031E5,2E0,1E0,1.399022E6,4.05405E5,1.814E3,5E0,9E0,8E0,1.390928E6,1.406635E6,1E0,1.105E3,2.1336656E-2,4.2153172E-2,-1.51914E-2,-6.428225E-2,2.8622279E-2,-3.7687685E-2,1.7769871E-2,-6.9337726E-2,-3.626997E-2,-8.472576E-2,8.79429E-2,-2.5191953E-2,2.2692613E-2,-8.065617E-2,-2.1388449E-2,-5.1462423E-2],"split_indices":[0,9,7,1,1,8,7,9,1,0,0,8,8,10,9,0,0,0,0,0,0,0,0,0,0,0,0,0,0,0,0],"split_type":[0,0,0,0,0,0,0,0,0,0,0,0,0,0,0,0,0,0,0,0,0,0,0,0,0,0,0,0,0,0,0],"sum_hessian":[3.942948E5,1.7637467E5,2.1792014E5,1.6367175E5,1.2702925E4,7.4821E4,1.4309912E5,1.528902E5,1.0781543E4,9.1498545E3,3.5530703E3,6.764939E4,7.1716123E3,8.458691E4,5.8512223E4,1.29624055E5,2.3266152E4,8.525087E3,2.2564563E3,5.418688E2,8.607986E3,3.9312233E1,3.513758E3,6.239807E4,5.25132E3,2.8895586E3,4.2820537E3,8.020432E4,4.3825864E3,4.050031E4,1.8011916E4],"tree_param":{"num_deleted":"0","num_feature":"13","num_nodes":"31","size_leaf_vector":"1"}},{"base_weights":[1.5109372E-3,4.2081267E-1,-1.9660845E-1,4.7300026E-1,-2.5243816E-1,-1.278356E-1,-1.1331953E0,9.7718775E-1,4.4271868E-1,-1.01174906E-1,-1.436381E0,-8.8134415E-2,-1.3495069E0,-1.288103E0,-5.7743305E-1,5.387664E-2,4.438707E-2,2.2363959E-2,-3.3918729E-3,9.748596E-4,-2.5008855E-2,-6.702977E-2,-7.6616466E-2,-9.151189E-3,1.9114668E-2,-6.869346E-2,5.3740073E-2,-6.879154E-2,-5.189347E-2,-1.670389E-2,-6.294118E-2],"categories":[],"categories_nodes":[],"categories_segments":[],"categories_sizes":[],"default_left":[0,0,0,0,0,0,0,0,0,0,0,0,0,0,0,0,0,0,0,0,0,0,0,0,0,0,0,0,0,0,0],"id":14,"left_children":[1,3,5,7,9,11,13,15,17,19,21,23,25,27,29,-1,-1,-1,-1,-1,-1,-1,-1,-1,-1,-1,-1,-1,-1,-1,-1],"loss_changes":[3.2643262E4,4.4303477E3,1.7188762E4,1.7862676E3,1.6242954E3,1.2057653E4,1.5710293E3,5.8828125E1,2.5708594E2,3.8736328E2,8.12915E0,1.0748192E4,4.6290625E2,3.1241992E2,6.5961255E2,0E0,0E0,0E0,0E0,0E0,0E0,0E0,0E0,0E0,0E0,0E0,0E0,0E0,0E0,0E0,0E0],"parents":[2147483647,0,0,1,1,2,2,3,3,4,4,5,5,6,6,7,7,8,8,9,9,10,10,11,11,12,12,13,13,14,14],"right_children":[2,4,6,8,10,12,14,16,18,20,22,24,26,28,30,-1,-1,-1,-1,-1,-1,-1,-1,-1,-1,-1,-1,-1,-1,-1,-1],"split_conditions":[2E0,1E0,1E0,9E0,5E0,1.8E1,4.9E1,8E0,3E1,1.7E1,7E0,7E0,4E0,3.7E1,1E0,5.387664E-2,4.438707E-2,2.2363959E-2,-3.3918729E-3,9.748596E-4,-2.5008855E-2,-6.702977E-2,-7.6616466E-2,-9.151189E-3,1.9114668E-2,-6.869346E-2,5.3740073E-2,-6.879154E-2,-5.189347E-2,-1.670389E-2,-6.294118E-2],"split_indices":[4,1,11,0,1,1,0,0,0,0,1,4,3,0,5,0,0,0,0,0,0,0,0,0,0,0,0,0,0,0,0],"split_type":[0,0,0,0,0,0,0,0,0,0,0,0,0,0,0,0,0,0,0,0,0,0,0,0,0,0,0,0,0,0,0],"sum_hessian":[3.9295112E5,1.2609096E5,2.6686016E5,1.17020336E5,9.070631E3,2.4860589E5,1.8254262E4,6.6289814E3,1.1039135E5,8.043591E3,1.0270404E3,2.4078172E5,7.8241704E3,1.4274648E4,3.9796135E3,3.121029E3,3.5079524E3,1.0941428E5,9.770712E2,6.175984E3,1.8676067E3,5.1822363E2,5.0881677E2,2.0036656E5,4.0415152E4,7.7465815E3,7.758863E1,1.0567285E4,3.7073633E3,2.9329993E3,1.0466144E3],"tree_param":{"num_deleted":"0","num_feature":"13","num_nodes":"31","size_leaf_vector":"1"}},{"base_weights":[-1.2651976E-4,3.274903E-1,-2.2917344E-1,4.0439516E-1,-6.277888E-1,-6.203787E-1,-3.0514983E-2,6.1089504E-1,3.119036E-1,-3.1185353E-1,-1.3540382E0,-7.2362167E-1,3.746099E-1,3.1238997E-1,-5.5628926E-1,4.625109E-2,2.7654454E-2,-3.8299875E-3,1.8460212E-2,-6.172258E-3,-3.326712E-2,-7.027889E-2,-4.7866117E-2,-3.2420743E-2,-7.997187E-2,8.380343E-2,-2.3430442E-2,2.0276176E-2,-7.668249E-2,-1.5265936E-2,-4.306204E-2],"categories":[],"categories_nodes":[],"categories_segments":[],"categories_sizes":[],"default_left":[0,0,0,0,0,0,0,0,0,0,0,0,0,0,0,0,0,0,0,0,0,0,0,0,0,0,0,0,0,0,0],"id":15,"left_children":[1,3,5,7,9,11,13,15,17,19,21,23,25,27,29,-1,-1,-1,-1,-1,-1,-1,-1,-1,-1,-1,-1,-1,-1,-1,-1],"loss_changes":[2.9375857E4,1.1833658E4,1.7905383E4,2.8470723E3,2.753313E3,7.9710547E3,2.7548854E4,8.369707E2,2.2921055E3,5.569209E2,7.347461E1,4.629715E3,8.005846E3,1.5900911E4,4.6161016E3,0E0,0E0,0E0,0E0,0E0,0E0,0E0,0E0,0E0,0E0,0E0,0E0,0E0,0E0,0E0,0E0],"parents":[2147483647,0,0,1,1,2,2,3,3,4,4,5,5,6,6,7,7,8,8,9,9,10,10,11,11,12,12,13,13,14,14],"right_children":[2,4,6,8,10,12,14,16,18,20,22,24,26,28,30,-1,-1,-1,-1,-1,-1,-1,-1,-1,-1,-1,-1,-1,-1,-1,-1],"split_conditions":[2E1,2E0,4.02031E5,1.3E1,5E0,1.399022E6,4.05405E5,9E0,2.03858E5,1.7E1,1.365786E6,1.385861E6,1.406635E6,1E0,1E0,4.625109E-2,2.7654454E-2,-3.8299875E-3,1.8460212E-2,-6.172258E-3,-3.326712E-2,-7.027889E-2,-4.7866117E-2,-3.2420743E-2,-7.997187E-2,8.380343E-2,-2.3430442E-2,2.0276176E-2,-7.668249E-2,-1.5265936E-2,-4.306204E-2],"split_indices":[0,1,7,0,1,8,7,0,8,0,8,8,8,10,1,0,0,0,0,0,0,0,0,0,0,0,0,0,0,0,0],"split_type":[0,0,0,0,0,0,0,0,0,0,0,0,0,0,0,0,0,0,0,0,0,0,0,0,0,0,0,0,0,0,0],"sum_hessian":[3.914704E5,1.610756E5,2.3039483E5,1.490747E5,1.2000884E4,7.759346E4,1.5280136E5,4.611435E4,1.0296036E5,8.363444E3,3.637439E3,7.029924E4,7.294222E3,9.248412E4,6.0317246E4,7.16568E3,3.8948668E4,1.3233586E4,8.972677E4,5.456243E3,2.9072017E3,3.217865E3,4.1957382E2,6.4740887E4,5.5583564E3,2.867708E3,4.426514E3,8.8042766E4,4.441353E3,3.30878E4,2.7229441E4],"tree_param":{"num_deleted":"0","num_feature":"13","num_nodes":"31","size_leaf_vector":"1"}},{"base_weights":[2.6234027E-3,7.317482E-2,-1.0716227E0,3.845314E-1,-1.7145024E-1,-3.5634196E-1,-1.1682625E0,4.6020216E-1,-2.7423137E-1,-1.1070186E0,-7.2069705E-2,7.759991E-1,-5.029223E-1,-1.0265466E0,-1.3955647E0,2.0171704E-2,4.079434E-2,-6.8576136E-3,-5.9192535E-2,-3.2710947E-2,-7.377181E-2,8.29701E-3,-2.368591E-2,2.3344468E-2,4.9790096E-2,-4.3906916E-2,-5.895534E-3,-3.604678E-2,-5.8229472E-2,-6.57929E-2,-7.623793E-2],"categories":[],"categories_nodes":[],"categories_segments":[],"categories_sizes":[],"default_left":[0,0,0,0,0,0,0,0,0,0,0,0,0,0,0,0,0,0,0,0,0,0,0,0,0,0,0,0,0,0,0],"id":16,"left_children":[1,3,5,7,9,11,13,15,17,19,21,23,25,27,29,-1,-1,-1,-1,-1,-1,-1,-1,-1,-1,-1,-1,-1,-1,-1,-1],"loss_changes":[2.9527766E4,2.7845662E4,1.6593438E3,8.018635E3,1.9035703E4,4.7465143E2,6.8039844E2,2.9130195E3,2.0663572E3,3.2789082E3,1.7692803E4,2.1890366E1,3.655464E2,5.491406E2,8.234473E1,0E0,0E0,0E0,0E0,0E0,0E0,0E0,0E0,0E0,0E0,0E0,0E0,0E0,0E0,0E0,0E0],"parents":[2147483647,0,0,1,1,2,2,3,3,4,4,5,5,6,6,7,7,8,8,9,9,10,10,11,11,12,12,13,13,14,14],"right_children":[2,4,6,8,10,12,14,16,18,20,22,24,26,28,30,-1,-1,-1,-1,-1,-1,-1,-1,-1,-1,-1,-1,-1,-1,-1,-1],"split_conditions":[2.309E3,2.1E1,1.2E1,1E0,4.19E2,8E0,1E0,1.908E3,5E0,3.34E2,4.57E2,2.498E3,2.498E3,1.7E1,9E0,2.0171704E-2,4.079434E-2,-6.8576136E-3,-5.9192535E-2,-3.2710947E-2,-7.377181E-2,8.29701E-3,-2.368591E-2,2.3344468E-2,4.9790096E-2,-4.3906916E-2,-5.895534E-3,-3.604678E-2,-5.8229472E-2,-6.57929E-2,-7.623793E-2],"split_indices":[9,0,0,1,9,0,1,9,1,9,9,9,9,0,1,0,0,0,0,0,0,0,0,0,0,0,0,0,0,0,0],"split_type":[0,0,0,0,0,0,0,0,0,0,0,0,0,0,0,0,0,0,0,0,0,0,0,0,0,0,0,0,0,0,0],"sum_hessian":[3.896022E5,3.6559234E5,2.4009822E4,1.6085617E5,2.0473617E5,2.8581975E3,2.1151623E4,1.4428298E5,1.6573193E4,1.9659121E4,1.8507706E5,3.2726083E2,2.5309368E3,1.3030627E4,8.120997E3,1.24425695E5,1.9857287E4,1.4403309E4,2.169885E3,8.820293E3,1.0838828E4,1.1621193E5,6.8865125E4,1.368396E2,1.9042123E2,1.2813182E3,1.2496185E3,4.0556704E3,8.974957E3,5.0263433E3,3.0946538E3],"tree_param":{"num_deleted":"0","num_feature":"13","num_nodes":"31","size_leaf_vector":"1"}},{"base_weights":[7.184287E-5,6.7326516E-2,-1.0330627E0,3.4689492E-1,-1.8191856E-1,-3.361934E-1,-1.1277989E0,4.265274E-1,-3.1568557E-1,-1.0770692E0,-8.4812306E-2,7.091943E-1,-4.6974996E-1,-9.850085E-1,-1.3591865E0,1.8512178E-2,3.930963E-2,2.3597453E-3,-3.007033E-2,-3.2574978E-2,-7.0819035E-2,7.507524E-3,-2.4244802E-2,1.901692E-2,4.7037046E-2,-1.4266429E-2,-5.9205037E-2,-3.4398366E-2,-5.5977423E-2,-6.412736E-2,-7.418104E-2],"categories":[],"categories_nodes":[],"categories_segments":[],"categories_sizes":[],"default_left":[0,0,0,0,0,0,0,0,0,0,0,0,0,0,0,0,0,0,0,0,0,0,0,0,0,0,0,0,0,0,0],"id":17,"left_children":[1,3,5,7,9,11,13,15,17,19,21,23,25,27,29,-1,-1,-1,-1,-1,-1,-1,-1,-1,-1,-1,-1,-1,-1,-1,-1],"loss_changes":[2.6961604E4,2.5385988E4,1.5653691E3,9.060168E3,1.6741855E4,3.9653094E2,6.8888477E2,3.1028477E3,1.910252E3,2.7211133E3,1.63339E4,2.4188019E1,3.313888E2,5.154678E2,7.473535E1,0E0,0E0,0E0,0E0,0E0,0E0,0E0,0E0,0E0,0E0,0E0,0E0,0E0,0E0,0E0,0E0],"parents":[2147483647,0,0,1,1,2,2,3,3,4,4,5,5,6,6,7,7,8,8,9,9,10,10,11,11,12,12,13,13,14,14],"right_children":[2,4,6,8,10,12,14,16,18,20,22,24,26,28,30,-1,-1,-1,-1,-1,-1,-1,-1,-1,-1,-1,-1,-1,-1,-1,-1],"split_conditions":[2.309E3,2.2E1,1.2E1,1E0,4.29E2,8E0,1E0,1.908E3,1.6E1,3.34E2,4.57E2,2.498E3,1E0,1.7E1,9E0,1.8512178E-2,3.930963E-2,2.3597453E-3,-3.007033E-2,-3.2574978E-2,-7.0819035E-2,7.507524E-3,-2.4244802E-2,1.901692E-2,4.7037046E-2,-1.4266429E-2,-5.9205037E-2,-3.4398366E-2,-5.5977423E-2,-6.412736E-2,-7.418104E-2],"split_indices":[9,0,0,1,9,0,1,9,0,9,9,9,1,0,1,0,0,0,0,0,0,0,0,0,0,0,0,0,0,0,0],"split_type":[0,0,0,0,0,0,0,0,0,0,0,0,0,0,0,0,0,0,0,0,0,0,0,0,0,0,0,0,0,0,0],"sum_hessian":[3.8803134E5,3.6431578E5,2.3715553E4,1.7171266E5,1.9260314E5,2.8385842E3,2.0876969E4,1.532898E5,1.8422863E4,1.8848324E4,1.7375481E5,3.212397E2,2.5173445E3,1.2911983E4,7.9649863E3,1.3254861E5,2.0741184E4,8.1156436E3,1.030722E4,8.362146E3,1.0486179E4,1.0946678E5,6.4288027E4,1.334539E2,1.8778578E2,2.0014714E3,5.1587305E2,4.0263315E3,8.885651E3,4.933121E3,3.0318652E3],"tree_param":{"num_deleted":"0","num_feature":"13","num_nodes":"31","size_leaf_vector":"1"}},{"base_weights":[1.4932067E-4,8.10986E-2,-8.0358386E-1,-3.7592405E-1,2.2948115E-1,-7.768171E-2,-9.7024035E-1,2.1698877E-1,-5.661645E-1,4.0286803E-1,-3.320428E-1,4.2552197E-1,-6.055947E-1,-8.027561E-1,-1.2351986E0,2.0986313E-2,-2.667482E-2,-3.4596182E-2,1.4701671E-2,2.202349E-2,-7.4078105E-2,-5.438044E-3,-3.8278546E-2,1.6875364E-2,5.80046E-2,-6.832497E-2,-9.163287E-3,-2.5510568E-2,-5.277103E-2,-5.619508E-2,-7.2906494E-2],"categories":[],"categories_nodes":[],"categories_segments":[],"categories_sizes":[],"default_left":[0,0,0,0,0,0,0,0,0,0,0,0,0,0,0,0,0,0,0,0,0,0,0,0,0,0,0,0,0,0,0],"id":18,"left_children":[1,3,5,7,9,11,13,15,17,19,21,23,25,27,29,-1,-1,-1,-1,-1,-1,-1,-1,-1,-1,-1,-1,-1,-1,-1,-1],"loss_changes":[2.5124605E4,2.3791467E4,4.2745E3,9.699181E3,2.5785668E4,1.7529552E3,1.2745352E3,3.1782493E3,7.042539E3,1.4339102E4,6.048348E3,2.1807648E2,1.0345912E3,1.3011387E3,2.7503906E2,0E0,0E0,0E0,0E0,0E0,0E0,0E0,0E0,0E0,0E0,0E0,0E0,0E0,0E0,0E0,0E0],"parents":[2147483647,0,0,1,1,2,2,3,3,4,4,5,5,6,6,7,7,8,8,9,9,10,10,11,11,12,12,13,13,14,14],"right_children":[2,4,6,8,10,12,14,16,18,20,22,24,26,28,30,-1,-1,-1,-1,-1,-1,-1,-1,-1,-1,-1,-1,-1,-1,-1,-1],"split_conditions":[2.048E3,4.02031E5,1.3E1,2.2E1,4.05405E5,2.458E3,1E0,1E0,8E0,1E0,2E0,2.339E3,2.498E3,2.458E3,9E0,2.0986313E-2,-2.667482E-2,-3.4596182E-2,1.4701671E-2,2.202349E-2,-7.4078105E-2,-5.438044E-3,-3.8278546E-2,1.6875364E-2,5.80046E-2,-6.832497E-2,-9.163287E-3,-2.5510568E-2,-5.277103E-2,-5.619508E-2,-7.2906494E-2],"split_indices":[9,7,0,0,7,9,1,1,4,10,1,9,9,9,1,0,0,0,0,0,0,0,0,0,0,0,0,0,0,0,0],"split_type":[0,0,0,0,0,0,0,0,0,0,0,0,0,0,0,0,0,0,0,0,0,0,0,0,0,0,0,0,0,0,0],"sum_hessian":[3.8616634E5,3.5083228E5,3.5334062E4,8.598733E4,2.6484497E5,6.5977427E3,2.873632E4,2.0887553E4,6.5099773E4,2.0236056E5,6.2484406E4,3.377877E3,3.2198657E3,1.7608258E4,1.11280625E4,1.6445334E4,4.4422197E3,5.6796465E4,8.303308E3,1.984021E5,3.9584634E3,4.1243457E4,2.1240947E4,3.017225E3,3.606519E2,1.1487761E3,2.0710896E3,8.1610205E3,9.447237E3,7.424764E3,3.7032986E3],"tree_param":{"num_deleted":"0","num_feature":"13","num_nodes":"31","size_leaf_vector":"1"}},{"base_weights":[1.7966081E-3,1.5551312E-1,-3.6752963E-1,2.0019789E-1,-1.017362E0,-6.4816713E-1,7.1932346E-2,2.2877765E-1,-8.115398E-1,-1.2163901E0,-5.753082E-1,-7.078929E-1,1.2943194E0,2.5303534E-1,-1.2217193E0,1.9567229E-2,4.9273367E-3,-6.457829E-2,-6.678196E-3,-6.62237E-2,-1.9772364E-2,3.4397405E-3,-7.742214E-2,-4.9630493E-2,-2.496364E-2,6.7100875E-2,-7.434082E-2,2.3449114E-2,-4.982348E-2,-4.565655E-2,-8.026283E-2],"categories":[],"categories_nodes":[],"categories_segments":[],"categories_sizes":[],"default_left":[0,0,0,0,0,0,0,0,0,0,0,0,0,0,0,0,0,0,0,0,0,0,0,0,0,0,0,0,0,0,0],"id":19,"left_children":[1,3,5,7,9,11,13,15,17,19,21,23,25,27,29,-1,-1,-1,-1,-1,-1,-1,-1,-1,-1,-1,-1,-1,-1,-1,-1],"loss_changes":[2.1825506E4,1.4227192E4,1.3934335E4,7.561326E3,8.76E2,7.999961E3,1.0316166E4,5.3841006E3,2.3377578E3,6.090664E2,1.9395717E3,3.973039E3,2.7384912E2,1.0422419E4,6.389966E2,0E0,0E0,0E0,0E0,0E0,0E0,0E0,0E0,0E0,0E0,0E0,0E0,0E0,0E0,0E0,0E0],"parents":[2147483647,0,0,1,1,2,2,3,3,4,4,5,5,6,6,7,7,8,8,9,9,10,10,11,11,12,12,13,13,14,14],"right_children":[2,4,6,8,10,12,14,16,18,20,22,24,26,28,30,-1,-1,-1,-1,-1,-1,-1,-1,-1,-1,-1,-1,-1,-1,-1,-1],"split_conditions":[1E0,1E0,6E0,1E0,6.12535E5,1E0,1.9E1,2E0,6.01624E5,1.405822E6,6.17708E5,4.02031E5,1.8E1,1E0,3.3E1,1.9567229E-2,4.9273367E-3,-6.457829E-2,-6.678196E-3,-6.62237E-2,-1.9772364E-2,3.4397405E-3,-7.742214E-2,-4.9630493E-2,-2.496364E-2,6.7100875E-2,-7.434082E-2,2.3449114E-2,-4.982348E-2,-4.565655E-2,-8.026283E-2],"split_indices":[1,11,4,10,7,5,1,4,7,8,7,7,1,11,1,0,0,0,0,0,0,0,0,0,0,0,0,0,0,0,0],"split_type":[0,0,0,0,0,0,0,0,0,0,0,0,0,0,0,0,0,0,0,0,0,0,0,0,0,0,0,0,0,0,0],"sum_hessian":[3.8444384E5,2.714604E5,1.1298342E5,2.6149823E5,9.962188E3,6.895146E4,4.403196E4,2.5431478E5,7.1834443E3,6.868601E3,3.0935872E3,6.689501E4,2.0564563E3,3.8625164E4,5.4067974E3,1.1311359E5,1.4120119E5,4.2053433E3,2.978101E3,6.0691226E3,7.9947845E2,1.8617109E3,1.2318762E3,2.8287258E4,3.860775E4,2.0220712E3,3.4385063E1,3.2933746E4,5.6914155E3,2.9972258E3,2.4095715E3],"tree_param":{"num_deleted":"0","num_feature":"13","num_nodes":"31","size_leaf_vector":"1"}},{"base_weights":[2.2859647E-4,7.696906E-2,-7.671358E-1,-6.90704E-1,1.5515661E-1,-3.0634147E-1,-1.0128858E0,-1.8950975E-1,-1.1607184E0,4.2298383E-1,-2.2157693E-2,2.061753E-1,-7.608693E-1,-8.4288037E-1,-1.1516305E0,-3.1098073E-2,5.841623E-2,-3.3740085E-2,-6.783053E-2,1.7512431E-2,5.2078485E-2,7.7857836E-3,-1.713318E-2,6.137962E-3,4.5735877E-2,-6.611127E-2,-2.4175337E-2,-2.6469994E-2,-4.9680308E-2,-5.1654637E-2,-6.299375E-2],"categories":[],"categories_nodes":[],"categories_segments":[],"categories_sizes":[],"default_left":[0,0,0,0,0,0,0,0,0,0,0,0,0,0,0,0,0,0,0,0,0,0,0,0,0,0,0,0,0,0,0],"id":20,"left_children":[1,3,5,7,9,11,13,15,17,19,21,23,25,27,29,-1,-1,-1,-1,-1,-1,-1,-1,-1,-1,-1,-1,-1,-1,-1,-1],"loss_changes":[2.254945E4,2.089443E4,3.9419102E3,7.5798115E3,1.5003569E4,2.8210566E3,5.348379E2,9.144761E3,1.5799395E3,5.6618887E3,1.0836793E4,3.3625415E2,9.987737E2,4.8175244E2,1.595039E2,0E0,0E0,0E0,0E0,0E0,0E0,0E0,0E0,0E0,0E0,0E0,0E0,0E0,0E0,0E0,0E0],"parents":[2147483647,0,0,1,1,2,2,3,3,4,4,5,5,6,6,7,7,8,8,9,9,10,10,11,11,12,12,13,13,14,14],"right_children":[2,4,6,8,10,12,14,16,18,20,22,24,26,28,30,-1,-1,-1,-1,-1,-1,-1,-1,-1,-1,-1,-1,-1,-1,-1,-1],"split_conditions":[2.048E3,4.19E2,1.6E1,3.34E2,2E1,2.458E3,2.4E1,2.95E2,1.8E1,1.908E3,4.57E2,2.339E3,2.498E3,2.309E3,2.458E3,-3.1098073E-2,5.841623E-2,-3.3740085E-2,-6.783053E-2,1.7512431E-2,5.2078485E-2,7.7857836E-3,-1.713318E-2,6.137962E-3,4.5735877E-2,-6.611127E-2,-2.4175337E-2,-2.6469994E-2,-4.9680308E-2,-5.1654637E-2,-6.299375E-2],"split_indices":[9,9,0,9,0,9,0,9,0,9,9,9,9,9,9,0,0,0,0,0,0,0,0,0,0,0,0,0,0,0,0],"split_type":[0,0,0,0,0,0,0,0,0,0,0,0,0,0,0,0,0,0,0,0,0,0,0,0,0,0,0,0,0,0,0],"sum_hessian":[3.8292178E5,3.481096E5,3.4812203E4,3.2177207E4,3.1593238E5,1.2108898E4,2.2703305E4,1.5572535E4,1.6604672E4,1.2584607E5,1.9008631E5,5.691419E3,6.4174795E3,1.0204218E4,1.2499086E4,1.181118E4,3.7613552E3,4.7715137E3,1.1833158E4,1.12606414E5,1.3239658E4,1.2224378E5,6.784253E4,5.092599E3,5.9881946E2,2.1215059E3,4.2959736E3,3.3142139E3,6.8900044E3,5.968842E3,6.5302437E3],"tree_param":{"num_deleted":"0","num_feature":"13","num_nodes":"31","size_leaf_vector":"1"}},{"base_weights":[3.7585982E-4,-3.878767E-1,1.2632824E-1,-4.5896327E-1,3.7347203E-1,2.8378886E-1,-3.7059286E-1,-3.8464206E-1,-1.4423332E0,1.8155764E0,-3.5981944E-1,3.1843162E-1,-1.348183E0,-4.9484643E-1,-7.604269E-2,-3.0645465E-2,-7.984317E-3,-7.526943E-2,-8.59551E-3,8.876638E-2,1.1500808E-1,-2.3213552E-2,6.532132E-2,1.7361509E-2,-6.104496E-2,-6.276114E-2,-8.816934E-2,-3.658924E-2,-1.6106423E-2,1.7778434E-2,-4.1867886E-2],"categories":[],"categories_nodes":[],"categories_segments":[],"categories_sizes":[],"default_left":[0,0,0,0,0,0,0,0,0,0,0,0,0,0,0,0,0,0,0,0,0,0,0,0,0,0,0,0,0,0,0],"id":21,"left_children":[1,3,5,7,9,11,13,15,17,19,21,23,25,27,29,-1,-1,-1,-1,-1,-1,-1,-1,-1,-1,-1,-1,-1,-1,-1,-1],"loss_changes":[1.8635494E4,5.0520693E3,2.2514348E4,6.2391094E3,8.430111E3,1.2353365E4,2.5339365E3,4.0758145E3,4.8024316E2,4.9960938E1,9.1998785E2,9.485131E3,1.7389648E2,1.9925547E3,6.7503467E3,0E0,0E0,0E0,0E0,0E0,0E0,0E0,0E0,0E0,0E0,0E0,0E0,0E0,0E0,0E0,0E0],"parents":[2147483647,0,0,1,1,2,2,3,3,4,4,5,5,6,6,7,7,8,8,9,9,10,10,11,11,12,12,13,13,14,14],"right_children":[2,4,6,8,10,12,14,16,18,20,22,24,26,28,30,-1,-1,-1,-1,-1,-1,-1,-1,-1,-1,-1,-1,-1,-1,-1,-1],"split_conditions":[4.02031E5,1.405822E6,4.05405E5,1.390928E6,1.406635E6,1E0,6.12535E5,5.43958E5,1.399022E6,1E0,1E0,1E0,1E0,5.43958E5,6.17708E5,-3.0645465E-2,-7.984317E-3,-7.526943E-2,-8.59551E-3,8.876638E-2,1.1500808E-1,-2.3213552E-2,6.532132E-2,1.7361509E-2,-6.104496E-2,-6.276114E-2,-8.816934E-2,-3.658924E-2,-1.6106423E-2,1.7778434E-2,-4.1867886E-2],"split_indices":[7,8,7,8,8,10,7,8,8,11,5,11,5,8,7,0,0,0,0,0,0,0,0,0,0,0,0,0,0,0,0],"split_type":[0,0,0,0,0,0,0,0,0,0,0,0,0,0,0,0,0,0,0,0,0,0,0,0,0,0,0,0,0,0,0],"sum_hessian":[3.8108306E5,9.334428E4,2.8773878E5,8.537337E4,7.9709194E3,2.1850195E5,6.9236836E4,7.937514E4,5.9982227E3,2.686668E3,5.2842515E3,2.1396056E5,4.541393E3,4.8694695E4,2.0542135E4,3.939694E4,3.99782E4,5.7144253E3,2.837976E2,2.4829744E3,2.0369356E2,4.972935E3,3.113166E2,2.1003162E5,3.9289243E3,3.7124604E3,8.289326E2,2.0529574E4,2.8165123E4,1.3109895E4,7.432241E3],"tree_param":{"num_deleted":"0","num_feature":"13","num_nodes":"31","size_leaf_vector":"1"}},{"base_weights":[-7.195821E-4,1.3909788E-1,-3.372411E-1,1.7979655E-1,-9.5663065E-1,-7.392759E-1,-5.006816E-2,2.061704E-1,-7.492871E-1,-1.1539567E0,-5.3270954E-1,-3.98418E-1,-9.6338624E-1,6.277392E-2,-1.1933199E0,1.7339535E-2,4.7426145E-3,-5.9406858E-2,-6.7354045E-3,-6.315857E-2,-1.6945368E-2,2.880322E-3,-7.343268E-2,-7.380913E-4,-2.781117E-2,2.1820389E-2,-4.9816724E-2,1.0037831E-2,-5.1169347E-2,-4.7936823E-2,-7.7034414E-2],"categories":[],"categories_nodes":[],"categories_segments":[],"categories_sizes":[],"default_left":[0,0,0,0,0,0,0,0,0,0,0,0,0,0,0,0,0,0,0,0,0,0,0,0,0,0,0,0,0,0,0],"id":22,"left_children":[1,3,5,7,9,11,13,15,17,19,21,23,25,27,29,-1,-1,-1,-1,-1,-1,-1,-1,-1,-1,-1,-1,-1,-1,-1,-1],"loss_changes":[1.7864506E4,1.1961788E4,1.2866672E4,6.3373057E3,8.030869E2,3.5469043E3,8.386894E3,3.9366455E3,1.9252314E3,5.8306836E2,1.6865815E3,1.1152095E3,1.2923555E3,8.867941E3,4.7492188E2,0E0,0E0,0E0,0E0,0E0,0E0,0E0,0E0,0E0,0E0,0E0,0E0,0E0,0E0,0E0,0E0],"parents":[2147483647,0,0,1,1,2,2,3,3,4,4,5,5,6,6,7,7,8,8,9,9,10,10,11,11,12,12,13,13,14,14],"right_children":[2,4,6,8,10,12,14,16,18,20,22,24,26,28,30,-1,-1,-1,-1,-1,-1,-1,-1,-1,-1,-1,-1,-1,-1,-1,-1],"split_conditions":[1E0,1E0,4E0,1E0,6.12535E5,3E0,1.9E1,2E0,5.95899E5,1.405822E6,6.17708E5,2E0,6.989E3,1E0,3.4E1,1.7339535E-2,4.7426145E-3,-5.9406858E-2,-6.7354045E-3,-6.315857E-2,-1.6945368E-2,2.880322E-3,-7.343268E-2,-7.380913E-4,-2.781117E-2,2.1820389E-2,-4.9816724E-2,1.0037831E-2,-5.1169347E-2,-4.7936823E-2,-7.7034414E-2],"split_indices":[1,11,4,10,7,1,1,4,7,8,7,4,7,11,1,0,0,0,0,0,0,0,0,0,0,0,0,0,0,0,0],"split_type":[0,0,0,0,0,0,0,0,0,0,0,0,0,0,0,0,0,0,0,0,0,0,0,0,0,0,0,0,0,0,0],"sum_hessian":[3.7967775E5,2.6823278E5,1.1144496E5,2.586271E5,9.605683E3,4.6435426E4,6.5009535E4,2.5148861E5,7.138495E3,6.5538926E3,3.0517898E3,1.842063E4,2.8014793E4,5.9169707E4,5.839827E3,1.1111849E5,1.4037011E5,4.1642886E3,2.9742068E3,5.7791064E3,7.747858E2,1.8716625E3,1.1801274E3,5.3689146E3,1.3051716E4,6.4403406E2,2.737076E4,5.2500676E4,6.6690327E3,3.4870999E3,2.3527275E3],"tree_param":{"num_deleted":"0","num_feature":"13","num_nodes":"31","size_leaf_vector":"1"}},{"base_weights":[5.1857012E-5,7.3366515E-2,-7.3816085E-1,-6.521927E-1,1.4664151E-1,-9.1819175E-2,-8.9124393E-1,-1.6836584E-1,-1.115798E0,-2.2105558E-1,2.596352E-1,3.6513397E-1,-5.640785E-1,-6.088824E-1,-1.0292959E0,-2.8940557E-2,5.6197103E-2,-2.955603E-2,-6.381645E-2,1.7016927E-2,-1.997014E-2,1.9466907E-2,-9.163688E-3,1.4369622E-2,5.0274532E-2,-6.436957E-2,-8.342333E-3,-3.5306625E-2,3.8552504E-2,-4.32308E-2,-5.790139E-2],"categories":[],"categories_nodes":[],"categories_segments":[],"categories_sizes":[],"default_left":[0,0,0,0,0,0,0,0,0,0,0,0,0,0,0,0,0,0,0,0,0,0,0,0,0,0,0,0,0,0,0],"id":23,"left_children":[1,3,5,7,9,11,13,15,17,19,21,23,25,27,29,-1,-1,-1,-1,-1,-1,-1,-1,-1,-1,-1,-1,-1,-1,-1,-1],"loss_changes":[2.0476023E4,1.8297086E4,3.3816836E3,7.080709E3,1.2987205E4,1.4126864E3,1.076707E3,8.194216E3,1.35725E3,7.3569453E3,1.3736038E4,1.653497E2,9.2470874E2,1.2182075E3,3.9273438E2,0E0,0E0,0E0,0E0,0E0,0E0,0E0,0E0,0E0,0E0,0E0,0E0,0E0,0E0,0E0,0E0],"parents":[2147483647,0,0,1,1,2,2,3,3,4,4,5,5,6,6,7,7,8,8,9,9,10,10,11,11,12,12,13,13,14,14],"right_children":[2,4,6,8,10,12,14,16,18,20,22,24,26,28,30,-1,-1,-1,-1,-1,-1,-1,-1,-1,-1,-1,-1,-1,-1,-1,-1],"split_conditions":[2.048E3,4.19E2,1.3E1,3.34E2,4.02031E5,2.458E3,2.309E3,2.95E2,1.6E1,2.2E1,4.05405E5,2.339E3,2.498E3,2.291E3,2.1E1,-2.8940557E-2,5.6197103E-2,-2.955603E-2,-6.381645E-2,1.7016927E-2,-1.997014E-2,1.9466907E-2,-9.163688E-3,1.4369622E-2,5.0274532E-2,-6.436957E-2,-8.342333E-3,-3.5306625E-2,3.8552504E-2,-4.32308E-2,-5.790139E-2],"split_indices":[9,9,0,9,7,9,9,9,0,0,7,9,9,9,0,0,0,0,0,0,0,0,0,0,0,0,0,0,0,0,0],"split_type":[0,0,0,0,0,0,0,0,0,0,0,0,0,0,0,0,0,0,0,0,0,0,0,0,0,0,0,0,0,0,0],"sum_hessian":[3.783325E5,3.4415388E5,3.417862E4,3.1567861E4,3.1258603E5,6.545195E3,2.7633424E4,1.5447485E4,1.6120375E4,7.347778E4,2.3910823E5,3.326454E3,3.2187405E3,9.075172E3,1.8558254E4,1.1724168E4,3.7233174E3,3.777385E3,1.234299E4,1.7714809E4,5.5762973E4,1.849478E5,5.416044E4,2.9671165E3,3.5933777E2,1.1405533E3,2.078187E3,8.478005E3,5.971663E2,8.144302E3,1.0413951E4],"tree_param":{"num_deleted":"0","num_feature":"13","num_nodes":"31","size_leaf_vector":"1"}},{"base_weights":[-2.3088178E-4,6.9835395E-2,-7.129121E-1,-6.318829E-1,1.3867539E-1,-2.963504E-1,-9.395809E-1,-1.6074893E-1,-1.1077142E0,-2.0967354E-1,2.4614953E-1,1.6495386E-1,-7.0671374E-1,-8.6887443E-1,-1.3095478E0,-2.7545666E-2,5.3710707E-2,-3.416181E-2,-6.4301305E-2,1.14314845E-2,-2.0715805E-2,1.8398754E-2,-8.477811E-3,3.128981E-2,2.0726824E-3,-6.2122997E-2,-2.2176329E-2,-2.9583266E-2,-4.980668E-2,-6.9464E-2,-5.5491496E-2],"categories":[],"categories_nodes":[],"categories_segments":[],"categories_sizes":[],"default_left":[0,0,0,0,0,0,0,0,0,0,0,0,0,0,0,0,0,0,0,0,0,0,0,0,0,0,0,0,0,0,0],"id":24,"left_children":[1,3,5,7,9,11,13,15,17,19,21,23,25,27,29,-1,-1,-1,-1,-1,-1,-1,-1,-1,-1,-1,-1,-1,-1,-1,-1],"loss_changes":[1.8789426E4,1.654949E4,3.1800352E3,6.8611934E3,1.1680427E4,2.2471501E3,5.6980273E2,7.410887E3,1.1519043E3,6.5981475E3,1.2074925E4,3.1798438E2,8.853423E2,6.45624E2,5.4690918E1,0E0,0E0,0E0,0E0,0E0,0E0,0E0,0E0,0E0,0E0,0E0,0E0,0E0,0E0,0E0,0E0],"parents":[2147483647,0,0,1,1,2,2,3,3,4,4,5,5,6,6,7,7,8,8,9,9,10,10,11,11,12,12,13,13,14,14],"right_children":[2,4,6,8,10,12,14,16,18,20,22,24,26,28,30,-1,-1,-1,-1,-1,-1,-1,-1,-1,-1,-1,-1,-1,-1,-1,-1],"split_conditions":[2.048E3,4.12E2,1.6E1,3.34E2,4.02031E5,2.458E3,7E0,2.95E2,1.8E1,2.4E1,4.05405E5,1E1,2.498E3,2.309E3,4.4E1,-2.7545666E-2,5.3710707E-2,-3.416181E-2,-6.4301305E-2,1.14314845E-2,-2.0715805E-2,1.8398754E-2,-8.477811E-3,3.128981E-2,2.0726824E-3,-6.2122997E-2,-2.2176329E-2,-2.9583266E-2,-4.980668E-2,-6.9464E-2,-5.5491496E-2],"split_indices":[9,9,0,9,7,9,1,9,0,0,7,0,9,9,0,0,0,0,0,0,0,0,0,0,0,0,0,0,0,0,0],"split_type":[0,0,0,0,0,0,0,0,0,0,0,0,0,0,0,0,0,0,0,0,0,0,0,0,0,0,0,0,0,0,0],"sum_hessian":[3.76276E5,3.425946E5,3.368141E4,3.0606158E4,3.119884E5,1.1869599E4,2.181181E4,1.5379429E4,1.5226729E4,7.3560414E4,2.38428E5,5.587991E3,6.281607E3,1.8313717E4,3.4980935E3,1.1687371E4,3.6920574E3,4.5051147E3,1.0721614E4,2.3413295E4,5.014712E4,1.8439116E5,5.403685E4,1.1804155E3,4.4075757E3,2.068569E3,4.213038E3,5.763238E3,1.25504795E4,2.4975376E3,1.00055585E3],"tree_param":{"num_deleted":"0","num_feature":"13","num_nodes":"31","size_leaf_vector":"1"}},{"base_weights":[1.0498143E-3,5.4251958E-2,-8.6047196E-1,3.84618E-1,-7.4136466E-2,-5.144677E-1,-1.0173849E0,3.2720253E-1,6.77385E-1,-8.5960704E-1,6.3660985E-4,-3.5334858E-1,-1.130476E0,-9.675587E-1,-1.3067405E0,1.9311717E-2,1.9318141E-3,4.8648298E-2,3.5960786E-3,6.1243474E-2,-4.7145694E-2,6.5994323E-3,-1.7463803E-2,-4.074844E-2,2.3441726E-2,-4.868817E-2,-6.400154E-2,-5.328052E-2,-2.3193697E-2,-6.5425426E-2,-3.797565E-2],"categories":[],"categories_nodes":[],"categories_segments":[],"categories_sizes":[],"default_left":[0,0,0,0,0,0,0,0,0,0,0,0,0,0,0,0,0,0,0,0,0,0,0,0,0,0,0,0,0,0,0],"id":25,"left_children":[1,3,5,7,9,11,13,15,17,19,21,23,25,27,29,-1,-1,-1,-1,-1,-1,-1,-1,-1,-1,-1,-1,-1,-1,-1,-1],"loss_changes":[1.7169635E4,1.4964651E4,1.1824766E3,1.6595381E3,1.4922348E4,6.7445667E2,2.1524414E2,1.4061807E3,2.897001E3,3.8355293E3,1.0662651E4,2.0460154E3,3.2180298E1,6.312217E2,1.4248047E0,0E0,0E0,0E0,0E0,0E0,0E0,0E0,0E0,0E0,0E0,0E0,0E0,0E0,0E0,0E0,0E0],"parents":[2147483647,0,0,1,1,2,2,3,3,4,4,5,5,6,6,7,7,8,8,9,9,10,10,11,11,12,12,13,13,14,14],"right_children":[2,4,6,8,10,12,14,16,18,20,22,24,26,28,30,-1,-1,-1,-1,-1,-1,-1,-1,-1,-1,-1,-1,-1,-1,-1,-1],"split_conditions":[2.309E3,1.7E1,2E0,1.803E3,4.19E2,2.684E3,2.684E3,1.105E3,2.048E3,7.2E1,1.105E3,2.498E3,1.4E1,2.552E3,1.5E1,1.9311717E-2,1.9318141E-3,4.8648298E-2,3.5960786E-3,6.1243474E-2,-4.7145694E-2,6.5994323E-3,-1.7463803E-2,-4.074844E-2,2.3441726E-2,-4.868817E-2,-6.400154E-2,-5.328052E-2,-2.3193697E-2,-6.5425426E-2,-3.797565E-2],"split_indices":[9,0,4,9,9,9,9,9,9,9,9,9,0,9,4,0,0,0,0,0,0,0,0,0,0,0,0,0,0,0,0],"split_type":[0,0,0,0,0,0,0,0,0,0,0,0,0,0,0,0,0,0,0,0,0,0,0,0,0,0,0,0,0,0,0],"sum_hessian":[3.7459894E5,3.5281206E5,2.1786861E4,9.873901E4,2.5407308E5,6.7984893E3,1.4988373E4,8.2551055E4,1.6187951E4,2.2083898E4,2.3198917E5,5.3897344E3,1.408755E3,1.2788709E4,2.199663E3,6.8531164E4,1.4019888E4,1.0877299E4,5.310653E3,8.4836414E2,2.1235535E4,1.6867258E5,6.331659E4,3.4518154E3,1.9379188E3,6.9007544E2,7.1867957E2,1.0704184E4,2.0845264E3,2.1917039E3,7.959285E0],"tree_param":{"num_deleted":"0","num_feature":"13","num_nodes":"31","size_leaf_vector":"1"}},{"base_weights":[6.198058E-5,1.261058E-1,-3.047773E-1,1.6234615E-1,-8.8221073E-1,-5.6794465E-1,1.03145294E-1,3.606749E-1,4.5586564E-2,-1.0901384E0,-3.0259457E-1,-8.734905E-1,-3.6047176E-1,2.785808E-1,-1.0602766E0,3.4554165E-2,1.5724812E-2,3.9378605E-3,-3.4110855E-2,-6.1202843E-2,-3.7180867E-2,-2.5003074E-2,5.086547E-2,-2.9991046E-2,-5.854187E-2,-3.1392518E-3,-4.0488824E-2,2.3088342E-2,-4.296093E-2,-3.805952E-2,-7.348932E-2],"categories":[],"categories_nodes":[],"categories_segments":[],"categories_sizes":[],"default_left":[0,0,0,0,0,0,0,0,0,0,0,0,0,0,0,0,0,0,0,0,0,0,0,0,0,0,0,0,0,0,0],"id":26,"left_children":[1,3,5,7,9,11,13,15,17,19,21,23,25,27,29,-1,-1,-1,-1,-1,-1,-1,-1,-1,-1,-1,-1,-1,-1,-1,-1],"loss_changes":[1.4340255E4,9.648641E3,1.1720301E4,5.902244E3,1.1037471E3,4.206621E3,8.738531E3,1.4408887E3,3.8731333E3,3.1220898E2,6.3080786E2,2.183377E3,5.286528E3,7.7545303E3,6.8632764E2,0E0,0E0,0E0,0E0,0E0,0E0,0E0,0E0,0E0,0E0,0E0,0E0,0E0,0E0,0E0,0E0],"parents":[2147483647,0,0,1,1,2,2,3,3,4,4,5,5,6,6,7,7,8,8,9,9,10,10,11,11,12,12,13,13,14,14],"right_children":[2,4,6,8,10,12,14,16,18,20,22,24,26,28,30,-1,-1,-1,-1,-1,-1,-1,-1,-1,-1,-1,-1,-1,-1,-1,-1],"split_conditions":[1E0,1E0,6E0,1.7E1,4.1E1,4.02031E5,1.8E1,1E1,1E0,6.01624E5,1.405822E6,2.9E1,4.05405E5,1E0,3.2E1,3.4554165E-2,1.5724812E-2,3.9378605E-3,-3.4110855E-2,-6.1202843E-2,-3.7180867E-2,-2.5003074E-2,5.086547E-2,-2.9991046E-2,-5.854187E-2,-3.1392518E-3,-4.0488824E-2,2.3088342E-2,-4.296093E-2,-3.805952E-2,-7.348932E-2],"split_indices":[1,11,4,0,0,7,1,0,10,7,8,0,7,11,1,0,0,0,0,0,0,0,0,0,0,0,0,0,0,0,0],"split_type":[0,0,0,0,0,0,0,0,0,0,0,0,0,0,0,0,0,0,0,0,0,0,0,0,0,0,0,0,0,0,0],"sum_hessian":[3.7321903E5,2.6404378E5,1.09175234E5,2.5488342E5,9.16036E3,6.636228E4,4.281295E4,9.444927E4,1.6043416E5,6.741386E3,2.418974E3,2.6837117E4,3.9525168E4,3.7203414E4,5.609536E3,1.158064E4,8.286863E4,1.5344144E5,6.9927183E3,4.861161E3,1.880225E3,2.104511E3,3.1446326E2,1.3975921E4,1.2861195E4,2.3774303E4,1.5750864E4,3.2044607E4,5.1588057E3,3.2428142E3,2.366722E3],"tree_param":{"num_deleted":"0","num_feature":"13","num_nodes":"31","size_leaf_vector":"1"}},{"base_weights":[-5.952743E-4,6.370577E-2,-6.650159E-1,-5.864995E-1,1.2627359E-1,-8.897751E-2,-8.057369E-1,-1.3263671E-1,-1.0590085E0,1.5360928E-1,-1.1095285E0,3.1848714E-1,-5.1203096E-1,-6.5123737E-1,-1.0711334E0,-2.5287399E-2,5.2554365E-2,-3.11631E-2,-5.999724E-2,-7.210226E-2,8.712135E-3,-4.7343027E-2,-7.274997E-2,1.1776039E-2,4.8798922E-2,-5.843812E-2,-7.432756E-3,-2.0657547E-2,-4.5636054E-2,-4.7355846E-2,-6.5878004E-2],"categories":[],"categories_nodes":[],"categories_segments":[],"categories_sizes":[],"default_left":[0,0,0,0,0,0,0,0,0,0,0,0,0,0,0,0,0,0,0,0,0,0,0,0,0,0,0,0,0,0,0],"id":27,"left_children":[1,3,5,7,9,11,13,15,17,19,21,23,25,27,29,-1,-1,-1,-1,-1,-1,-1,-1,-1,-1,-1,-1,-1,-1,-1,-1],"loss_changes":[1.5871757E4,1.3779854E4,2.6571162E3,6.3762314E3,1.0438116E4,1.1096295E3,1.0797109E3,6.698676E3,8.9405176E2,9.952966E3,3.7485156E2,1.786253E2,7.53451E2,1.0364131E3,2.9536133E2,0E0,0E0,0E0,0E0,0E0,0E0,0E0,0E0,0E0,0E0,0E0,0E0,0E0,0E0,0E0,0E0],"parents":[2147483647,0,0,1,1,2,2,3,3,4,4,5,5,6,6,7,7,8,8,9,9,10,10,11,11,12,12,13,13,14,14],"right_children":[2,4,6,8,10,12,14,16,18,20,22,24,26,28,30,-1,-1,-1,-1,-1,-1,-1,-1,-1,-1,-1,-1,-1,-1,-1,-1],"split_conditions":[2.048E3,4.12E2,1.3E1,3.34E2,1.8E1,2.458E3,1E0,2.95E2,1.6E1,5.056E3,3.4E1,2.339E3,2.498E3,2.479E3,9E0,-2.5287399E-2,5.2554365E-2,-3.11631E-2,-5.999724E-2,-7.210226E-2,8.712135E-3,-4.7343027E-2,-7.274997E-2,1.1776039E-2,4.8798922E-2,-5.843812E-2,-7.432756E-3,-2.0657547E-2,-4.5636054E-2,-4.7355846E-2,-6.5878004E-2],"split_indices":[9,9,0,9,1,9,1,9,0,8,1,9,9,9,1,0,0,0,0,0,0,0,0,0,0,0,0,0,0,0,0],"split_type":[0,0,0,0,0,0,0,0,0,0,0,0,0,0,0,0,0,0,0,0,0,0,0,0,0,0,0,0,0,0,0],"sum_hessian":[3.715019E5,3.3872153E5,3.2780363E4,2.9732746E4,3.0898878E5,6.4360537E3,2.634431E4,1.516604E4,1.4566707E4,3.0230244E5,6.6863516E3,3.2783716E3,3.1576821E3,1.6652326E4,9.691985E3,1.1531627E4,3.6344126E3,3.5608137E3,1.1005894E4,3.8586714E3,2.9844378E5,4.5473516E3,2.1390002E3,2.9117764E3,3.66595E2,1.1243158E3,2.0333662E3,8.716993E3,7.935333E3,6.4491973E3,3.2427878E3],"tree_param":{"num_deleted":"0","num_feature":"13","num_nodes":"31","size_leaf_vector":"1"}},{"base_weights":[-7.387776E-5,4.8828002E-2,-8.1242394E-1,3.502363E-1,-6.741695E-2,-6.5174425E-1,-1.1312773E0,3.6964735E-1,-1.1700581E0,-7.996139E-1,6.0804912E-5,-8.7688965E-1,-3.4255216E-1,-1.0426546E0,-1.2911987E0,1.5323268E-2,3.540954E-2,-5.9153862E-2,-1.5804349E-3,5.9801996E-2,-4.4094708E-2,6.277942E-3,-1.6687946E-2,-2.030482E-2,-6.853136E-2,2.77513E-2,-4.286381E-2,1.7514756E-2,-5.276226E-2,-6.475463E-2,2.0107577E-2],"categories":[],"categories_nodes":[],"categories_segments":[],"categories_sizes":[],"default_left":[0,0,0,0,0,0,0,0,0,0,0,0,0,0,0,0,0,0,0,0,0,0,0,0,0,0,0,0,0,0,0],"id":28,"left_children":[1,3,5,7,9,11,13,15,17,19,21,23,25,27,29,-1,-1,-1,-1,-1,-1,-1,-1,-1,-1,-1,-1,-1,-1,-1,-1],"loss_changes":[1.47027705E4,1.2231274E4,1.0761113E3,2.8674658E3,1.2447208E4,9.725493E2,9.887891E1,2.0518984E3,1.8016113E1,3.4911875E3,9.6637295E3,1.8790913E3,2.721151E3,7.975781E1,1.6885742E1,0E0,0E0,0E0,0E0,0E0,0E0,0E0,0E0,0E0,0E0,0E0,0E0,0E0,0E0,0E0,0E0],"parents":[2147483647,0,0,1,1,2,2,3,3,4,4,5,5,6,6,7,7,8,8,9,9,10,10,11,11,12,12,13,13,14,14],"right_children":[2,4,6,8,10,12,14,16,18,20,22,24,26,28,30,-1,-1,-1,-1,-1,-1,-1,-1,-1,-1,-1,-1,-1,-1,-1,-1],"split_conditions":[2.309E3,1.7E1,1E0,5E0,4.19E2,2.498E3,9E0,1.814E3,3E0,7.2E1,1.105E3,2.479E3,2.597E3,8E0,1E0,1.5323268E-2,3.540954E-2,-5.9153862E-2,-1.5804349E-3,5.9801996E-2,-4.4094708E-2,6.277942E-3,-1.6687946E-2,-2.030482E-2,-6.853136E-2,2.77513E-2,-4.286381E-2,1.7514756E-2,-5.276226E-2,-6.475463E-2,2.0107577E-2],"split_indices":[9,0,1,1,9,9,1,9,4,9,9,9,9,0,3,0,0,0,0,0,0,0,0,0,0,0,0,0,0,0,0],"split_type":[0,0,0,0,0,0,0,0,0,0,0,0,0,0,0,0,0,0,0,0,0,0,0,0,0,0,0,0,0,0,0],"sum_hessian":[3.7010672E5,3.4909238E5,2.101433E4,9.7162445E4,2.5192994E5,1.3974167E4,7.0401626E3,9.593795E4,1.2244872E3,2.1257895E4,2.3067205E5,8.085374E3,5.8887935E3,4.5326914E3,2.5074712E3,8.085021E4,1.5087741E4,1.2105363E3,1.3950903E1,8.4143567E2,2.0416459E4,1.6764666E5,6.30254E4,4.1394243E3,3.9459495E3,2.1461294E3,3.742664E3,4.041149E1,4.49228E3,2.501895E3,5.5762053E0],"tree_param":{"num_deleted":"0","num_feature":"13","num_nodes":"31","size_leaf_vector":"1"}},{"base_weights":[-4.0863885E-4,5.8226123E-2,-6.190682E-1,-2.7270457E-1,1.6595985E-1,-2.4698994E-1,-8.292406E-1,6.41299E-1,-3.5764098E-1,2.9313216E-1,-2.3748428E-1,1.49859E-1,-6.09802E-1,-7.5815094E-1,-1.2190074E0,3.9281216E-2,-1.7913366E-3,-2.2240026E-2,1.8616749E-2,1.6274488E-2,-6.406677E-2,-2.1982926E-3,-3.1276613E-2,3.0461731E-3,4.4043373E-2,-5.5782862E-2,-1.8187633E-2,-3.4645166E-2,-6.14371E-2,-6.539346E-2,-4.0283766E-2],"categories":[],"categories_nodes":[],"categories_segments":[],"categories_sizes":[],"default_left":[0,0,0,0,0,0,0,0,0,0,0,0,0,0,0,0,0,0,0,0,0,0,0,0,0,0,0,0,0,0,0],"id":29,"left_children":[1,3,5,7,9,11,13,15,17,19,21,23,25,27,29,-1,-1,-1,-1,-1,-1,-1,-1,-1,-1,-1,-1,-1,-1,-1,-1],"loss_changes":[1.337152E4,1.2004258E4,2.4953145E3,6.4196724E3,1.303254E4,1.6587532E3,5.643799E2,6.8721533E2,4.8140166E3,9.839432E3,4.571559E3,3.5758954E2,7.487173E2,5.2898926E2,1.1476123E2,0E0,0E0,0E0,0E0,0E0,0E0,0E0,0E0,0E0,0E0,0E0,0E0,0E0,0E0,0E0,0E0],"parents":[2147483647,0,0,1,1,2,2,3,3,4,4,5,5,6,6,7,7,8,8,9,9,10,10,11,11,12,12,13,13,14,14],"right_children":[2,4,6,8,10,12,14,16,18,20,22,24,26,28,30,-1,-1,-1,-1,-1,-1,-1,-1,-1,-1,-1,-1,-1,-1,-1,-1],"split_conditions":[2.048E3,4.02031E5,1.6E1,1.7E1,4.05405E5,2.458E3,7E0,1E0,8E0,1E0,2E0,2.339E3,2.498E3,2.684E3,9E0,3.9281216E-2,-1.7913366E-3,-2.2240026E-2,1.8616749E-2,1.6274488E-2,-6.406677E-2,-2.1982926E-3,-3.1276613E-2,3.0461731E-3,4.4043373E-2,-5.5782862E-2,-1.8187633E-2,-3.4645166E-2,-6.14371E-2,-6.539346E-2,-4.0283766E-2],"split_indices":[9,7,0,0,7,9,1,1,4,10,1,9,9,9,4,0,0,0,0,0,0,0,0,0,0,0,0,0,0,0,0],"split_type":[0,0,0,0,0,0,0,0,0,0,0,0,0,0,0,0,0,0,0,0,0,0,0,0,0,0,0,0,0,0,0],"sum_hessian":[3.686132E5,3.3670184E5,3.1911336E4,8.269183E4,2.5401003E5,1.1519456E4,2.0391879E4,7.0306226E3,7.56612E4,1.9313198E5,6.0878043E4,5.5016704E3,6.0177856E3,1.7247781E4,3.144099E3,5.795429E3,1.2351934E3,6.7591125E4,8.070084E3,1.8924322E5,3.8887612E3,4.0621188E4,2.0256855E4,4.905534E3,5.961359E2,1.9685178E3,4.0492678E3,1.5148839E4,2.0989421E3,2.5866694E3,5.574297E2],"tree_param":{"num_deleted":"0","num_feature":"13","num_nodes":"31","size_leaf_vector":"1"}},{"base_weights":[1.3513784E-3,4.5971643E-2,-7.6118815E-1,8.211533E-2,-8.3963794E-1,-6.023203E-1,-1.0861368E0,-2.2231233E-1,1.8027066E-1,-1.0669024E0,-3.272707E-1,-8.3226335E-1,-2.9430518E-1,-9.91976E-1,-1.2582456E0,-1.5849606E-4,-3.0578265E-2,1.43470215E-2,-9.442627E-3,-5.9834104E-2,-3.2611836E-2,2.659048E-2,-6.886744E-2,-1.8729694E-2,-6.620064E-2,2.8762206E-2,-4.001479E-2,-5.497385E-2,-4.3010227E-2,-6.344672E-2,-4.3531954E-2],"categories":[],"categories_nodes":[],"categories_segments":[],"categories_sizes":[],"default_left":[0,0,0,0,0,0,0,0,0,0,0,0,0,0,0,0,0,0,0,0,0,0,0,0,0,0,0,0,0,0,0],"id":30,"left_children":[1,3,5,7,9,11,13,15,17,19,21,23,25,27,29,-1,-1,-1,-1,-1,-1,-1,-1,-1,-1,-1,-1,-1,-1,-1,-1],"loss_changes":[1.2483555E4,1.1094874E4,1.0465537E3,9.951218E3,1.5823096E3,9.646709E2,1.0706738E2,6.9261265E3,9.915656E3,5.0608887E2,3.7685757E3,1.7550239E3,2.5628042E3,6.0342285E1,8.980957E0,0E0,0E0,0E0,0E0,0E0,0E0,0E0,0E0,0E0,0E0,0E0,0E0,0E0,0E0,0E0,0E0],"parents":[2147483647,0,0,1,1,2,2,3,3,4,4,5,5,6,6,7,7,8,8,9,9,10,10,11,11,12,12,13,13,14,14],"right_children":[2,4,6,8,10,12,14,16,18,20,22,24,26,28,30,-1,-1,-1,-1,-1,-1,-1,-1,-1,-1,-1,-1,-1,-1,-1,-1],"split_conditions":[2.309E3,1E0,1E0,4.02031E5,6.12535E5,2.498E3,9E0,2E0,4.05405E5,1.178656E6,6.17708E5,2.479E3,2.597E3,2.498E3,1.4E1,-1.5849606E-4,-3.0578265E-2,1.43470215E-2,-9.442627E-3,-5.9834104E-2,-3.2611836E-2,2.659048E-2,-6.886744E-2,-1.8729694E-2,-6.620064E-2,2.8762206E-2,-4.001479E-2,-5.497385E-2,-4.3010227E-2,-6.344672E-2,-4.3531954E-2],"split_indices":[9,11,1,7,7,9,1,1,7,8,7,9,9,9,4,0,0,0,0,0,0,0,0,0,0,0,0,0,0,0,0],"split_type":[0,0,0,0,0,0,0,0,0,0,0,0,0,0,0,0,0,0,0,0,0,0,0,0,0,0,0,0,0,0,0],"sum_hessian":[3.6689775E5,3.46616E5,2.0281754E4,3.3302506E5,1.3590922E4,1.3623123E4,6.658631E3,8.119574E4,2.5182933E5,9.41437E3,4.1765522E3,7.7994272E3,5.823696E3,4.3065044E3,2.3521265E3,5.1949734E4,2.9246004E4,1.953711E5,5.6458242E4,7.169361E3,2.245009E3,2.2972769E3,1.8792755E3,4.040257E3,3.75917E3,2.142141E3,3.6815544E3,2.369227E3,1.9372773E3,2.2876462E3,6.448012E1],"tree_param":{"num_deleted":"0","num_feature":"13","num_nodes":"31","size_leaf_vector":"1"}},{"base_weights":[-4.0854872E-4,3.5188973E-2,-8.4217954E-1,1.3853037E-1,-2.2420649E-1,-9.9842787E-1,-1.6100925E-1,3.0910197E-1,3.9915662E-2,-4.181715E-1,1.3227013E-1,-1.1317533E0,-6.7637163E-1,-6.304191E-1,5.7468575E-1,3.9099287E-2,1.3837471E-2,1.8091821E-4,3.2564647E-2,-3.6077842E-2,-1.1459173E-2,1.8006269E-2,-5.185641E-2,-6.0878254E-2,-3.8097225E-2,-6.408637E-4,-6.8047434E-2,-3.843059E-2,3.3153445E-2,6.423683E-2,-6.0222488E-2],"categories":[],"categories_nodes":[],"categories_segments":[],"categories_sizes":[],"default_left":[0,0,0,0,0,0,0,0,0,0,0,0,0,0,0,0,0,0,0,0,0,0,0,0,0,0,0,0,0,0,0],"id":31,"left_children":[1,3,5,7,9,11,13,15,17,19,21,23,25,27,29,-1,-1,-1,-1,-1,-1,-1,-1,-1,-1,-1,-1,-1,-1,-1,-1],"loss_changes":[1.0944305E4,9.393341E3,1.5769912E3,4.2150127E3,6.9027676E3,5.1699805E2,9.552837E2,1.4042295E3,3.5235981E3,3.7067656E3,9.373609E3,2.6982617E2,1.6035941E3,3.0212177E2,1.3618977E3,0E0,0E0,0E0,0E0,0E0,0E0,0E0,0E0,0E0,0E0,0E0,0E0,0E0,0E0,0E0,0E0],"parents":[2147483647,0,0,1,1,2,2,3,3,4,4,5,5,6,6,7,7,8,8,9,9,10,10,11,11,12,12,13,13,14,14],"right_children":[2,4,6,8,10,12,14,16,18,20,22,24,26,28,30,-1,-1,-1,-1,-1,-1,-1,-1,-1,-1,-1,-1,-1,-1,-1,-1],"split_conditions":[1E0,1E0,5.4E1,1.7E1,4.4E1,6.12535E5,6.08063E5,3.58761E5,1.399022E6,4.02031E5,1.8E1,1.311693E6,6.17708E5,1.405822E6,6.17708E5,3.9099287E-2,1.3837471E-2,1.8091821E-4,3.2564647E-2,-3.6077842E-2,-1.1459173E-2,1.8006269E-2,-5.185641E-2,-6.0878254E-2,-3.8097225E-2,-6.408637E-4,-6.8047434E-2,-3.843059E-2,3.3153445E-2,6.423683E-2,-6.0222488E-2],"split_indices":[11,1,0,0,0,7,7,7,8,7,1,8,7,8,7,0,0,0,0,0,0,0,0,0,0,0,0,0,0,0,0],"split_type":[0,0,0,0,0,0,0,0,0,0,0,0,0,0,0,0,0,0,0,0,0,0,0,0,0,0,0,0,0,0,0],"sum_hessian":[3.6523306E5,3.5041478E5,1.4818276E4,2.5058431E5,9.983047E4,1.2053125E4,2.7651514E3,9.179923E4,1.5878508E5,6.4652266E4,3.5178203E4,8.523134E3,3.5299912E3,1.6882023E3,1.0769491E3,5.8773774E3,8.592185E4,1.49887E5,8.898083E3,2.4814783E4,3.9837484E4,2.9441928E4,5.736277E3,6.9167334E3,1.6064E3,1.7928517E3,1.7371395E3,1.5255021E3,1.6270021E2,7.6988434E2,3.0706473E2],"tree_param":{"num_deleted":"0","num_feature":"13","num_nodes":"31","size_leaf_vector":"1"}},{"base_weights":[-2.8080202E-4,5.397822E-2,-5.833851E-1,-5.366415E-1,1.1075889E-1,4.689752E-2,-6.945001E-1,-1.0764836E-1,-9.780862E-1,-1.3709303E0,1.2950547E-1,3.4131795E-1,-2.8766912E-1,-5.3815466E-1,-9.300923E-1,-2.3433473E-2,5.1074322E-2,-5.5313315E-2,-2.6123164E-2,5.034341E-3,-7.43867E-2,-6.448222E-3,1.0390982E-2,1.2401513E-2,4.3794278E-2,-5.1413447E-2,6.3411156E-3,-1.600952E-2,-3.9328333E-2,-4.091432E-2,-5.2073266E-2],"categories":[],"categories_nodes":[],"categories_segments":[],"categories_sizes":[],"default_left":[0,0,0,0,0,0,0,0,0,0,0,0,0,0,0,0,0,0,0,0,0,0,0,0,0,0,0,0,0,0,0],"id":32,"left_children":[1,3,5,7,9,11,13,15,17,19,21,23,25,27,29,-1,-1,-1,-1,-1,-1,-1,-1,-1,-1,-1,-1,-1,-1,-1,-1],"loss_changes":[1.1503157E4,1.1154851E4,2.167746E3,5.524542E3,8.428863E3,4.5702386E2,9.688086E2,6.0315986E3,8.392324E2,6.5190967E2,6.0657417E3,1.2285474E2,6.667846E2,8.562344E2,1.300791E2,0E0,0E0,0E0,0E0,0E0,0E0,0E0,0E0,0E0,0E0,0E0,0E0,0E0,0E0,0E0,0E0],"parents":[2147483647,0,0,1,1,2,2,3,3,4,4,5,5,6,6,7,7,8,8,9,9,10,10,11,11,12,12,13,13,14,14],"right_children":[2,4,6,8,10,12,14,16,18,20,22,24,26,28,30,-1,-1,-1,-1,-1,-1,-1,-1,-1,-1,-1,-1,-1,-1,-1,-1],"split_conditions":[2.048E3,4.19E2,1.2E1,3.34E2,5.056E3,2.458E3,2.4E1,2.95E2,3.95E2,2.1E1,4.02031E5,2.331E3,2.498E3,2.479E3,2.458E3,-2.3433473E-2,5.1074322E-2,-5.5313315E-2,-2.6123164E-2,5.034341E-3,-7.43867E-2,-6.448222E-3,1.0390982E-2,1.2401513E-2,4.3794278E-2,-5.1413447E-2,6.3411156E-3,-1.600952E-2,-3.9328333E-2,-4.091432E-2,-5.2073266E-2],"split_indices":[9,9,0,9,8,9,0,9,9,0,7,9,9,9,9,0,0,0,0,0,0,0,0,0,0,0,0,0,0,0,0],"split_type":[0,0,0,0,0,0,0,0,0,0,0,0,0,0,0,0,0,0,0,0,0,0,0,0,0,0,0,0,0,0,0],"sum_hessian":[3.6357638E5,3.3262522E5,3.095116E4,2.9172588E4,3.0345262E5,4.6386294E3,2.631253E4,1.4795381E4,1.4377207E4,3.790848E3,2.9966178E5,2.4675027E3,2.1711267E3,1.5817603E4,1.0494928E4,1.1211183E4,3.5841985E3,1.1219811E4,3.1573965E3,2.7869995E2,3.512148E3,6.968155E4,2.2998023E5,2.10166E3,3.6584283E2,7.7890515E2,1.3922217E3,8.425958E3,7.3916445E3,5.239816E3,5.2551113E3],"tree_param":{"num_deleted":"0","num_feature":"13","num_nodes":"31","size_leaf_vector":"1"}},{"base_weights":[-1.798413E-4,5.1270902E-2,-5.578756E-1,-5.202276E-1,1.0452823E-1,-2.171852E-1,-7.563751E-1,-1.0453657E-1,-9.7439355E-1,1.3040334E-1,-9.958418E-1,-1.0398069E-1,-1.2202015E0,-6.8575996E-1,-1.15983E0,-2.2529194E-2,4.8692998E-2,-3.6384635E-2,-6.091497E-2,-6.669595E-2,7.425728E-3,-6.356608E-2,-3.6289316E-2,-3.6731476E-4,-4.723759E-2,-4.957233E-2,-6.1705984E-2,-3.1040033E-2,-5.8545638E-2,-6.261211E-2,-3.649067E-2],"categories":[],"categories_nodes":[],"categories_segments":[],"categories_sizes":[],"default_left":[0,0,0,0,0,0,0,0,0,0,0,0,0,0,0,0,0,0,0,0,0,0,0,0,0,0,0,0,0,0,0],"id":33,"left_children":[1,3,5,7,9,11,13,15,17,19,21,23,25,27,29,-1,-1,-1,-1,-1,-1,-1,-1,-1,-1,-1,-1,-1,-1,-1,-1],"loss_changes":[1.0397153E4,1.0097006E4,2.0695566E3,5.338741E3,8.640207E3,1.2792424E3,5.503496E2,5.510364E3,8.125244E2,7.863104E3,5.180127E2,8.226026E2,2.8035889E0,5.1815576E2,1.1377295E2,0E0,0E0,0E0,0E0,0E0,0E0,0E0,0E0,0E0,0E0,0E0,0E0,0E0,0E0,0E0,0E0],"parents":[2147483647,0,0,1,1,2,2,3,3,4,4,5,5,6,6,7,7,8,8,9,9,10,10,11,11,12,12,13,13,14,14],"right_children":[2,4,6,8,10,12,14,16,18,20,22,24,26,28,30,-1,-1,-1,-1,-1,-1,-1,-1,-1,-1,-1,-1,-1,-1,-1,-1],"split_conditions":[2.048E3,4.12E2,1.6E1,3.34E2,1.7E1,5E0,7E0,2.92E2,3E0,5.056E3,1E1,2.684E3,2E0,2.684E3,9E0,-2.2529194E-2,4.8692998E-2,-3.6384635E-2,-6.091497E-2,-6.669595E-2,7.425728E-3,-6.356608E-2,-3.6289316E-2,-3.6731476E-4,-4.723759E-2,-4.957233E-2,-6.1705984E-2,-3.1040033E-2,-5.8545638E-2,-6.261211E-2,-3.649067E-2],"split_indices":[9,9,0,9,1,1,1,9,4,8,4,9,4,9,4,0,0,0,0,0,0,0,0,0,0,0,0,0,0,0,0],"split_type":[0,0,0,0,0,0,0,0,0,0,0,0,0,0,0,0,0,0,0,0,0,0,0,0,0,0,0,0,0,0,0],"sum_hessian":[3.623449E5,3.317402E5,3.0604729E4,2.8278668E4,3.0346153E5,1.1267518E4,1.933721E4,1.4765171E4,1.3513497E4,2.9649012E5,6.9714077E3,1.0125378E4,1.1421399E3,1.6458195E4,2.8790146E3,1.1178484E4,3.5866868E3,6.71945E3,6.7940474E3,3.6217725E3,2.9286834E5,3.449944E3,3.5214634E3,9.082142E3,1.0432366E3,6.798939E1,1.0741505E3,1.4515938E4,1.9422573E3,2.3687693E3,5.102454E2],"tree_param":{"num_deleted":"0","num_feature":"13","num_nodes":"31","size_leaf_vector":"1"}},{"base_weights":[1.9008407E-4,3.931354E-2,-6.9577765E-1,-4.9345836E-1,8.675518E-2,-5.447559E-1,-1.0215175E0,-1.7097747E-1,-1.0675025E0,1.09851025E-1,-1.0009304E0,-7.798154E-1,-2.342274E-1,-8.924575E-1,-1.1625669E0,2.6407072E-3,-5.2117866E-2,-6.216371E-2,-2.6379338E-2,-6.445484E-2,6.312448E-3,-4.260542E-2,-6.9289185E-2,-1.6723571E-2,-6.406088E-2,2.9210482E-2,-3.631602E-2,-5.148753E-2,-3.6340855E-2,-5.987624E-2,-3.2977834E-2],"categories":[],"categories_nodes":[],"categories_segments":[],"categories_sizes":[],"default_left":[0,0,0,0,0,0,0,0,0,0,0,0,0,0,0,0,0,0,0,0,0,0,0,0,0,0,0,0,0,0,0],"id":34,"left_children":[1,3,5,7,9,11,13,15,17,19,21,23,25,27,29,-1,-1,-1,-1,-1,-1,-1,-1,-1,-1,-1,-1,-1,-1,-1,-1],"loss_changes":[9.839748E3,8.64786E3,9.4572363E2,5.178573E3,7.892202E3,9.5908594E2,1.1016748E2,3.4933813E3,9.54458E2,7.0571094E3,3.733203E2,1.6697935E3,2.2809868E3,7.18479E1,5.056494E1,0E0,0E0,0E0,0E0,0E0,0E0,0E0,0E0,0E0,0E0,0E0,0E0,0E0,0E0,0E0,0E0],"parents":[2147483647,0,0,1,1,2,2,3,3,4,4,5,5,6,6,7,7,8,8,9,9,10,10,11,11,12,12,13,13,14,14],"right_children":[2,4,6,8,10,12,14,16,18,20,22,24,26,28,30,-1,-1,-1,-1,-1,-1,-1,-1,-1,-1,-1,-1,-1,-1,-1,-1],"split_conditions":[2.309E3,4.12E2,1E0,3.72E2,1.8E1,2.498E3,6E0,1.357099E6,3.95E2,5.056E3,3.8E1,2.479E3,2.597E3,2.498E3,6.2E1,2.6407072E-3,-5.2117866E-2,-6.216371E-2,-2.6379338E-2,-6.445484E-2,6.312448E-3,-4.260542E-2,-6.9289185E-2,-1.6723571E-2,-6.406088E-2,2.9210482E-2,-3.631602E-2,-5.148753E-2,-3.6340855E-2,-5.987624E-2,-3.2977834E-2],"split_indices":[9,9,1,9,1,9,1,8,9,8,1,9,9,9,0,0,0,0,0,0,0,0,0,0,0,0,0,0,0,0,0],"split_type":[0,0,0,0,0,0,0,0,0,0,0,0,0,0,0,0,0,0,0,0,0,0,0,0,0,0,0,0,0,0,0],"sum_hessian":[3.6137603E5,3.4214325E5,1.9232783E4,2.7975068E4,3.141682E5,1.3141618E4,6.0911665E3,1.7912938E4,1.0062132E4,3.076364E5,6.5317896E3,7.4791084E3,5.6625093E3,3.183052E3,2.9081145E3,1.425282E4,3.6601172E3,7.5902563E3,2.471876E3,3.563698E3,3.040727E5,4.711665E3,1.8201244E3,3.9615256E3,3.5175828E3,2.1261133E3,3.5363962E3,1.7386986E3,1.4443534E3,2.7183103E3,1.898041E2],"tree_param":{"num_deleted":"0","num_feature":"13","num_nodes":"31","size_leaf_vector":"1"}},{"base_weights":[-1.0237722E-3,3.1838026E-2,-8.055308E-1,1.2393136E-1,-2.0123003E-1,-1.0808212E0,-4.1443446E-1,3.1275746E-1,3.8572848E-2,-6.14002E-1,1.1397152E-1,-1.1304891E0,-8.6865854E-1,-5.875392E-1,2.7664455E-2,3.1170493E-2,1.3065708E-2,-6.743384E-3,7.410396E-3,-2.1365592E-2,-5.690341E-2,1.0998524E-2,-4.8564326E-2,-6.4589344E-2,-5.2978124E-2,-3.3631656E-2,-5.944196E-2,-3.525948E-2,2.6865405E-4,2.4736581E-2,-4.538911E-2],"categories":[],"categories_nodes":[],"categories_segments":[],"categories_sizes":[],"default_left":[0,0,0,0,0,0,0,0,0,0,0,0,0,0,0,0,0,0,0,0,0,0,0,0,0,0,0,0,0,0,0],"id":35,"left_children":[1,3,5,7,9,11,13,15,17,19,21,23,25,27,29,-1,-1,-1,-1,-1,-1,-1,-1,-1,-1,-1,-1,-1,-1,-1,-1],"loss_changes":[9.513336E3,7.4204854E3,1.5200381E3,3.9940205E3,1.2739464E4,8.663867E1,4.4659436E2,1.2326826E3,3.2451057E3,4.147541E3,6.386801E3,7.588281E1,9.8243164E1,2.9257202E2,7.176377E2,0E0,0E0,0E0,0E0,0E0,0E0,0E0,0E0,0E0,0E0,0E0,0E0,0E0,0E0,0E0,0E0],"parents":[2147483647,0,0,1,1,2,2,3,3,4,4,5,5,6,6,7,7,8,8,9,9,10,10,11,11,12,12,13,13,14,14],"right_children":[2,4,6,8,10,12,14,16,18,20,22,24,26,28,30,-1,-1,-1,-1,-1,-1,-1,-1,-1,-1,-1,-1,-1,-1,-1,-1],"split_conditions":[1E0,1E0,3.9E1,1.6E1,4E0,1.178656E6,6.6E1,1E1,5.43958E5,2.9E1,1.9E1,6E0,1.419562E6,1.405822E6,1E0,3.1170493E-2,1.3065708E-2,-6.743384E-3,7.410396E-3,-2.1365592E-2,-5.690341E-2,1.0998524E-2,-4.8564326E-2,-6.4589344E-2,-5.2978124E-2,-3.3631656E-2,-5.944196E-2,-3.525948E-2,2.6865405E-4,2.4736581E-2,-4.538911E-2],"split_indices":[11,1,0,0,4,8,0,0,8,0,1,4,8,8,5,0,0,0,0,0,0,0,0,0,0,0,0,0,0,0,0],"split_type":[0,0,0,0,0,0,0,0,0,0,0,0,0,0,0,0,0,0,0,0,0,0,0,0,0,0,0,0,0,0,0],"sum_hessian":[3.5983794E5,3.4571678E5,1.412118E4,2.4780214E5,9.7914625E4,8.286925E3,5.8342544E3,7.714441E4,1.7065773E5,4.239549E4,5.5519137E4,6.7128E3,1.5741255E3,4.1926685E3,1.6415863E3,1.0958919E4,6.6185484E4,6.609528E4,1.0456246E5,3.1260525E4,1.1134961E4,5.057945E4,4.939688E3,2.0471841E3,4.6656157E3,9.775183E2,5.966071E2,3.498535E3,6.941334E2,1.0951312E3,5.46455E2],"tree_param":{"num_deleted":"0","num_feature":"13","num_nodes":"31","size_leaf_vector":"1"}},{"base_weights":[-1.0621467E-3,3.0175483E-2,-7.8033096E-1,1.1838953E-1,-1.9414267E-1,-1.0571817E0,-3.9250118E-1,1.3956507E-1,-6.3034827E-1,-4.5814857E-1,2.5344104E-1,-9.8401517E-1,-1.2104913E0,-5.640835E-1,-0E0,1.940652E-2,4.587073E-3,-4.8039153E-2,-1.05038555E-2,-2.5582133E-2,5.9123393E-2,2.0395307E-2,-4.749209E-2,-5.225214E-2,-3.7297446E-2,-6.528629E-2,-5.7842344E-2,-3.6057994E-2,-5.667147E-3,2.0247659E-2,-4.3111663E-2],"categories":[],"categories_nodes":[],"categories_segments":[],"categories_sizes":[],"default_left":[0,0,0,0,0,0,0,0,0,0,0,0,0,0,0,0,0,0,0,0,0,0,0,0,0,0,0,0,0,0,0],"id":36,"left_children":[1,3,5,7,9,11,13,15,17,19,21,23,25,27,29,-1,-1,-1,-1,-1,-1,-1,-1,-1,-1,-1,-1,-1,-1,-1,-1],"loss_changes":[8.734716E3,6.8267324E3,1.4845312E3,3.9259502E3,1.1506512E4,8.969336E1,3.8797253E2,2.862484E3,9.455542E2,5.375657E3,6.715004E3,7.883203E1,1.2302734E1,2.8369214E2,6.122688E2,0E0,0E0,0E0,0E0,0E0,0E0,0E0,0E0,0E0,0E0,0E0,0E0,0E0,0E0,0E0,0E0],"parents":[2147483647,0,0,1,1,2,2,3,3,4,4,5,5,6,6,7,7,8,8,9,9,10,10,11,11,12,12,13,13,14,14],"right_children":[2,4,6,8,10,12,14,16,18,20,22,24,26,28,30,-1,-1,-1,-1,-1,-1,-1,-1,-1,-1,-1,-1,-1,-1,-1,-1],"split_conditions":[1E0,1E0,3.9E1,1E0,6E0,1E0,6.4E1,1.3E1,4.4E1,1E0,2E1,1.178656E6,6E0,1.242265E6,1E0,1.940652E-2,4.587073E-3,-4.8039153E-2,-1.05038555E-2,-2.5582133E-2,5.9123393E-2,2.0395307E-2,-4.749209E-2,-5.225214E-2,-3.7297446E-2,-6.528629E-2,-5.7842344E-2,-3.6057994E-2,-5.667147E-3,2.0247659E-2,-4.3111663E-2],"split_indices":[11,1,0,10,4,1,0,0,0,5,1,8,4,8,5,0,0,0,0,0,0,0,0,0,0,0,0,0,0,0,0],"split_type":[0,0,0,0,0,0,0,0,0,0,0,0,0,0,0,0,0,0,0,0,0,0,0,0,0,0,0,0,0,0,0],"sum_hessian":[3.588216E5,3.4499262E5,1.382896E4,2.4761692E5,9.737571E4,8.0683086E3,5.760651E3,2.4080705E5,6.8098784E3,6.1248613E4,3.6127098E4,5.464672E3,2.6036372E3,4.008169E3,1.752482E3,3.8854324E4,2.0195272E5,3.8119126E3,2.997966E3,5.931499E4,1.9336244E3,3.2017441E4,4.109657E3,4.347968E3,1.1167041E3,9.3327155E2,1.6703656E3,2.9719624E3,1.0362064E3,1.1925967E3,5.598853E2],"tree_param":{"num_deleted":"0","num_feature":"13","num_nodes":"31","size_leaf_vector":"1"}},{"base_weights":[3.2234908E-4,4.810928E-2,-5.2904373E-1,-4.6834347E-1,9.625241E-2,-5.242317E-2,-6.529604E-1,-8.439634E-2,-8.83696E-1,4.583712E-2,5.260196E-1,2.4785006E-1,-3.6818457E-1,-5.738288E-1,-1.1361288E0,-2.033907E-2,4.6620976E-2,-2.926816E-2,-5.531987E-2,8.330801E-3,-2.5635708E-2,-1.9964347E-2,5.623067E-2,8.2054185E-3,4.4427525E-2,-5.0330937E-2,-1.71567E-3,-2.5283275E-2,-5.5236723E-2,-6.0605075E-2,-3.519478E-2],"categories":[],"categories_nodes":[],"categories_segments":[],"categories_sizes":[],"default_left":[0,0,0,0,0,0,0,0,0,0,0,0,0,0,0,0,0,0,0,0,0,0,0,0,0,0,0,0,0,0,0],"id":37,"left_children":[1,3,5,7,9,11,13,15,17,19,21,23,25,27,29,-1,-1,-1,-1,-1,-1,-1,-1,-1,-1,-1,-1,-1,-1,-1,-1],"loss_changes":[9.04355E3,8.152775E3,1.748124E3,4.4587363E3,6.4986914E3,5.792295E2,8.9769434E2,4.7631436E3,8.9181836E2,1.810996E4,1.744266E4,1.6781876E2,6.3461194E2,7.3010156E2,1.0792139E2,0E0,0E0,0E0,0E0,0E0,0E0,0E0,0E0,0E0,0E0,0E0,0E0,0E0,0E0,0E0,0E0],"parents":[2147483647,0,0,1,1,2,2,3,3,4,4,5,5,6,6,7,7,8,8,9,9,10,10,11,11,12,12,13,13,14,14],"right_children":[2,4,6,8,10,12,14,16,18,20,22,24,26,28,30,-1,-1,-1,-1,-1,-1,-1,-1,-1,-1,-1,-1,-1,-1,-1,-1],"split_conditions":[2.048E3,4.19E2,1.3E1,3.34E2,1.908E3,2.458E3,7E0,2.95E2,2E1,1.105E3,4.07927E5,2.339E3,2.498E3,2.684E3,9E0,-2.033907E-2,4.6620976E-2,-2.926816E-2,-5.531987E-2,8.330801E-3,-2.5635708E-2,-1.9964347E-2,5.623067E-2,8.2054185E-3,4.4427525E-2,-5.0330937E-2,-1.71567E-3,-2.5283275E-2,-5.5236723E-2,-6.0605075E-2,-3.519478E-2],"split_indices":[9,9,0,9,9,9,1,9,0,9,8,9,9,9,4,0,0,0,0,0,0,0,0,0,0,0,0,0,0,0,0],"split_type":[0,0,0,0,0,0,0,0,0,0,0,0,0,0,0,0,0,0,0,0,0,0,0,0,0,0,0,0,0,0,0],"sum_hessian":[3.5749894E5,3.2789944E5,2.959949E4,2.7959459E4,2.9993997E5,6.1079604E3,2.349153E4,1.4529447E4,1.3430012E4,2.684494E5,3.1490578E4,3.1306553E3,2.9773054E3,2.0186723E4,3.3048079E3,1.1032084E4,3.4973628E3,5.7412485E3,7.688763E3,2.207219E5,4.7727492E4,1.2369617E4,1.912096E4,2.7694614E3,3.611938E2,1.02190125E3,1.955404E3,1.7890865E4,2.295857E3,2.809802E3,4.9500574E2],"tree_param":{"num_deleted":"0","num_feature":"13","num_nodes":"31","size_leaf_vector":"1"}},{"base_weights":[-1.5062463E-4,4.533853E-2,-5.086739E-1,-4.5264837E-1,9.146328E-2,-1.9941129E-1,-6.927177E-1,-8.6021416E-2,-8.545243E-1,1.1350838E-1,-8.7990445E-1,1.1725823E-1,-5.0451016E-1,-6.241496E-1,-1.1043615E0,-1.9706544E-2,4.405947E-2,-2.772889E-2,-5.43392E-2,-6.197349E-2,6.46335E-3,-4.576734E-2,4.9673498E-2,1.527899E-3,4.0970337E-2,-5.014658E-2,-1.3324225E-2,-2.814865E-2,-5.5581886E-2,-6.0180586E-2,-4.361136E-2],"categories":[],"categories_nodes":[],"categories_segments":[],"categories_sizes":[],"default_left":[0,0,0,0,0,0,0,0,0,0,0,0,0,0,0,0,0,0,0,0,0,0,0,0,0,0,0,0,0,0,0],"id":38,"left_children":[1,3,5,7,9,11,13,15,17,19,21,23,25,27,29,-1,-1,-1,-1,-1,-1,-1,-1,-1,-1,-1,-1,-1,-1,-1,-1],"loss_changes":[8.242448E3,7.512374E3,1.6650732E3,4.0848218E3,6.409894E3,1.0547305E3,5.1717285E2,4.320921E3,9.209629E2,6.240483E3,4.4149268E2,3.260001E2,6.5934534E2,4.6844434E2,5.9585205E1,0E0,0E0,0E0,0E0,0E0,0E0,0E0,0E0,0E0,0E0,0E0,0E0,0E0,0E0,0E0,0E0],"parents":[2147483647,0,0,1,1,2,2,3,3,4,4,5,5,6,6,7,7,8,8,9,9,10,10,11,11,12,12,13,13,14,14],"right_children":[2,4,6,8,10,12,14,16,18,20,22,24,26,28,30,-1,-1,-1,-1,-1,-1,-1,-1,-1,-1,-1,-1,-1,-1,-1,-1],"split_conditions":[2.048E3,4.19E2,1.6E1,3.34E2,1.7E1,2.458E3,7E0,2.92E2,2E1,5.056E3,2E0,2.339E3,2.498E3,2.684E3,4.4E1,-1.9706544E-2,4.405947E-2,-2.772889E-2,-5.43392E-2,-6.197349E-2,6.46335E-3,-4.576734E-2,4.9673498E-2,1.527899E-3,4.0970337E-2,-5.014658E-2,-1.3324225E-2,-2.814865E-2,-5.5581886E-2,-6.0180586E-2,-4.361136E-2],"split_indices":[9,9,0,9,1,9,1,9,0,8,3,9,9,9,0,0,0,0,0,0,0,0,0,0,0,0,0,0,0,0,0],"split_type":[0,0,0,0,0,0,0,0,0,0,0,0,0,0,0,0,0,0,0,0,0,0,0,0,0,0,0,0,0,0,0],"sum_hessian":[3.5631478E5,3.2705853E5,2.9256252E4,2.7724438E4,2.993341E5,1.0915574E4,1.8340678E4,1.4498486E4,1.3225951E4,2.9269203E5,6.6420737E3,5.356212E3,5.5593623E3,1.5723154E4,2.6175234E3,1.0996045E4,3.502441E3,5.772853E3,7.4530986E3,3.3693171E3,2.8932272E5,6.519049E3,1.2302476E2,4.768116E3,5.880957E2,1.7961758E3,3.7631868E3,1.3971146E4,1.7520085E3,1.8318033E3,7.8572003E2],"tree_param":{"num_deleted":"0","num_feature":"13","num_nodes":"31","size_leaf_vector":"1"}},{"base_weights":[7.0055557E-4,3.4625277E-2,-6.294085E-1,-2.2365652E-1,1.1851519E-1,-3.2691938E-1,-7.9035014E-1,1.4406435E-1,-4.0793353E-1,2.2231601E-1,-2.0865406E-1,-6.185213E-1,-3.4486096E-2,-1.0831468E0,-6.892942E-1,3.437754E-2,5.7567324E-4,-2.6827633E-2,3.4553576E-2,8.556053E-3,3.0464103E-2,3.634049E-2,-1.36556765E-2,-1.5901301E-2,-6.1721623E-2,4.5364197E-2,-2.7371356E-2,-5.659306E-2,-3.9824143E-2,-1.9359604E-2,-4.206688E-2],"categories":[],"categories_nodes":[],"categories_segments":[],"categories_sizes":[],"default_left":[0,0,0,0,0,0,0,0,0,0,0,0,0,0,0,0,0,0,0,0,0,0,0,0,0,0,0,0,0,0,0],"id":39,"left_children":[1,3,5,7,9,11,13,15,17,19,21,23,25,27,29,-1,-1,-1,-1,-1,-1,-1,-1,-1,-1,-1,-1,-1,-1,-1,-1],"loss_changes":[7.59707E3,7.307132E3,8.836904E2,5.6027593E3,8.64507E3,5.3771606E2,3.5009766E2,1.9883835E3,7.7858564E3,3.8282979E3,3.6971567E3,5.840525E2,1.5216617E3,4.1802734E1,4.0445654E2,0E0,0E0,0E0,0E0,0E0,0E0,0E0,0E0,0E0,0E0,0E0,0E0,0E0,0E0,0E0,0E0],"parents":[2147483647,0,0,1,1,2,2,3,3,4,4,5,5,6,6,7,7,8,8,9,9,10,10,11,11,12,12,13,13,14,14],"right_children":[2,4,6,8,10,12,14,16,18,20,22,24,26,28,30,-1,-1,-1,-1,-1,-1,-1,-1,-1,-1,-1,-1,-1,-1,-1,-1],"split_conditions":[2.309E3,4.02031E5,2E0,2.4E1,4.05405E5,2.498E3,2.03858E5,1.6E1,1.405822E6,1.908E3,1.7E1,2.479E3,2.597E3,2.552E3,2.1E1,3.437754E-2,5.7567324E-4,-2.6827633E-2,3.4553576E-2,8.556053E-3,3.0464103E-2,3.634049E-2,-1.36556765E-2,-1.5901301E-2,-6.1721623E-2,4.5364197E-2,-2.7371356E-2,-5.659306E-2,-3.9824143E-2,-1.9359604E-2,-4.206688E-2],"split_indices":[9,7,4,0,7,9,8,0,8,9,0,9,9,9,0,0,0,0,0,0,0,0,0,0,0,0,0,0,0,0,0],"split_type":[0,0,0,0,0,0,0,0,0,0,0,0,0,0,0,0,0,0,0,0,0,0,0,0,0,0,0,0,0,0,0],"sum_hessian":[3.5539906E5,3.3724272E5,1.8156332E4,8.2680984E4,2.5456175E5,6.306129E3,1.1850203E4,2.7601781E4,5.5079203E4,1.932499E5,6.131184E4,3.1571025E3,3.1490261E3,3.0390613E3,8.811142E3,5.4113325E3,2.2190447E4,4.930882E4,5.770381E3,1.7067136E5,2.257855E4,3.9519998E3,5.735984E4,2.122488E3,1.0346145E3,1.1101638E3,2.0388623E3,2.5960735E3,4.4298795E2,2.9506958E3,5.860446E3],"tree_param":{"num_deleted":"0","num_feature":"13","num_nodes":"31","size_leaf_vector":"1"}},{"base_weights":[-1.5791896E-3,2.7069796E-2,-7.376983E-1,6.9266625E-2,-4.5816416E-1,-1.0204524E0,-3.568898E-1,2.2088964E-2,5.219171E-1,-3.531145E-1,-1.0251418E0,-1.1373843E0,-6.751866E-1,-1.8499866E-1,-1.2310672E0,5.8937385E-3,-2.3618199E-2,-1.623348E-2,5.2814286E-2,-5.5434457E-3,-2.8932367E-2,-5.7479035E-2,-2.9485265E-2,-5.9596926E-2,-4.643163E-2,-7.852784E-3,-6.646656E-2,-3.256407E-2,4.7940355E-2,-6.257923E-2,-3.6878914E-2],"categories":[],"categories_nodes":[],"categories_segments":[],"categories_sizes":[],"default_left":[0,0,0,0,0,0,0,0,0,0,0,0,0,0,0,0,0,0,0,0,0,0,0,0,0,0,0,0,0,0,0],"id":40,"left_children":[1,3,5,7,9,11,13,15,17,19,21,23,25,27,29,-1,-1,-1,-1,-1,-1,-1,-1,-1,-1,-1,-1,-1,-1,-1,-1],"loss_changes":[7.4599155E3,6.9714043E3,1.4265088E3,6.6891777E3,1.6221025E3,3.0643945E2,8.483524E2,1.3435273E4,1.3375502E4,1.2555386E3,2.3018799E2,6.3913086E1,6.522793E2,2.517714E3,8.733765E0,0E0,0E0,0E0,0E0,0E0,0E0,0E0,0E0,0E0,0E0,0E0,0E0,0E0,0E0,0E0,0E0],"parents":[2147483647,0,0,1,1,2,2,3,3,4,4,5,5,6,6,7,7,8,8,9,9,10,10,11,11,12,12,13,13,14,14],"right_children":[2,4,6,8,10,12,14,16,18,20,22,24,26,28,30,-1,-1,-1,-1,-1,-1,-1,-1,-1,-1,-1,-1,-1,-1,-1,-1],"split_conditions":[1E0,2.048E3,3.9E1,1.908E3,5E0,6.12535E5,6.17708E5,1.105E3,4.07927E5,1.7E1,4.2E1,1.178656E6,6.17708E5,6.12535E5,7.8E1,5.8937385E-3,-2.3618199E-2,-1.623348E-2,5.2814286E-2,-5.5434457E-3,-2.8932367E-2,-5.7479035E-2,-2.9485265E-2,-5.9596926E-2,-4.643163E-2,-7.852784E-3,-6.646656E-2,-3.256407E-2,4.7940355E-2,-6.257923E-2,-3.6878914E-2],"split_indices":[11,9,0,9,1,7,7,9,8,0,0,8,7,7,0,0,0,0,0,0,0,0,0,0,0,0,0,0,0,0,0],"split_type":[0,0,0,0,0,0,0,0,0,0,0,0,0,0,0,0,0,0,0,0,0,0,0,0,0,0,0,0,0,0,0],"sum_hessian":[3.537295E5,3.4047875E5,1.325073E4,3.132395E5,2.7239246E4,7.6037603E3,5.64697E3,2.8367422E5,2.9565303E4,2.2982107E4,4.2571387E3,5.6790034E3,1.9247568E3,4.7196553E3,9.273146E2,2.3763914E5,4.603506E4,1.1440469E4,1.8124834E4,1.1081075E4,1.1901032E4,3.3101235E3,9.470152E2,4.500128E3,1.1788756E3,1.0744702E3,8.502867E2,3.3530552E3,1.3666003E3,8.893676E2,3.7946976E1],"tree_param":{"num_deleted":"0","num_feature":"13","num_nodes":"31","size_leaf_vector":"1"}},{"base_weights":[-4.612345E-4,4.008314E-2,-4.6631962E-1,-4.4231975E-1,8.318384E-2,-3.028315E-1,-7.8000116E-1,-1.596967E-1,-9.814598E-1,1.0297633E-1,-8.815676E-1,-2.2063814E-1,-1.1405143E0,-7.1383893E-1,-1.1221609E0,2.499448E-3,-4.9571052E-2,-5.8671195E-2,-2.1460949E-2,-6.054842E-2,5.8974996E-3,-4.5959402E-2,4.708791E-2,-6.9601866E-3,-4.5457315E-2,-5.7110555E-2,-1.5144986E-2,-2.8437484E-2,-4.3650504E-2,-6.0331453E-2,-4.2796485E-2],"categories":[],"categories_nodes":[],"categories_segments":[],"categories_sizes":[],"default_left":[0,0,0,0,0,0,0,0,0,0,0,0,0,0,0,0,0,0,0,0,0,0,0,0,0,0,0,0,0,0,0],"id":41,"left_children":[1,3,5,7,9,11,13,15,17,19,21,23,25,27,29,-1,-1,-1,-1,-1,-1,-1,-1,-1,-1,-1,-1,-1,-1,-1,-1],"loss_changes":[6.65851E3,6.7428037E3,1.4472202E3,4.052684E3,5.684547E3,1.2773054E3,2.1832129E2,3.043632E3,9.6932227E2,5.7393916E3,4.1094824E2,9.472757E2,2.0388184E0,1.8677441E2,3.4487427E1,0E0,0E0,0E0,0E0,0E0,0E0,0E0,0E0,0E0,0E0,0E0,0E0,0E0,0E0,0E0,0E0],"parents":[2147483647,0,0,1,1,2,2,3,3,4,4,5,5,6,6,7,7,8,8,9,9,10,10,11,11,12,12,13,13,14,14],"right_children":[2,4,6,8,10,12,14,16,18,20,22,24,26,28,30,-1,-1,-1,-1,-1,-1,-1,-1,-1,-1,-1,-1,-1,-1,-1,-1],"split_conditions":[2.048E3,4.12E2,2.3E1,3.72E2,1.8E1,5E0,9E0,1.357099E6,3.95E2,5.056E3,2E0,2.684E3,6.12535E5,2.458E3,9E0,2.499448E-3,-4.9571052E-2,-5.8671195E-2,-2.1460949E-2,-6.054842E-2,5.8974996E-3,-4.5959402E-2,4.708791E-2,-6.9601866E-3,-4.5457315E-2,-5.7110555E-2,-1.5144986E-2,-2.8437484E-2,-4.3650504E-2,-6.0331453E-2,-4.2796485E-2],"split_indices":[9,9,0,9,1,1,1,8,9,8,3,9,7,9,4,0,0,0,0,0,0,0,0,0,0,0,0,0,0,0,0],"split_type":[0,0,0,0,0,0,0,0,0,0,0,0,0,0,0,0,0,0,0,0,0,0,0,0,0,0,0,0,0,0,0],"sum_hessian":[3.5252388E5,3.242998E5,2.8224072E4,2.6597818E4,2.97702E5,1.8554781E4,9.66929E3,1.745077E4,9.147049E3,2.9171775E5,5.984225E3,1.6897547E4,1.6572349E3,8.1040693E3,1.5652205E3,1.3937374E4,3.5133955E3,6.7870605E3,2.3599885E3,3.2864211E3,2.8843134E5,5.863546E3,1.20678825E2,1.5111014E4,1.7865332E3,1.6535839E3,3.6509504E0,4.2410967E3,3.862973E3,1.1866012E3,3.7861923E2],"tree_param":{"num_deleted":"0","num_feature":"13","num_nodes":"31","size_leaf_vector":"1"}},{"base_weights":[-1.107477E-3,2.605902E-2,-7.1988994E-1,1.1121851E-1,-1.7140189E-1,-1.0001714E0,-3.4904376E-1,5.4264035E-2,8.3337957E-1,-8.217323E-1,8.879777E-2,-1.118074E0,-6.6206867E-1,-1.8825163E-1,-1.20955E0,4.3253386E-3,-8.380023E-2,8.0818966E-2,2.3877779E-2,-2.5698463E-2,-7.257051E-2,1.8967226E-2,-2.0721732E-2,-5.8699638E-2,-4.519816E-2,-8.361268E-3,-6.535396E-2,-3.1972833E-2,4.4412125E-2,-6.1526615E-2,-1.5268855E-2],"categories":[],"categories_nodes":[],"categories_segments":[],"categories_sizes":[],"default_left":[0,0,0,0,0,0,0,0,0,0,0,0,0,0,0,0,0,0,0,0,0,0,0,0,0,0,0,0,0,0,0],"id":42,"left_children":[1,3,5,7,9,11,13,15,17,19,21,23,25,27,29,-1,-1,-1,-1,-1,-1,-1,-1,-1,-1,-1,-1,-1,-1,-1,-1],"loss_changes":[6.8689907E3,5.6998066E3,1.3312935E3,9.740504E3,1.7282957E4,2.9029736E2,7.628899E2,1.2246171E4,4.8226914E3,5.655625E3,1.066606E4,6.401807E1,6.023161E2,2.2578164E3,1.612915E1,0E0,0E0,0E0,0E0,0E0,0E0,0E0,0E0,0E0,0E0,0E0,0E0,0E0,0E0,0E0,0E0],"parents":[2147483647,0,0,1,1,2,2,3,3,4,4,5,5,6,6,7,7,8,8,9,9,10,10,11,11,12,12,13,13,14,14],"right_children":[2,4,6,8,10,12,14,16,18,20,22,24,26,28,30,-1,-1,-1,-1,-1,-1,-1,-1,-1,-1,-1,-1,-1,-1,-1,-1],"split_conditions":[1E0,1.105E3,3.9E1,6.53E2,1.716E3,6.12535E5,6.17708E5,6.4E2,6.84E2,1.46E3,2.048E3,1.178656E6,6.17708E5,6.12535E5,1.5E1,4.3253386E-3,-8.380023E-2,8.0818966E-2,2.3877779E-2,-2.5698463E-2,-7.257051E-2,1.8967226E-2,-2.0721732E-2,-5.8699638E-2,-4.519816E-2,-8.361268E-3,-6.535396E-2,-3.1972833E-2,4.4412125E-2,-6.1526615E-2,-1.5268855E-2],"split_indices":[11,9,0,9,9,7,7,9,9,9,9,8,7,7,4,0,0,0,0,0,0,0,0,0,0,0,0,0,0,0,0],"split_type":[0,0,0,0,0,0,0,0,0,0,0,0,0,0,0,0,0,0,0,0,0,0,0,0,0,0,0,0,0,0,0],"sum_hessian":[3.5176794E5,3.389573E5,1.2810604E4,2.3682283E5,1.02134484E5,7.295572E3,5.5150317E3,2.1951138E5,1.7311465E4,2.918649E4,7.2948E4,5.408189E3,1.8873826E3,4.6473623E3,8.6766943E2,2.1549623E5,4.0151372E3,5.4083047E3,1.1903161E4,1.9605246E4,9.581245E3,4.6247066E4,2.6700932E4,4.286093E3,1.1220964E3,1.0684596E3,8.18923E2,3.2749753E3,1.3723871E3,8.477064E2,1.9963032E1],"tree_param":{"num_deleted":"0","num_feature":"13","num_nodes":"31","size_leaf_vector":"1"}},{"base_weights":[2.4856778E-4,-5.3444684E-1,3.1997696E-2,-3.5035464E-1,-8.305702E-1,5.4936595E-2,-6.426642E-1,2.1304436E-1,-5.722155E-1,-8.842806E-1,3.814864E-1,1.1705342E-1,-2.2303413E-1,-1.0546384E0,-1.4465039E-2,-1.8450065E-2,1.6589619E-1,-1.740302E-2,-6.0011502E-2,-5.2196026E-2,-2.1276785E-2,-5.7113327E-2,9.547999E-2,3.318648E-3,2.827387E-2,-2.6632524E-3,-2.9157618E-2,-6.6827424E-3,-5.7667732E-2,1.4697748E-2,-6.471459E-2],"categories":[],"categories_nodes":[],"categories_segments":[],"categories_sizes":[],"default_left":[0,0,0,0,0,0,0,0,0,0,0,0,0,0,0,0,0,0,0,0,0,0,0,0,0,0,0,0,0,0,0],"id":43,"left_children":[1,3,5,7,9,11,13,15,17,19,21,23,25,27,29,-1,-1,-1,-1,-1,-1,-1,-1,-1,-1,-1,-1,-1,-1,-1,-1],"loss_changes":[5.955082E3,1.0715806E3,5.124573E3,1.5157341E3,4.9086768E2,5.5295645E3,2.8178223E3,6.1924316E3,1.2243445E3,5.281802E2,7.4646796E2,5.9486045E3,3.5759722E3,5.9763916E2,1.7027723E3,0E0,0E0,0E0,0E0,0E0,0E0,0E0,0E0,0E0,0E0,0E0,0E0,0E0,0E0,0E0,0E0],"parents":[2147483647,0,0,1,1,2,2,3,3,4,4,5,5,6,6,7,7,8,8,9,9,10,10,11,11,12,12,13,13,14,14],"right_children":[2,4,6,8,10,12,14,16,18,20,22,24,26,28,30,-1,-1,-1,-1,-1,-1,-1,-1,-1,-1,-1,-1,-1,-1,-1,-1],"split_conditions":[1.05836E5,4E0,1E0,4.00228E5,1.433199E6,4.05405E5,6.12535E5,3.93167E5,5E0,8E0,1.3E1,7E0,2E0,2.4132E5,6.17708E5,-1.8450065E-2,1.6589619E-1,-1.740302E-2,-6.0011502E-2,-5.2196026E-2,-2.1276785E-2,-5.7113327E-2,9.547999E-2,3.318648E-3,2.827387E-2,-2.6632524E-3,-2.9157618E-2,-6.6827424E-3,-5.7667732E-2,1.4697748E-2,-6.471459E-2],"split_indices":[7,4,10,8,8,7,7,8,1,4,1,4,1,7,7,0,0,0,0,0,0,0,0,0,0,0,0,0,0,0,0],"split_type":[0,0,0,0,0,0,0,0,0,0,0,0,0,0,0,0,0,0,0,0,0,0,0,0,0,0,0,0,0,0,0],"sum_hessian":[3.5079378E5,1.9661314E4,3.3113247E5,1.2124968E4,7.5363477E3,3.2024456E5,1.0887895E4,3.4255667E3,8.6994E3,7.2167656E3,3.195821E2,2.6175258E5,5.849198E4,6.575302E3,4.312593E3,2.885125E3,5.404418E2,6.411796E3,2.2876047E3,5.353078E3,1.8636873E3,1.6004979E2,1.5953229E2,2.351742E5,2.6578375E4,3.975248E4,1.87395E4,6.367614E2,5.9385405E3,3.4753823E3,8.3721063E2],"tree_param":{"num_deleted":"0","num_feature":"13","num_nodes":"31","size_leaf_vector":"1"}},{"base_weights":[-1.5470658E-3,2.4317216E-2,-6.965745E-1,-2.0016703E-1,9.599035E-2,-9.752571E-1,-3.3225197E-1,1.2086374E-1,-3.7590057E-1,1.7829652E-1,-1.85529E-1,-1.0998085E0,-6.272605E-1,-1.777146E-1,-1.1860379E0,1.1655229E-2,-2.429531E-2,-2.375114E-2,1.1711082E-3,1.0373546E-2,-5.9325285E-2,-6.1956566E-4,-2.7647877E-2,-5.738106E-2,-4.7765855E-2,-7.0752404E-3,-6.446858E-2,-3.0734396E-2,4.3385815E-2,-6.044316E-2,-3.3388652E-2],"categories":[],"categories_nodes":[],"categories_segments":[],"categories_sizes":[],"default_left":[0,0,0,0,0,0,0,0,0,0,0,0,0,0,0,0,0,0,0,0,0,0,0,0,0,0,0,0,0,0,0],"id":44,"left_children":[1,3,5,7,9,11,13,15,17,19,21,23,25,27,29,-1,-1,-1,-1,-1,-1,-1,-1,-1,-1,-1,-1,-1,-1,-1,-1],"loss_changes":[6.2969346E3,5.433706E3,1.2757144E3,4.610974E3,5.931441E3,3.081045E2,7.1855804E2,1.9691357E3,2.0906992E3,7.886917E3,3.6839592E3,3.5460938E1,6.038161E2,2.1078489E3,9.283569E0,0E0,0E0,0E0,0E0,0E0,0E0,0E0,0E0,0E0,0E0,0E0,0E0,0E0,0E0,0E0,0E0],"parents":[2147483647,0,0,1,1,2,2,3,3,4,4,5,5,6,6,7,7,8,8,9,9,10,10,11,11,12,12,13,13,14,14],"right_children":[2,4,6,8,10,12,14,16,18,20,22,24,26,28,30,-1,-1,-1,-1,-1,-1,-1,-1,-1,-1,-1,-1,-1,-1,-1,-1],"split_conditions":[1E0,4.02031E5,3.9E1,2.4E1,4.05405E5,6.12535E5,6.17708E5,2E0,4.8E1,1E0,2E0,3.2E1,6.17708E5,6.12535E5,7.8E1,1.1655229E-2,-2.429531E-2,-2.375114E-2,1.1711082E-3,1.0373546E-2,-5.9325285E-2,-6.1956566E-4,-2.7647877E-2,-5.738106E-2,-4.7765855E-2,-7.0752404E-3,-6.446858E-2,-3.0734396E-2,4.3385815E-2,-6.044316E-2,-3.3388652E-2],"split_indices":[11,7,0,0,7,7,7,1,0,10,1,0,7,7,0,0,0,0,0,0,0,0,0,0,0,0,0,0,0,0,0],"split_type":[0,0,0,0,0,0,0,0,0,0,0,0,0,0,0,0,0,0,0,0,0,0,0,0,0,0,0,0,0,0,0],"sum_hessian":[3.5028453E5,3.3771728E5,1.2567244E4,8.173051E4,2.5598678E5,7.1198887E3,5.4473555E3,2.8912541E4,5.281797E4,1.9807677E5,5.7910016E4,5.2422637E3,1.8776251E3,4.613095E3,8.342604E2,2.439956E4,4.51298E3,4.2314555E4,1.0503412E4,1.9393172E5,4.145039E3,3.9362582E4,1.8547434E4,3.9357483E3,1.3065154E3,1.0834865E3,7.941387E2,3.2534902E3,1.3596049E3,7.9824506E2,3.601532E1],"tree_param":{"num_deleted":"0","num_feature":"13","num_nodes":"31","size_leaf_vector":"1"}},{"base_weights":[2.6234993E-5,2.4704263E-2,-6.7492735E-1,5.2417897E-2,-5.2945703E-1,-8.9360213E-1,-2.2355425E-1,-1.7554386E-1,1.256551E-1,-3.9356565E-1,-8.798873E-1,-1.0269704E0,-4.8538926E-1,4.0427217E-1,-1.2158812E0,7.0442515E-3,-1.7185045E-2,1.0292365E-2,-7.4408515E-3,-3.2025747E-2,-4.2510773E-3,-3.511135E-2,-5.340419E-2,-5.57666E-2,-3.774101E-2,-4.1735206E-2,4.67831E-2,3.4973755E-2,-2.2754148E-2,-6.134076E-2,-1.3773483E-2],"categories":[],"categories_nodes":[],"categories_segments":[],"categories_sizes":[],"default_left":[0,0,0,0,0,0,0,0,0,0,0,0,0,0,0,0,0,0,0,0,0,0,0,0,0,0,0,0,0,0,0],"id":45,"left_children":[1,3,5,7,9,11,13,15,17,19,21,23,25,27,29,-1,-1,-1,-1,-1,-1,-1,-1,-1,-1,-1,-1,-1,-1,-1,-1],"loss_changes":[5.8108667E3,5.168838E3,1.2143848E3,5.351404E3,7.6304297E2,4.508833E2,2.5028206E3,4.147123E3,5.3396807E3,8.800801E2,1.4918799E2,1.4962354E2,1.01421545E3,6.2438666E2,1.5687744E1,0E0,0E0,0E0,0E0,0E0,0E0,0E0,0E0,0E0,0E0,0E0,0E0,0E0,0E0,0E0,0E0],"parents":[2147483647,0,0,1,1,2,2,3,3,4,4,5,5,6,6,7,7,8,8,9,9,10,10,11,11,12,12,13,13,14,14],"right_children":[2,4,6,8,10,12,14,16,18,20,22,24,26,28,30,-1,-1,-1,-1,-1,-1,-1,-1,-1,-1,-1,-1,-1,-1,-1,-1],"split_conditions":[1E0,2.309E3,6.12535E5,4.02031E5,1E0,1.178656E6,6.17708E5,2.4E1,4.05405E5,2.498E3,6E0,4.7E1,1.916E3,1.105E3,1.5E1,7.0442515E-3,-1.7185045E-2,1.0292365E-2,-7.4408515E-3,-3.2025747E-2,-4.2510773E-3,-3.511135E-2,-5.340419E-2,-5.57666E-2,-3.774101E-2,-4.1735206E-2,4.67831E-2,3.4973755E-2,-2.2754148E-2,-6.134076E-2,-1.3773483E-2],"split_indices":[11,9,7,7,1,8,7,0,7,9,1,0,9,9,4,0,0,0,0,0,0,0,0,0,0,0,0,0,0,0,0],"split_type":[0,0,0,0,0,0,0,0,0,0,0,0,0,0,0,0,0,0,0,0,0,0,0,0,0,0,0,0,0,0,0],"sum_hessian":[3.4886725E5,3.3656228E5,1.2304948E4,3.2053306E5,1.6029241E4,8.288663E3,4.0162847E3,7.793783E4,2.4259522E5,1.155121E4,4.4780312E3,6.2467646E3,2.0418986E3,2.460052E3,1.5562325E3,2.7045168E4,5.089266E4,1.8774305E5,5.485218E4,6.4155435E3,5.1356665E3,2.3049863E3,2.1730447E3,4.7142324E3,1.5325325E3,1.6392291E3,4.0266946E2,1.83121E3,6.2884204E2,1.538091E3,1.814168E1],"tree_param":{"num_deleted":"0","num_feature":"13","num_nodes":"31","size_leaf_vector":"1"}},{"base_weights":[7.487942E-4,2.834227E-2,-5.422416E-1,-4.132024E-1,6.579184E-2,-4.0670946E-1,-8.8209265E-1,1.229072E0,-5.014692E-1,8.460546E-2,-8.113209E-1,-6.407848E-1,-1.1077617E-1,-7.551272E-1,-1.0787544E0,4.1069947E-2,8.297728E-2,-1.2933803E-2,-4.7459945E-2,-5.7838585E-2,4.8916163E-3,-3.2056645E-2,-6.177179E-2,-9.225615E-3,-5.981185E-2,1.6957574E-2,-4.59218E-2,-4.5645148E-2,-2.747268E-2,-5.590225E-2,-2.4930378E-2],"categories":[],"categories_nodes":[],"categories_segments":[],"categories_sizes":[],"default_left":[0,0,0,0,0,0,0,0,0,0,0,0,0,0,0,0,0,0,0,0,0,0,0,0,0,0,0,0,0,0,0],"id":46,"left_children":[1,3,5,7,9,11,13,15,17,19,21,23,25,27,29,-1,-1,-1,-1,-1,-1,-1,-1,-1,-1,-1,-1,-1,-1,-1,-1],"loss_changes":[5.206685E3,5.4683936E3,7.737617E2,3.7482148E3,5.0304834E3,8.32199E2,1.1902734E2,2.3052002E2,2.6670913E3,4.900327E3,4.614707E2,1.6999451E3,1.928823E3,9.413501E1,4.2366455E1,0E0,0E0,0E0,0E0,0E0,0E0,0E0,0E0,0E0,0E0,0E0,0E0,0E0,0E0,0E0,0E0],"parents":[2147483647,0,0,1,1,2,2,3,3,4,4,5,5,6,6,7,7,8,8,9,9,10,10,11,11,12,12,13,13,14,14],