{"learner":{"attributes":{"scikit_learn":"{\"_estimator_type\": \"classifier\"}"},"feature_names":["url_length","num_digits","num_at","num_percent20","num_special_chars","num_parameters","num_fragments","subdomain","root_domain","domain_extension","has_http","has_https","has_ip"],"feature_types":["int","int","int","int","int","int","int","int","int","int","int","int","int"],"gradient_booster":{"model":{"gbtree_model_param":{"num_parallel_tree":"1","num_trees":"150"},"iteration_indptr":[0,1,2,3,4,5,6,7,8,9,10,11,12,13,14,15,16,17,18,19,20,21,22,23,24,25,26,27,28,29,30,31,32,33,34,35,36,37,38,39,40,41,42,43,44,45,46,47,48,49,50,51,52,53,54,55,56,57,58,59,60,61,62,63,64,65,66,67,68,69,70,71,72,73,74,75,76,77,78,79,80,81,82,83,84,85,86,87,88,89,90,91,92,93,94,95,96,97,98,99,100,101,102,103,104,105,106,107,108,109,110,111,112,113,114,115,116,117,118,119,120,121,122,123,124,125,126,127,128,129,130,131,132,133,134,135,136,137,138,139,140,141,142,143,144,145,146,147,148,149,150],"tree_info":[0,0,0,0,0,0,0,0,0,0,0,0,0,0,0,0,0,0,0,0,0,0,0,0,0,0,0,0,0,0,0,0,0,0,0,0,0,0,0,0,0,0,0,0,0,0,0,0,0,0,0,0,0,0,0,0,0,0,0,0,0,0,0,0,0,0,0,0,0,0,0,0,0,0,0,0,0,0,0,0,0,0,0,0,0,0,0,0,0,0,0,0,0,0,0,0,0,0,0,0,0,0,0,0,0,0,0,0,0,0,0,0,0,0,0,0,0,0,0,0,0,0,0,0,0,0,0,0,0,0,0,0,0,0,0,0,0,0,0,0,0,0,0,0,0,0,0,0,0,0],"trees":[{"base_weights":[5.919925E-4,7.111478E-1,-3.5281503E-1,7.963255E-1,-4.798212E-1,-4.7780424E-2,-8.089946E-1,1.3510195E0,7.616456E-1,-2.6594904E-1,-2.064146E0,4.5678687E-1,-3.2071477E-1,-1.5720733E0,-3.471799E-1,7.214699E-2,6.3477926E-2,2.7691966E-2,3.9443906E-2,-7.2245686E-3,-3.3346545E-2,-9.799857E-2,-1.08203255E-1,3.6618896E-2,8.350548E-3,-3.2064777E-2,-6.876666E-3,-6.7754515E-2,-9.979498E-2,-5.6930114E-2,1.5171066E-4],"categories":[],"categories_nodes":[],"categories_segments":[],"categories_sizes":[],"default_left":[0,0,0,0,0,0,0,0,0,0,0,0,0,0,0,0,0,0,0,0,0,0,0,0,0,0,0,0,0,0,0],"id":0,"left_children":[1,3,5,7,9,11,13,15,17,19,21,23,25,27,29,-1,-1,-1,-1,-1,-1,-1,-1,-1,-1,-1,-1,-1,-1,-1,-1],"loss_changes":[1.0257762E5,1.3764523E4,3.796072E4,2.4351797E3,3.0682532E3,2.2514367E4,3.852335E4,5.459961E1,6.7408594E2,3.8851782E2,8.678223E0,4.5830215E3,6.230333E3,3.7886094E3,1.8876113E4,0E0,0E0,0E0,0E0,0E0,0E0,0E0,0E0,0E0,0E0,0E0,0E0,0E0,0E0,0E0,0E0],"parents":[2147483647,0,0,1,1,2,2,3,3,4,4,5,5,6,6,7,7,8,8,9,9,10,10,11,11,12,12,13,13,14,14],"right_children":[2,4,6,8,10,12,14,16,18,20,22,24,26,28,30,-1,-1,-1,-1,-1,-1,-1,-1,-1,-1,-1,-1,-1,-1,-1,-1],"split_conditions":[2E0,1E0,1E0,9E0,5E0,2.1E1,4E0,8E0,2.03762E5,1.7E1,7E0,1.7E1,4.02031E5,2.9E1,4.02031E5,7.214699E-2,6.3477926E-2,2.7691966E-2,3.9443906E-2,-7.2245686E-3,-3.3346545E-2,-9.799857E-2,-1.08203255E-1,3.6618896E-2,8.350548E-3,-3.2064777E-2,-6.876666E-3,-6.7754515E-2,-9.979498E-2,-5.6930114E-2,1.5171066E-4],"split_indices":[4,1,1,0,1,0,4,0,8,0,1,0,7,0,7,0,0,0,0,0,0,0,0,0,0,0,0,0,0,0,0],"split_type":[0,0,0,0,0,0,0,0,0,0,0,0,0,0,0,0,0,0,0,0,0,0,0,0,0,0,0,0,0,0,0],"sum_hessian":[4.0848678E5,1.3568333E5,2.7280344E5,1.2662724E5,9.056088E3,1.634858E5,1.0931764E5,7.449694E3,1.1917755E5,7.979554E3,1.0765339E3,5.738984E4,1.0609595E5,4.1214883E4,6.8102766E4,3.4956445E3,3.9540493E3,1.3809997E4,1.0536755E5,6.1251665E3,1.8543878E3,5.325802E2,5.4395374E2,2.9414299E4,2.7975541E4,3.8578684E4,6.751727E4,2.7260736E4,1.3954145E4,2.0891285E4,4.7211477E4],"tree_param":{"num_deleted":"0","num_feature":"13","num_nodes":"31","size_leaf_vector":"1"}},{"base_weights":[1.9990043E-3,4.9986055E-1,-4.1589797E-1,6.3631654E-1,-1.324142E0,-2.970258E-1,-1.8000233E0,-1.253646E-1,7.045992E-1,-1.7608073E-1,-1.4421636E0,-1.6310694E0,-1.4386366E-1,-1.4335365E0,-1.9478556E0,2.4527347E-2,-3.9770123E-2,4.3614924E-2,2.482285E-2,-4.2996474E-2,2.3276081E-2,-1.05582215E-1,-6.531491E-2,-5.2620865E-2,-1.0373434E-1,-3.684358E-2,7.330108E-3,-7.584691E-2,3.4917803E-3,-9.43335E-2,-1.0960233E-1],"categories":[],"categories_nodes":[],"categories_segments":[],"categories_sizes":[],"default_left":[0,0,0,0,0,0,0,0,0,0,0,0,0,0,0,0,0,0,0,0,0,0,0,0,0,0,0,0,0,0,0],"id":1,"left_children":[1,3,5,7,9,11,13,15,17,19,21,23,25,27,29,-1,-1,-1,-1,-1,-1,-1,-1,-1,-1,-1,-1,-1,-1,-1,-1],"loss_changes":[8.4961914E4,4.6382715E4,3.6527816E4,9.017633E3,1.7572324E3,4.1774453E4,9.495742E2,5.887064E3,5.5536875E3,5.31041E2,1.0681152E3,5.4036016E3,3.1590018E4,6.332637E2,1.844336E2,0E0,0E0,0E0,0E0,0E0,0E0,0E0,0E0,0E0,0E0,0E0,0E0,0E0,0E0,0E0,0E0],"parents":[2147483647,0,0,1,1,2,2,3,3,4,4,5,5,6,6,7,7,8,8,9,9,10,10,11,11,12,12,13,13,14,14],"right_children":[2,4,6,8,10,12,14,16,18,20,22,24,26,28,30,-1,-1,-1,-1,-1,-1,-1,-1,-1,-1,-1,-1,-1,-1,-1,-1],"split_conditions":[2.1E1,2.327E3,2.048E3,4.19E2,1E1,4.19E2,2.308E3,3.34E2,1.6E1,2.498E3,3.9513E4,3.34E2,4.02031E5,2.28E3,1E0,2.4527347E-2,-3.9770123E-2,4.3614924E-2,2.482285E-2,-4.2996474E-2,2.3276081E-2,-1.05582215E-1,-6.531491E-2,-5.2620865E-2,-1.0373434E-1,-3.684358E-2,7.330108E-3,-7.584691E-2,3.4917803E-3,-9.43335E-2,-1.0960233E-1],"split_indices":[0,9,9,9,0,9,9,9,0,9,8,9,7,9,11,0,0,0,0,0,0,0,0,0,0,0,0,0,0,0,0],"split_type":[0,0,0,0,0,0,0,0,0,0,0,0,0,0,0,0,0,0,0,0,0,0,0,0,0,0,0,0,0,0,0],"sum_hessian":[4.0836203E5,1.8635188E5,2.2201016E5,1.7338138E5,1.2970502E4,2.0445198E5,1.7558172E4,1.426426E4,1.5911711E5,1.2092789E3,1.1761223E4,2.1055232E4,1.8339675E5,5.0485273E3,1.2509644E4,7.4323174E3,6.8319424E3,8.811843E4,7.099868E4,5.853608E2,6.2391815E2,1.9828203E3,9.778402E3,9.137818E3,1.1917414E4,6.0296496E4,1.2310026E5,4.7832324E3,2.652947E2,1.0007015E4,2.50263E3],"tree_param":{"num_deleted":"0","num_feature":"13","num_nodes":"31","size_leaf_vector":"1"}},{"base_weights":[6.6536956E-4,6.559692E-1,-3.218813E-1,7.4337775E-1,-9.367166E-1,-1.896033E-1,-1.5309603E0,6.6648334E-1,1.2046936E0,-1.3320343E0,-5.143952E-1,-1.3517443E0,-5.011391E-2,-1.0136654E0,-1.7690623E0,6.630722E-3,3.526377E-2,7.197792E-2,2.6403144E-2,-2.9015014E-2,-9.22836E-2,2.966781E-2,-7.1158595E-2,6.512792E-2,-7.483659E-2,-2.340894E-2,8.670252E-3,-2.3505097E-2,-7.697709E-2,-8.596108E-2,-1.0338431E-1],"categories":[],"categories_nodes":[],"categories_segments":[],"categories_sizes":[],"default_left":[0,0,0,0,0,0,0,0,0,0,0,0,0,0,0,0,0,0,0,0,0,0,0,0,0,0,0,0,0,0,0],"id":2,"left_children":[1,3,5,7,9,11,13,15,17,19,21,23,25,27,29,-1,-1,-1,-1,-1,-1,-1,-1,-1,-1,-1,-1,-1,-1,-1,-1],"loss_changes":[8.624667E4,1.8737809E4,4.3733695E4,4.5254453E3,1.1685605E3,3.9956414E4,3.3202148E3,2.2647969E3,2.8962227E3,1.3956143E3,3.409778E3,1.0166316E4,2.0564602E4,2.4294355E3,2.7266797E2,0E0,0E0,0E0,0E0,0E0,0E0,0E0,0E0,0E0,0E0,0E0,0E0,0E0,0E0,0E0,0E0],"parents":[2147483647,0,0,1,1,2,2,3,3,4,4,5,5,6,6,7,7,8,8,9,9,10,10,11,11,12,12,13,13,14,14],"right_children":[2,4,6,8,10,12,14,16,18,20,22,24,26,28,30,-1,-1,-1,-1,-1,-1,-1,-1,-1,-1,-1,-1,-1,-1,-1,-1],"split_conditions":[2E0,2.327E3,2.048E3,1.906E3,2.498E3,3.99E2,2.327E3,3.95E2,1.922E3,2.458E3,2.63E3,7.2E1,4.02031E5,2.4E1,1E0,6.630722E-3,3.526377E-2,7.197792E-2,2.6403144E-2,-2.9015014E-2,-9.22836E-2,2.966781E-2,-7.1158595E-2,6.512792E-2,-7.483659E-2,-2.340894E-2,8.670252E-3,-2.3505097E-2,-7.697709E-2,-8.596108E-2,-1.0338431E-1],"split_indices":[4,9,9,9,9,9,9,9,9,9,9,9,7,0,11,0,0,0,0,0,0,0,0,0,0,0,0,0,0,0,0],"split_type":[0,0,0,0,0,0,0,0,0,0,0,0,0,0,0,0,0,0,0,0,0,0,0,0,0,0,0,0,0,0,0],"sum_hessian":[4.080429E5,1.34594E5,2.734489E5,1.2759193E5,7.00207E3,2.4648333E5,2.6965586E4,1.0936403E5,1.82279E4,3.6159827E3,3.386087E3,2.6413875E4,2.2006945E5,8.500544E3,1.8465041E4,7.408636E3,1.0195539E5,1.3530593E4,4.6973076E3,1.4683052E3,2.1476775E3,1.5260164E3,1.8600706E3,1.3678479E3,2.5046027E4,7.666912E4,1.4340033E5,4.1805366E3,4.3200073E3,1.5827181E4,2.6378613E3],"tree_param":{"num_deleted":"0","num_feature":"13","num_nodes":"31","size_leaf_vector":"1"}},{"base_weights":[8.5043156E-4,2.9075485E-1,-7.021472E-1,6.2671566E-1,-1.548236E-1,-1.2624384E0,-2.880036E-1,7.1961904E-1,-9.3127775E-1,-5.05389E-2,-1.4745749E0,-8.980521E-1,-1.6322006E0,4.2211074E-2,-1.0311344E0,4.1788068E-2,2.4755325E-2,-1.8844428E-2,-6.0101725E-2,-6.312987E-2,3.1179239E-3,-5.477337E-2,-8.658881E-2,-3.362774E-2,-8.285993E-2,-3.9642636E-2,-8.5867286E-2,-7.724974E-2,1.8205998E-2,-4.0108632E-2,-8.490381E-2],"categories":[],"categories_nodes":[],"categories_segments":[],"categories_sizes":[],"default_left":[0,0,0,0,0,0,0,0,0,0,0,0,0,0,0,0,0,0,0,0,0,0,0,0,0,0,0,0,0,0,0],"id":3,"left_children":[1,3,5,7,9,11,13,15,17,19,21,23,25,27,29,-1,-1,-1,-1,-1,-1,-1,-1,-1,-1,-1,-1,-1,-1,-1,-1],"loss_changes":[8.300508E4,4.3167555E4,2.7593297E4,2.3796918E4,1.7060445E4,6.808672E3,1.6779336E4,4.0453672E3,1.3883867E3,1.5720552E4,8.8391016E2,4.357004E3,1.7917656E3,2.4188477E4,3.2113984E3,0E0,0E0,0E0,0E0,0E0,0E0,0E0,0E0,0E0,0E0,0E0,0E0,0E0,0E0,0E0,0E0],"parents":[2147483647,0,0,1,1,2,2,3,3,4,4,5,5,6,6,7,7,8,8,9,9,10,10,11,11,12,12,13,13,14,14],"right_children":[2,4,6,8,10,12,14,16,18,20,22,24,26,28,30,-1,-1,-1,-1,-1,-1,-1,-1,-1,-1,-1,-1,-1,-1,-1,-1],"split_conditions":[1E0,2.1E1,4E0,2.327E3,2.048E3,2.4E1,4.57E2,1.7E1,1.3E1,4.19E2,2.458E3,2.046E3,3.3439E4,4.38E2,2.048E3,4.1788068E-2,2.4755325E-2,-1.8844428E-2,-6.0101725E-2,-6.312987E-2,3.1179239E-3,-5.477337E-2,-8.658881E-2,-3.362774E-2,-8.285993E-2,-3.9642636E-2,-8.5867286E-2,-7.724974E-2,1.8205998E-2,-4.0108632E-2,-8.490381E-2],"split_indices":[1,0,4,9,9,0,9,0,0,9,9,9,7,9,9,0,0,0,0,0,0,0,0,0,0,0,0,0,0,0,0],"split_type":[0,0,0,0,0,0,0,0,0,0,0,0,0,0,0,0,0,0,0,0,0,0,0,0,0,0,0,0,0,0,0],"sum_hessian":[4.0728188E5,2.8836528E5,1.1891658E5,1.6440553E5,1.23959766E5,5.0540082E4,6.83765E4,1.55154E5,9.251521E3,1.1488252E5,9.077243E3,2.545608E4,2.5084E4,4.7340707E4,2.1035793E4,1.0225487E5,5.289914E4,3.036233E3,6.2152886E3,9.788598E3,1.0509393E5,3.6703162E3,5.4069272E3,1.962711E4,5.828972E3,2.3107993E3,2.2773201E4,7.982067E3,3.935864E4,1.5660708E4,5.3750854E3],"tree_param":{"num_deleted":"0","num_feature":"13","num_nodes":"31","size_leaf_vector":"1"}},{"base_weights":[1.5611752E-3,2.7895257E-1,-6.6790664E-1,3.5461357E-1,-1.5982958E0,-1.1942613E0,-2.773851E-1,4.350941E-1,-1.101687E0,-1.7942369E0,-8.4369993E-1,-4.3853107E-1,-1.3586426E0,-8.258082E-2,-1.6683193E0,3.399145E-2,1.282256E-3,-2.209953E-2,-6.7160375E-2,-9.576731E-2,-7.1801566E-2,-2.8385878E-2,-9.899271E-2,-1.2101863E-2,-9.416212E-2,-5.8393806E-2,-8.661997E-2,-4.379803E-2,1.2436344E-2,-9.2184626E-2,-3.795816E-2],"categories":[],"categories_nodes":[],"categories_segments":[],"categories_sizes":[],"default_left":[0,0,0,0,0,0,0,0,0,0,0,0,0,0,0,0,0,0,0,0,0,0,0,0,0,0,0,0,0,0,0],"id":4,"left_children":[1,3,5,7,9,11,13,15,17,19,21,23,25,27,29,-1,-1,-1,-1,-1,-1,-1,-1,-1,-1,-1,-1,-1,-1,-1,-1],"loss_changes":[7.54749E4,4.081502E4,2.4474012E4,3.2374938E4,1.6450801E3,6.2995E3,1.8520777E4,2.6230031E4,2.3043828E3,3.8168164E2,7.191129E2,2.5717422E3,2.968539E3,1.5760013E4,1.3378652E3,0E0,0E0,0E0,0E0,0E0,0E0,0E0,0E0,0E0,0E0,0E0,0E0,0E0,0E0,0E0,0E0],"parents":[2147483647,0,0,1,1,2,2,3,3,4,4,5,5,6,6,7,7,8,8,9,9,10,10,11,11,12,12,13,13,14,14],"right_children":[2,4,6,8,10,12,14,16,18,20,22,24,26,28,30,-1,-1,-1,-1,-1,-1,-1,-1,-1,-1,-1,-1,-1,-1,-1,-1],"split_conditions":[1E0,1E0,4E0,2.327E3,4.3E1,2E0,1E0,2.2E1,1.4E1,6.12535E5,6.17771E5,5E0,2.9E1,3.84615E5,1.2E1,3.399145E-2,1.282256E-3,-2.209953E-2,-6.7160375E-2,-9.576731E-2,-7.1801566E-2,-2.8385878E-2,-9.899271E-2,-1.2101863E-2,-9.416212E-2,-5.8393806E-2,-8.661997E-2,-4.379803E-2,1.2436344E-2,-9.2184626E-2,-3.795816E-2],"split_indices":[1,11,4,9,0,4,11,0,0,7,7,1,0,7,4,0,0,0,0,0,0,0,0,0,0,0,0,0,0,0,0],"split_type":[0,0,0,0,0,0,0,0,0,0,0,0,0,0,0,0,0,0,0,0,0,0,0,0,0,0,0,0,0,0,0],"sum_hessian":[4.064237E5,2.873583E5,1.1906537E5,2.7622572E5,1.11326E4,5.0712504E4,6.835287E4,2.617603E5,1.4465415E4,8.837103E3,2.2954968E3,9.06041E3,4.1652094E4,5.9956406E4,8.396462E3,1.6383355E5,9.792676E4,3.8771316E3,1.0588283E4,6.602385E3,2.2347178E3,1.8475481E3,4.479487E2,7.976224E3,1.0841858E3,2.7578357E4,1.4073736E4,1.7661658E4,4.2294746E4,7.0381943E3,1.3582677E3],"tree_param":{"num_deleted":"0","num_feature":"13","num_nodes":"31","size_leaf_vector":"1"}},{"base_weights":[1.1635029E-3,2.6483387E-1,-6.3416E-1,3.3703896E-1,-1.516247E0,-1.1475937E0,-3.394474E-1,4.141152E-1,-1.0508909E0,-1.7018771E0,-1.08012E0,-1.737511E0,-1.0452931E0,1.5326321E-1,-1.0908637E0,2.2606065E-2,-5.260716E-2,-6.762181E-2,-3.165972E-2,-9.028821E-2,-4.6578236E-2,-2.3529608E-2,-1.00047745E-1,3.681687E-3,-8.7717466E-2,-9.410875E-2,-4.905894E-2,2.0676872E-2,-7.815053E-2,-4.9911477E-2,-9.438094E-2],"categories":[],"categories_nodes":[],"categories_segments":[],"categories_sizes":[],"default_left":[0,0,0,0,0,0,0,0,0,0,0,0,0,0,0,0,0,0,0,0,0,0,0,0,0,0,0,0,0,0,0],"id":5,"left_children":[1,3,5,7,9,11,13,15,17,19,21,23,25,27,29,-1,-1,-1,-1,-1,-1,-1,-1,-1,-1,-1,-1,-1,-1,-1,-1],"loss_changes":[6.789162E4,3.683425E4,1.7986184E4,2.9446293E4,9.022168E2,2.6148242E3,2.7960105E4,1.45324375E4,1.8234248E3,6.251953E2,1.8700837E3,1.9557227E2,1.9810156E3,2.0375346E4,2.206211E3,0E0,0E0,0E0,0E0,0E0,0E0,0E0,0E0,0E0,0E0,0E0,0E0,0E0,0E0,0E0,0E0],"parents":[2147483647,0,0,1,1,2,2,3,3,4,4,5,5,6,6,7,7,8,8,9,9,10,10,11,11,12,12,13,13,14,14],"right_children":[2,4,6,8,10,12,14,16,18,20,22,24,26,28,30,-1,-1,-1,-1,-1,-1,-1,-1,-1,-1,-1,-1,-1,-1,-1,-1],"split_conditions":[1E0,1E0,4.02031E5,2.327E3,6.12535E5,4.19E2,4.05405E5,1E0,2.498E3,1.405822E6,6.17771E5,7.2E1,5.19E3,2.093E3,1.7E1,2.2606065E-2,-5.260716E-2,-6.762181E-2,-3.165972E-2,-9.028821E-2,-4.6578236E-2,-2.3529608E-2,-1.00047745E-1,3.681687E-3,-8.7717466E-2,-9.410875E-2,-4.905894E-2,2.0676872E-2,-7.815053E-2,-4.9911477E-2,-9.438094E-2],"split_indices":[1,11,7,9,7,9,7,10,9,8,7,9,8,9,1,0,0,0,0,0,0,0,0,0,0,0,0,0,0,0,0],"split_type":[0,0,0,0,0,0,0,0,0,0,0,0,0,0,0,0,0,0,0,0,0,0,0,0,0,0,0,0,0,0,0],"sum_hessian":[4.0528366E5,2.864163E5,1.1886733E5,2.752578E5,1.1158506E4,4.334756E4,7.5519766E4,2.6077647E5,1.4481335E4,7.8258745E3,3.3326316E3,6.404868E3,3.694269E4,4.561189E4,2.9907875E4,2.541882E5,6.5882656E3,8.409184E3,6.072151E3,6.895167E3,9.307075E2,2.0057985E3,1.3268331E3,5.892747E1,6.345941E3,2.627697E3,3.4314996E4,3.9606043E4,6.0058477E3,2.6793945E4,3.1139292E3],"tree_param":{"num_deleted":"0","num_feature":"13","num_nodes":"31","size_leaf_vector":"1"}},{"base_weights":[1.2386983E-3,2.5213772E-1,-6.0329396E-1,5.566475E-1,-1.466523E-1,-8.766003E-1,-8.269306E-2,6.380094E-1,-7.869356E-1,-2.8079154E-2,-1.420504E0,-9.6060824E-1,1.1390285E0,2.1619281E-1,-1.5634723E0,3.7499588E-2,2.1125233E-2,3.3834346E-2,-4.3703098E-2,9.924268E-3,-2.7668327E-2,-8.064893E-2,-3.6921035E-2,-6.556063E-2,-3.550602E-2,6.9938E-2,-7.231796E-2,2.5874374E-2,-3.039074E-2,-6.543657E-2,-9.934269E-2],"categories":[],"categories_nodes":[],"categories_segments":[],"categories_sizes":[],"default_left":[0,0,0,0,0,0,0,0,0,0,0,0,0,0,0,0,0,0,0,0,0,0,0,0,0,0,0,0,0,0,0],"id":6,"left_children":[1,3,5,7,9,11,13,15,17,19,21,23,25,27,29,-1,-1,-1,-1,-1,-1,-1,-1,-1,-1,-1,-1,-1,-1,-1,-1],"loss_changes":[6.133019E4,3.4700594E4,1.687409E4,1.7712777E4,1.8687596E4,1.3168957E4,1.8070045E4,3.6866875E3,1.1801035E3,1.3470794E4,1.382334E3,6.555883E3,2.0905671E3,8.434191E3,7.379082E2,0E0,0E0,0E0,0E0,0E0,0E0,0E0,0E0,0E0,0E0,0E0,0E0,0E0,0E0,0E0,0E0],"parents":[2147483647,0,0,1,1,2,2,3,3,4,4,5,5,6,6,7,7,8,8,9,9,10,10,11,11,12,12,13,13,14,14],"right_children":[2,4,6,8,10,12,14,16,18,20,22,24,26,28,30,-1,-1,-1,-1,-1,-1,-1,-1,-1,-1,-1,-1,-1,-1,-1,-1],"split_conditions":[1E0,2.1E1,4.4E1,2.327E3,1E0,1E0,1.8E1,1.7E1,9E0,1.105E3,4.3E1,4.02031E5,1E0,4.57E2,3.4E1,3.7499588E-2,2.1125233E-2,3.3834346E-2,-4.3703098E-2,9.924268E-3,-2.7668327E-2,-8.064893E-2,-3.6921035E-2,-6.556063E-2,-3.550602E-2,6.9938E-2,-7.231796E-2,2.5874374E-2,-3.039074E-2,-6.543657E-2,-9.934269E-2],"split_indices":[1,0,0,9,11,5,1,0,0,9,0,7,11,9,1,0,0,0,0,0,0,0,0,0,0,0,0,0,0,0,0],"split_type":[0,0,0,0,0,0,0,0,0,0,0,0,0,0,0,0,0,0,0,0,0,0,0,0,0,0,0,0,0,0,0],"sum_hessian":[4.043475E5,2.8575228E5,1.1859523E5,1.6202931E5,1.2372296E5,7.776791E4,4.082732E4,1.5277803E5,9.251285E3,1.13187766E5,1.0535197E4,7.465666E4,3.1112488E3,3.3970875E4,6.856446E3,1.0053534E5,5.224269E4,5.19514E2,8.731771E3,7.907963E4,3.4108137E4,8.215942E3,2.3192554E3,3.110996E4,4.3546695E4,2.8274658E3,2.8378284E2,2.487555E4,9.095326E3,4.282204E3,2.574242E3],"tree_param":{"num_deleted":"0","num_feature":"13","num_nodes":"31","size_leaf_vector":"1"}},{"base_weights":[-1.05477275E-5,2.4009733E-1,-5.7630396E-1,5.1086485E-1,-1.741498E-1,-8.3682626E-1,-7.872737E-2,5.937211E-1,-8.079088E-1,-8.905264E-2,-1.3038728E0,-9.159622E-1,1.0885165E0,2.0446381E-1,-1.4832981E0,3.601363E-2,1.9548327E-2,-1.2336673E-2,-5.2427676E-2,-5.957044E-2,8.398938E-4,-5.1674135E-2,-7.5051256E-2,-6.266772E-2,-3.380357E-2,-4.857328E-2,6.254315E-2,2.4810163E-2,-2.9461686E-2,-6.173848E-2,-9.270396E-2],"categories":[],"categories_nodes":[],"categories_segments":[],"categories_sizes":[],"default_left":[0,0,0,0,0,0,0,0,0,0,0,0,0,0,0,0,0,0,0,0,0,0,0,0,0,0,0,0,0,0,0],"id":7,"left_children":[1,3,5,7,9,11,13,15,17,19,21,23,25,27,29,-1,-1,-1,-1,-1,-1,-1,-1,-1,-1,-1,-1,-1,-1,-1,-1],"loss_changes":[5.579526E4,3.1925957E4,1.5372742E4,1.8808207E4,1.0815919E4,1.1859945E4,1.6210905E4,4.155242E3,1.3738452E3,1.2208612E4,4.1908984E2,6.0505625E3,1.0283855E3,7.8536484E3,6.287012E2,0E0,0E0,0E0,0E0,0E0,0E0,0E0,0E0,0E0,0E0,0E0,0E0,0E0,0E0,0E0,0E0],"parents":[2147483647,0,0,1,1,2,2,3,3,4,4,5,5,6,6,7,7,8,8,9,9,10,10,11,11,12,12,13,13,14,14],"right_children":[2,4,6,8,10,12,14,16,18,20,22,24,26,28,30,-1,-1,-1,-1,-1,-1,-1,-1,-1,-1,-1,-1,-1,-1,-1,-1],"split_conditions":[1E0,2.2E1,4.4E1,2.327E3,2.048E3,1E0,1.8E1,1.7E1,1.3E1,4.19E2,2.458E3,4.02031E5,4.26E2,4.57E2,3.2E1,3.601363E-2,1.9548327E-2,-1.2336673E-2,-5.2427676E-2,-5.957044E-2,8.398938E-4,-5.1674135E-2,-7.5051256E-2,-6.266772E-2,-3.380357E-2,-4.857328E-2,6.254315E-2,2.4810163E-2,-2.9461686E-2,-6.173848E-2,-9.270396E-2],"split_indices":[1,0,0,9,9,5,1,0,0,9,9,7,9,9,1,0,0,0,0,0,0,0,0,0,0,0,0,0,0,0,0],"split_type":[0,0,0,0,0,0,0,0,0,0,0,0,0,0,0,0,0,0,0,0,0,0,0,0,0,0,0,0,0,0,0],"sum_hessian":[4.0322353E5,2.8463347E5,1.1859006E5,1.7212573E5,1.12507734E5,7.7835984E4,4.0754082E4,1.61951E5,1.0174744E4,1.0462724E5,7.8804907E3,7.476335E4,3.0726292E3,3.391621E4,6.83787E3,9.971254E4,6.223846E4,3.0541038E3,7.1206406E3,9.165986E3,9.546126E4,3.3245588E3,4.555932E3,3.1066969E4,4.3696383E4,2.2423605E2,2.848393E3,2.4800576E4,9.115635E3,4.0952957E3,2.7425745E3],"tree_param":{"num_deleted":"0","num_feature":"13","num_nodes":"31","size_leaf_vector":"1"}},{"base_weights":[5.572621E-4,5.330392E-1,-2.5610325E-1,6.0129416E-1,-6.664071E-1,-1.494305E-1,-1.2366409E0,6.455098E-1,-4.3140548E-1,-1.029387E0,-2.8470704E-1,-1.1385876E0,-3.1479698E-2,-8.4025145E-1,-1.4144977E0,2.8655378E-2,5.395485E-2,-8.716725E-3,-8.746832E-2,-1.5094488E-2,-7.64353E-2,3.6539227E-2,-5.6202102E-2,6.181105E-2,-6.3285284E-2,1.4231494E-3,-5.9648227E-2,-1.9871011E-2,-6.712317E-2,-6.265625E-2,-8.037429E-2],"categories":[],"categories_nodes":[],"categories_segments":[],"categories_sizes":[],"default_left":[0,0,0,0,0,0,0,0,0,0,0,0,0,0,0,0,0,0,0,0,0,0,0,0,0,0,0,0,0,0,0],"id":8,"left_children":[1,3,5,7,9,11,13,15,17,19,21,23,25,27,29,-1,-1,-1,-1,-1,-1,-1,-1,-1,-1,-1,-1,-1,-1,-1,-1],"loss_changes":[5.4884227E4,1.0693262E4,2.8343074E4,5.6430586E3,9.7408203E2,2.8513375E4,1.873582E3,3.7198008E3,1.7188298E3,1.3088806E3,2.9228762E3,7.86091E3,1.5202484E4,1.8312056E3,5.7022656E2,0E0,0E0,0E0,0E0,0E0,0E0,0E0,0E0,0E0,0E0,0E0,0E0,0E0,0E0,0E0,0E0],"parents":[2147483647,0,0,1,1,2,2,3,3,4,4,5,5,6,6,7,7,8,8,9,9,10,10,11,11,12,12,13,13,14,14],"right_children":[2,4,6,8,10,12,14,16,18,20,22,24,26,28,30,-1,-1,-1,-1,-1,-1,-1,-1,-1,-1,-1,-1,-1,-1,-1,-1],"split_conditions":[2E0,2.327E3,2.048E3,2E0,2.498E3,3.99E2,2.308E3,1.906E3,5E0,2.458E3,2.63E3,7.2E1,1E0,1E0,1E0,2.8655378E-2,5.395485E-2,-8.716725E-3,-8.746832E-2,-1.5094488E-2,-7.64353E-2,3.6539227E-2,-5.6202102E-2,6.181105E-2,-6.3285284E-2,1.4231494E-3,-5.9648227E-2,-1.9871011E-2,-6.712317E-2,-6.265625E-2,-8.037429E-2],"split_indices":[4,9,9,1,9,9,9,9,1,9,9,9,11,1,1,0,0,0,0,0,0,0,0,0,0,0,0,0,0,0,0],"split_type":[0,0,0,0,0,0,0,0,0,0,0,0,0,0,0,0,0,0,0,0,0,0,0,0,0,0,0,0,0,0,0],"sum_hessian":[4.0158944E5,1.30612805E5,2.7097662E5,1.23580734E5,7.0320767E3,2.443901E5,2.6586535E4,1.1850707E5,5.073664E3,3.6038574E3,3.428219E3,2.6036662E4,2.1835342E5,8.2355E3,1.8351035E4,1.0155104E5,1.695603E4,4.246096E3,8.275679E2,1.4671923E3,2.1366653E3,1.5512925E3,1.8769266E3,1.3226106E3,2.4714053E4,2.076379E5,1.0715514E4,4.3770664E3,3.8584338E3,9.996462E3,8.354574E3],"tree_param":{"num_deleted":"0","num_feature":"13","num_nodes":"31","size_leaf_vector":"1"}},{"base_weights":[8.2609645E-4,3.6665085E-1,-2.9713193E-1,4.6541795E-1,-9.107749E-1,-7.363411E-1,-6.5795E-2,-1.8441641E-1,5.244658E-1,4.7307014E-1,-9.8212177E-1,-1.4165939E0,-6.385505E-1,3.7375143E-1,-6.9858104E-1,1.918246E-2,-3.9835792E-2,3.3242963E-2,1.7661555E-2,4.8617747E-2,-3.6220066E-3,-2.8644172E-2,-5.3707834E-2,4.9398597E-2,-7.3842905E-2,-2.2589948E-2,-4.5734245E-2,2.4079503E-2,-8.114077E-2,-7.151785E-2,-2.9798983E-2],"categories":[],"categories_nodes":[],"categories_segments":[],"categories_sizes":[],"default_left":[0,0,0,0,0,0,0,0,0,0,0,0,0,0,0,0,0,0,0,0,0,0,0,0,0,0,0,0,0,0,0],"id":9,"left_children":[1,3,5,7,9,11,13,15,17,19,21,23,25,27,29,-1,-1,-1,-1,-1,-1,-1,-1,-1,-1,-1,-1,-1,-1,-1,-1],"loss_changes":[4.362714E4,2.2667787E4,2.2412467E4,6.3992266E3,1.2733662E3,5.061758E3,4.018682E4,4.832059E3,3.6750078E3,1.7238533E2,4.6137598E2,1.38675E3,3.430879E3,1.83575E4,4.4459766E3,0E0,0E0,0E0,0E0,0E0,0E0,0E0,0E0,0E0,0E0,0E0,0E0,0E0,0E0,0E0,0E0],"parents":[2147483647,0,0,1,1,2,2,3,3,4,4,5,5,6,6,7,7,8,8,9,9,10,10,11,11,12,12,13,13,14,14],"right_children":[2,4,6,8,10,12,14,16,18,20,22,24,26,28,30,-1,-1,-1,-1,-1,-1,-1,-1,-1,-1,-1,-1,-1,-1,-1,-1],"split_conditions":[2.1E1,2.327E3,4.02031E5,4.19E2,9E0,4.19E2,4.05405E5,3.34E2,1.6E1,8E0,1.2E1,7.2E1,1.105E3,1E0,3.99E2,1.918246E-2,-3.9835792E-2,3.3242963E-2,1.7661555E-2,4.8617747E-2,-3.6220066E-3,-2.8644172E-2,-5.3707834E-2,4.9398597E-2,-7.3842905E-2,-2.2589948E-2,-4.5734245E-2,2.4079503E-2,-8.114077E-2,-7.151785E-2,-2.9798983E-2],"split_indices":[0,9,7,9,0,9,7,9,0,0,0,9,9,10,9,0,0,0,0,0,0,0,0,0,0,0,0,0,0,0,0],"split_type":[0,0,0,0,0,0,0,0,0,0,0,0,0,0,0,0,0,0,0,0,0,0,0,0,0,0,0,0,0,0,0],"sum_hessian":[4.002464E5,1.7966223E5,2.2058419E5,1.6676853E5,1.2893696E4,7.610053E4,1.4448366E5,1.3891105E4,1.5287744E5,6.319607E2,1.2261735E4,9.563932E3,6.65366E4,8.526019E4,5.9223465E4,7.205847E3,6.685259E3,8.4002586E4,6.887484E4,3.298519E2,3.0210876E2,2.252145E3,1.000959E4,2.336054E2,9.330326E3,3.969337E4,2.6843227E4,8.089151E4,4.368685E3,7.2816553E3,5.1941812E4],"tree_param":{"num_deleted":"0","num_feature":"13","num_nodes":"31","size_leaf_vector":"1"}},{"base_weights":[1.3946288E-3,4.9221945E-1,-2.3324716E-1,5.568213E-1,-3.6608276E-1,-1.4829561E-1,-1.3411543E0,1.0829535E0,5.242942E-1,-1.8775366E-1,-1.6812044E0,5.948413E-2,-4.606466E-1,-1.4858595E0,-6.767143E-1,5.8906402E-2,4.986066E-2,1.588914E-2,2.7577287E-2,-4.8606107E-3,-2.9661605E-2,-7.8058794E-2,-8.622243E-2,5.601715E-3,-4.8739728E-2,-5.635467E-2,-1.7095444E-4,-7.955279E-2,-6.0208905E-2,-1.686324E-2,-7.523172E-2],"categories":[],"categories_nodes":[],"categories_segments":[],"categories_sizes":[],"default_left":[0,0,0,0,0,0,0,0,0,0,0,0,0,0,0,0,0,0,0,0,0,0,0,0,0,0,0,0,0,0,0],"id":10,"left_children":[1,3,5,7,9,11,13,15,17,19,21,23,25,27,29,-1,-1,-1,-1,-1,-1,-1,-1,-1,-1,-1,-1,-1,-1,-1,-1],"loss_changes":[4.595706E4,7.156504E3,2.5409695E4,2.0537148E3,2.118477E3,1.6273912E4,1.8478984E3,5.6217773E1,6.3600586E2,2.9200168E2,3.9240723E0,8.1843755E3,3.0523371E4,4.6658594E2,9.66193E2,0E0,0E0,0E0,0E0,0E0,0E0,0E0,0E0,0E0,0E0,0E0,0E0,0E0,0E0,0E0,0E0],"parents":[2147483647,0,0,1,1,2,2,3,3,4,4,5,5,6,6,7,7,8,8,9,9,10,10,11,11,12,12,13,13,14,14],"right_children":[2,4,6,8,10,12,14,16,18,20,22,24,26,28,30,-1,-1,-1,-1,-1,-1,-1,-1,-1,-1,-1,-1,-1,-1,-1,-1],"split_conditions":[2E0,1E0,1E0,9E0,5E0,1E0,5.2E1,8E0,2.03762E5,1.8E1,6E0,1E0,4E0,6.12535E5,1E0,5.8906402E-2,4.986066E-2,1.588914E-2,2.7577287E-2,-4.8606107E-3,-2.9661605E-2,-7.8058794E-2,-8.622243E-2,5.601715E-3,-4.8739728E-2,-5.635467E-2,-1.7095444E-4,-7.955279E-2,-6.0208905E-2,-1.686324E-2,-7.523172E-2],"split_indices":[4,1,11,0,1,1,0,0,8,0,1,10,4,7,5,0,0,0,0,0,0,0,0,0,0,0,0,0,0,0,0],"split_type":[0,0,0,0,0,0,0,0,0,0,0,0,0,0,0,0,0,0,0,0,0,0,0,0,0,0,0,0,0,0,0],"sum_hessian":[3.990424E5,1.29064516E5,2.6997788E5,1.2003047E5,9.034045E3,2.5075155E5,1.9226344E4,6.987473E3,1.1304299E5,7.9558833E3,1.0781619E3,1.5058238E5,1.0016917E5,1.578733E4,3.4390144E3,3.3079746E3,3.6794988E3,1.317945E4,9.986355E4,6.5043574E3,1.4515262E3,2.910859E2,7.870759E2,1.4330195E5,7.2804175E3,4.075884E4,5.941033E4,1.1492627E4,4.294703E3,2.4395972E3,9.994172E2],"tree_param":{"num_deleted":"0","num_feature":"13","num_nodes":"31","size_leaf_vector":"1"}},{"base_weights":[9.66045E-4,4.7059605E-1,-2.2249112E-1,5.3333E-1,-6.191985E-1,-1.2305397E-1,-1.1503327E0,4.596832E-1,9.836672E-1,-9.6360344E-1,-2.5536743E-1,-1.0204134E0,-1.6398964E-2,-7.793222E-1,-1.3182788E0,2.3474304E-2,-7.567453E-2,6.108247E-2,1.5140711E-2,-1.3749681E-2,-7.216548E-2,4.984729E-2,-4.3793015E-2,5.8497727E-2,-5.6923665E-2,-1.7066073E-2,7.891351E-3,5.548976E-3,-4.8569683E-2,-7.8582115E-2,-6.2794164E-2],"categories":[],"categories_nodes":[],"categories_segments":[],"categories_sizes":[],"default_left":[0,0,0,0,0,0,0,0,0,0,0,0,0,0,0,0,0,0,0,0,0,0,0,0,0,0,0,0,0,0,0],"id":11,"left_children":[1,3,5,7,9,11,13,15,17,19,21,23,25,27,29,-1,-1,-1,-1,-1,-1,-1,-1,-1,-1,-1,-1,-1,-1,-1,-1],"loss_changes":[4.1713016E4,8.7616E3,2.4848947E4,4.0185938E3,8.7384766E2,2.3282053E4,1.6237188E3,2.01475E3,2.7592227E3,1.1832695E3,2.636965E3,6.6830996E3,1.2308287E4,1.3895752E3,2.8242578E2,0E0,0E0,0E0,0E0,0E0,0E0,0E0,0E0,0E0,0E0,0E0,0E0,0E0,0E0,0E0,0E0],"parents":[2147483647,0,0,1,1,2,2,3,3,4,4,5,5,6,6,7,7,8,8,9,9,10,10,11,11,12,12,13,13,14,14],"right_children":[2,4,6,8,10,12,14,16,18,20,22,24,26,28,30,-1,-1,-1,-1,-1,-1,-1,-1,-1,-1,-1,-1,-1,-1,-1,-1],"split_conditions":[2E0,2.327E3,2.048E3,1.906E3,2.498E3,4.13E2,2.308E3,1.894E3,1.922E3,2.458E3,2.596E3,7.2E1,4.02031E5,1.6E1,1.16137E5,2.3474304E-2,-7.567453E-2,6.108247E-2,1.5140711E-2,-1.3749681E-2,-7.216548E-2,4.984729E-2,-4.3793015E-2,5.8497727E-2,-5.6923665E-2,-1.7066073E-2,7.891351E-3,5.548976E-3,-4.8569683E-2,-7.8582115E-2,-6.2794164E-2],"split_indices":[4,9,9,9,9,9,9,9,9,9,9,9,7,0,8,0,0,0,0,0,0,0,0,0,0,0,0,0,0,0,0],"split_type":[0,0,0,0,0,0,0,0,0,0,0,0,0,0,0,0,0,0,0,0,0,0,0,0,0,0,0,0,0,0,0],"sum_hessian":[3.9748444E5,1.2815231E5,2.6933212E5,1.2117711E5,6.9752075E3,2.432623E5,2.6069842E4,1.0414653E5,1.703058E4,3.5827004E3,3.392507E3,2.5840848E4,2.1742144E5,8.1247793E3,1.7945062E4,1.0363211E5,5.144217E2,1.2619186E4,4.4113945E3,1.471452E3,2.1112485E3,1.123842E3,2.268665E3,1.3213074E3,2.4519541E4,7.589021E4,1.4153123E5,1.4417196E3,6.6830596E3,3.543331E3,1.4401732E4],"tree_param":{"num_deleted":"0","num_feature":"13","num_nodes":"31","size_leaf_vector":"1"}},{"base_weights":[3.2856627E-4,2.0326668E-1,-4.8534715E-1,2.6015982E-1,-1.2149915E0,-9.152956E-1,-2.4294607E-1,3.1987846E-1,-8.15976E-1,-1.3959988E0,-7.9943013E-1,-1.4324281E0,-8.30382E-1,1.9027317E-1,-9.0038717E-1,1.7583478E-2,-4.3651897E-2,-5.4595273E-2,-2.1860978E-2,-7.513E-2,-3.0187562E-2,-1.0789377E-2,-8.4427856E-2,-9.234988E-4,-7.235893E-2,-8.2032256E-2,-3.8463883E-2,2.0389706E-2,-6.524987E-2,-4.081086E-2,-8.092526E-2],"categories":[],"categories_nodes":[],"categories_segments":[],"categories_sizes":[],"default_left":[0,0,0,0,0,0,0,0,0,0,0,0,0,0,0,0,0,0,0,0,0,0,0,0,0,0,0,0,0,0,0],"id":12,"left_children":[1,3,5,7,9,11,13,15,17,19,21,23,25,27,29,-1,-1,-1,-1,-1,-1,-1,-1,-1,-1,-1,-1,-1,-1,-1,-1],"loss_changes":[3.907791E4,2.2563637E4,1.217732E4,1.7277896E4,8.104619E2,1.8489727E3,2.1281535E4,9.66001E3,1.476875E3,6.3373926E2,1.6984224E3,1.2374219E2,1.7906934E3,1.4649798E4,1.7930391E3,0E0,0E0,0E0,0E0,0E0,0E0,0E0,0E0,0E0,0E0,0E0,0E0,0E0,0E0,0E0,0E0],"parents":[2147483647,0,0,1,1,2,2,3,3,4,4,5,5,6,6,7,7,8,8,9,9,10,10,11,11,12,12,13,13,14,14],"right_children":[2,4,6,8,10,12,14,16,18,20,22,24,26,28,30,-1,-1,-1,-1,-1,-1,-1,-1,-1,-1,-1,-1,-1,-1,-1,-1],"split_conditions":[1E0,1E0,4.02031E5,2.327E3,6.12535E5,4.19E2,4.05405E5,1E0,2.498E3,1.405822E6,6.17771E5,7.2E1,5.19E3,2.093E3,1.7E1,1.7583478E-2,-4.3651897E-2,-5.4595273E-2,-2.1860978E-2,-7.513E-2,-3.0187562E-2,-1.0789377E-2,-8.4427856E-2,-9.234988E-4,-7.235893E-2,-8.2032256E-2,-3.8463883E-2,2.0389706E-2,-6.524987E-2,-4.081086E-2,-8.092526E-2],"split_indices":[1,11,7,9,7,9,7,10,9,8,7,9,8,9,1,0,0,0,0,0,0,0,0,0,0,0,0,0,0,0,0],"split_type":[0,0,0,0,0,0,0,0,0,0,0,0,0,0,0,0,0,0,0,0,0,0,0,0,0,0,0,0,0,0,0],"sum_hessian":[3.9647934E5,2.7963516E5,1.16844195E5,2.6885072E5,1.0784419E4,4.2124996E4,7.47192E4,2.5471608E5,1.4134659E4,7.5112837E3,3.273135E3,5.940095E3,3.6184902E4,4.5040242E4,2.9678957E4,2.4810455E5,6.611527E3,8.1766484E3,5.9580107E3,6.6199585E3,8.913254E2,1.9764701E3,1.2966648E3,6.140931E1,5.8786855E3,2.5364346E3,3.3648465E4,3.93206E4,5.719641E3,2.6566348E4,3.11261E3],"tree_param":{"num_deleted":"0","num_feature":"13","num_nodes":"31","size_leaf_vector":"1"}},{"base_weights":[5.747701E-4,3.2199964E-1,-2.589926E-1,4.0701467E-1,-7.841626E-1,-6.4911336E-1,-5.503815E-2,-2.0256026E-1,4.6129507E-1,4.9001485E-1,-8.5229677E-1,-7.655434E-1,4.4208682E-1,3.4031558E-1,-6.238768E-1,1.6682908E-2,-4.0613826E-2,2.9636974E-2,1.5146583E-2,4.6780955E-2,7.7622404E-5,-7.320358E-2,-3.706645E-2,-3.451813E-2,-8.28553E-2,9.208523E-2,-2.4797944E-2,2.2019198E-2,-7.4145E-2,-2.2322578E-2,-5.1151164E-2],"categories":[],"categories_nodes":[],"categories_segments":[],"categories_sizes":[],"default_left":[0,0,0,0,0,0,0,0,0,0,0,0,0,0,0,0,0,0,0,0,0,0,0,0,0,0,0,0,0,0,0],"id":13,"left_children":[1,3,5,7,9,11,13,15,17,19,21,23,25,27,29,-1,-1,-1,-1,-1,-1,-1,-1,-1,-1,-1,-1,-1,-1,-1,-1],"loss_changes":[3.290188E4,1.6568717E4,1.7359205E4,5.413658E3,1.0919072E3,9.51632E3,3.2220799E4,4.373996E3,3.1270938E3,1.3888504E2,8.095781E2,4.5356953E3,9.481909E3,1.5421522E4,4.1599883E3,0E0,0E0,0E0,0E0,0E0,0E0,0E0,0E0,0E0,0E0,0E0,0E0,0E0,0E0,0E0,0E0],"parents":[2147483647,0,0,1,1,2,2,3,3,4,4,5,5,6,6,7,7,8,8,9,9,10,10,11,11,12,12,13,13,14,14],"right_children":[2,4,6,8,10,12,14,16,18,20,22,24,26,28,30,-1,-1,-1,-1,-1,-1,-1,-1,-1,-1,-1,-1,-1,-1,-1,-1],"split_conditions":[2.1E1,2.327E3,4.02031E5,3.99E2,9E0,1.398846E6,4.05405E5,3.34E2,1.6E1,8E0,3.9513E4,1.390928E6,1.406523E6,1E0,1.105E3,1.6682908E-2,-4.0613826E-2,2.9636974E-2,1.5146583E-2,4.6780955E-2,7.7622404E-5,-7.320358E-2,-3.706645E-2,-3.451813E-2,-8.28553E-2,9.208523E-2,-2.4797944E-2,2.2019198E-2,-7.4145E-2,-2.2322578E-2,-5.1151164E-2],"split_indices":[0,9,7,9,0,8,7,9,0,0,8,8,8,10,9,0,0,0,0,0,0,0,0,0,0,0,0,0,0,0,0],"split_type":[0,0,0,0,0,0,0,0,0,0,0,0,0,0,0,0,0,0,0,0,0,0,0,0,0,0,0,0,0,0,0],"sum_hessian":[3.9435728E5,1.761854E5,2.1817188E5,1.6361133E5,1.257408E4,7.490096E4,1.432709E5,1.3377485E4,1.5023384E5,6.380137E2,1.1936066E4,6.767983E4,7.221132E3,8.452467E4,5.8746234E4,7.117778E3,6.259708E3,8.209312E4,6.814073E4,3.3329755E2,3.0471613E2,1.831554E3,1.0104513E4,6.241749E4,5.2623413E3,2.8975085E3,4.323623E3,8.0127266E4,4.3974043E3,4.066948E4,1.8076754E4],"tree_param":{"num_deleted":"0","num_feature":"13","num_nodes":"31","size_leaf_vector":"1"}},{"base_weights":[1.5883086E-3,4.2118832E-1,-1.9652763E-1,4.7673306E-1,-5.375738E-1,-1.0567983E-1,-1.0624024E0,4.0470323E-1,9.229313E-1,-8.598547E-1,-2.0086549E-1,-9.5083845E-1,-8.002028E-3,-7.334199E-1,-1.2150697E0,2.0713992E-2,-7.401691E-2,5.7909783E-2,1.2947624E-2,-9.2557445E-3,-6.637546E-2,4.8925772E-2,-3.9193396E-2,-2.5971344E-2,-7.5259954E-2,6.3971276E-3,-1.9338144E-2,3.4916399E-3,-4.5335885E-2,-5.1889937E-2,-6.579056E-2],"categories":[],"categories_nodes":[],"categories_segments":[],"categories_sizes":[],"default_left":[0,0,0,0,0,0,0,0,0,0,0,0,0,0,0,0,0,0,0,0,0,0,0,0,0,0,0,0,0,0,0],"id":14,"left_children":[1,3,5,7,9,11,13,15,17,19,21,23,25,27,29,-1,-1,-1,-1,-1,-1,-1,-1,-1,-1,-1,-1,-1,-1,-1,-1],"loss_changes":[3.2648314E4,6.708082E3,2.098543E4,3.8263418E3,7.483342E2,1.9932152E4,1.2716816E3,1.8508457E3,2.5847412E3,1.11176E3,2.3204443E3,5.9816504E3,1.1144337E4,1.1180513E3,3.0806836E2,0E0,0E0,0E0,0E0,0E0,0E0,0E0,0E0,0E0,0E0,0E0,0E0,0E0,0E0,0E0,0E0],"parents":[2147483647,0,0,1,1,2,2,3,3,4,4,5,5,6,6,7,7,8,8,9,9,10,10,11,11,12,12,13,13,14,14],"right_children":[2,4,6,8,10,12,14,16,18,20,22,24,26,28,30,-1,-1,-1,-1,-1,-1,-1,-1,-1,-1,-1,-1,-1,-1,-1,-1],"split_conditions":[2E0,2.327E3,2.048E3,1.906E3,2.498E3,3.99E2,2.308E3,1.894E3,1.922E3,2.458E3,2.596E3,3.72E2,1.105E3,1.6E1,2.1E1,2.0713992E-2,-7.401691E-2,5.7909783E-2,1.2947624E-2,-9.2557445E-3,-6.637546E-2,4.8925772E-2,-3.9193396E-2,-2.5971344E-2,-7.5259954E-2,6.3971276E-3,-1.9338144E-2,3.4916399E-3,-4.5335885E-2,-5.1889937E-2,-6.579056E-2],"split_indices":[4,9,9,9,9,9,9,9,9,9,9,9,9,0,0,0,0,0,0,0,0,0,0,0,0,0,0,0,0,0,0],"split_type":[0,0,0,0,0,0,0,0,0,0,0,0,0,0,0,0,0,0,0,0,0,0,0,0,0,0,0,0,0,0,0],"sum_hessian":[3.9273938E5,1.2596068E5,2.6677872E5,1.1906325E5,6.897431E3,2.4144673E5,2.5331975E4,1.0251536E5,1.6547887E4,3.523671E3,3.3737603E3,2.501331E4,2.1643342E5,8.0305376E3,1.7301438E4,1.01997625E5,5.1773663E2,1.2218163E4,4.3297227E3,1.442835E3,2.080836E3,1.1158824E3,2.257878E3,1.4067177E4,1.0946134E4,1.5926883E5,5.716459E4,1.4250431E3,6.6054946E3,6.2718154E3,1.1029622E4],"tree_param":{"num_deleted":"0","num_feature":"13","num_nodes":"31","size_leaf_vector":"1"}},{"base_weights":[-1.0186182E-3,1.8593855E-1,-4.4828156E-1,2.382566E-1,-1.1341326E0,-9.0244085E-1,-1.1858606E-1,2.9062185E-1,-7.1893847E-1,-1.3181231E0,-4.4922924E-1,-7.1898454E-1,-1.3814777E0,3.935342E-2,-1.2911066E0,2.3385268E-2,4.3547185E-4,-8.494022E-3,-4.6378143E-2,-7.163715E-2,-4.9661126E-2,-3.2591548E-2,4.8053466E-2,-1.4713456E-2,-4.334878E-2,-6.319183E-2,-7.617853E-2,9.9627925E-3,-6.6745035E-2,-7.2915286E-2,-2.328359E-2],"categories":[],"categories_nodes":[],"categories_segments":[],"categories_sizes":[],"default_left":[0,0,0,0,0,0,0,0,0,0,0,0,0,0,0,0,0,0,0,0,0,0,0,0,0,0,0,0,0,0,0],"id":15,"left_children":[1,3,5,7,9,11,13,15,17,19,21,23,25,27,29,-1,-1,-1,-1,-1,-1,-1,-1,-1,-1,-1,-1,-1,-1,-1,-1],"loss_changes":[3.2709746E4,1.9052172E4,1.7266004E4,1.3300279E4,1.3247666E3,4.261668E3,1.2372806E4,1.2559572E4,1.576373E3,3.077373E2,6.368178E2,2.2041348E3,2.2325586E2,1.2938862E4,1.094084E3,0E0,0E0,0E0,0E0,0E0,0E0,0E0,0E0,0E0,0E0,0E0,0E0,0E0,0E0,0E0,0E0],"parents":[2147483647,0,0,1,1,2,2,3,3,4,4,5,5,6,6,7,7,8,8,9,9,10,10,11,11,12,12,13,13,14,14],"right_children":[2,4,6,8,10,12,14,16,18,20,22,24,26,28,30,-1,-1,-1,-1,-1,-1,-1,-1,-1,-1,-1,-1,-1,-1,-1,-1],"split_conditions":[1E0,1E0,4E0,2.327E3,4.3E1,2.9E1,1E0,2.2E1,1.4E1,6.12535E5,1.405822E6,2E0,6E0,1.8E1,1.2E1,2.3385268E-2,4.3547185E-4,-8.494022E-3,-4.6378143E-2,-7.163715E-2,-4.9661126E-2,-3.2591548E-2,4.8053466E-2,-1.4713456E-2,-4.334878E-2,-6.319183E-2,-7.617853E-2,9.9627925E-3,-6.6745035E-2,-7.2915286E-2,-2.328359E-2],"split_indices":[1,11,4,9,0,0,11,0,0,7,8,1,1,1,4,0,0,0,0,0,0,0,0,0,0,0,0,0,0,0,0],"split_type":[0,0,0,0,0,0,0,0,0,0,0,0,0,0,0,0,0,0,0,0,0,0,0,0,0,0,0,0,0,0,0],"sum_hessian":[3.9117466E5,2.7586316E5,1.1531151E5,2.653472E5,1.0515955E4,4.8500434E4,6.681108E4,2.5158425E5,1.3762958E4,8.288694E3,2.2272603E3,3.5070844E4,1.3429591E4,5.8880254E4,7.930821E3,1.5452105E5,9.70632E4,3.7899492E3,9.973009E3,6.1256475E3,2.1630469E3,1.9477839E3,2.7947635E2,9.063093E3,2.600775E4,7.350032E3,6.0795586E3,5.274372E4,6.136537E3,6.594535E3,1.3362856E3],"tree_param":{"num_deleted":"0","num_feature":"13","num_nodes":"31","size_leaf_vector":"1"}},{"base_weights":[5.795648E-4,1.786534E-1,-4.2526984E-1,3.9923537E-1,-9.958128E-2,-7.210417E-1,3.9341662E-2,6.1978453E-1,3.1119707E-1,-3.80788E-1,2.9470906E-2,-7.805924E-1,1.2719924E0,2.2618641E-1,-1.2926706E0,4.9589265E-2,2.755168E-2,-2.9166283E-3,1.81954E-2,-2.683091E-2,4.1911215E-2,1.2323289E-2,-1.6301127E-2,-5.3016808E-2,-2.872472E-2,7.1040116E-2,-3.981966E-3,-2.252013E-2,2.7505485E-2,-5.00578E-2,-8.371823E-2],"categories":[],"categories_nodes":[],"categories_segments":[],"categories_sizes":[],"default_left":[0,0,0,0,0,0,0,0,0,0,0,0,0,0,0,0,0,0,0,0,0,0,0,0,0,0,0,0,0,0,0],"id":16,"left_children":[1,3,5,7,9,11,13,15,17,19,21,23,25,27,29,-1,-1,-1,-1,-1,-1,-1,-1,-1,-1,-1,-1,-1,-1,-1,-1],"loss_changes":[2.9531217E4,1.685321E4,1.5779473E4,2.9738613E3,4.406816E3,8.32773E3,1.1116333E4,1.1171523E3,2.1323672E3,7.2562427E3,6.4206943E3,3.9273477E3,4.0964722E2,8.585026E3,6.102744E2,0E0,0E0,0E0,0E0,0E0,0E0,0E0,0E0,0E0,0E0,0E0,0E0,0E0,0E0,0E0,0E0],"parents":[2147483647,0,0,1,1,2,2,3,3,4,4,5,5,6,6,7,7,8,8,9,9,10,10,11,11,12,12,13,13,14,14],"right_children":[2,4,6,8,10,12,14,16,18,20,22,24,26,28,30,-1,-1,-1,-1,-1,-1,-1,-1,-1,-1,-1,-1,-1,-1,-1,-1],"split_conditions":[1E0,2.1E1,6E0,1.3E1,4.02031E5,1E0,1.9E1,9E0,2.03762E5,1.398846E6,4.05405E5,4.02031E5,4.3E1,4E0,3.4E1,4.9589265E-2,2.755168E-2,-2.9166283E-3,1.81954E-2,-2.683091E-2,4.1911215E-2,1.2323289E-2,-1.6301127E-2,-5.3016808E-2,-2.872472E-2,7.1040116E-2,-3.981966E-3,-2.252013E-2,2.7505485E-2,-5.00578E-2,-8.371823E-2],"split_indices":[1,0,4,0,7,5,1,0,8,8,7,7,0,1,1,0,0,0,0,0,0,0,0,0,0,0,0,0,0,0,0],"split_type":[0,0,0,0,0,0,0,0,0,0,0,0,0,0,0,0,0,0,0,0,0,0,0,0,0,0,0,0,0,0,0],"sum_hessian":[3.8942553E5,2.7459922E5,1.1482631E5,1.5316864E5,1.21430586E5,7.0161445E4,4.4664867E4,4.3696992E4,1.0947165E5,3.819748E4,8.323311E4,6.812623E4,2.0352179E3,3.9170773E4,5.494094E3,6.8148267E3,3.6882168E4,1.3665789E4,9.580586E4,3.3868344E4,4.3291357E3,5.168486E4,3.1548248E4,2.889861E4,3.922762E4,1.833414E3,2.0180394E2,1.2681665E4,2.6489107E4,3.1162024E3,2.3778916E3],"tree_param":{"num_deleted":"0","num_feature":"13","num_nodes":"31","size_leaf_vector":"1"}},{"base_weights":[-9.1197033E-4,1.6802116E-1,-4.0547553E-1,2.1749546E-1,-1.0894842E0,-6.267901E-1,5.2374685E-3,4.729593E-1,6.2431183E-2,-1.2224966E0,-2.0654213E-1,-6.951744E-1,1.026631E0,2.5270307E-1,-1.2342495E0,4.0940847E-2,2.1158194E-2,5.144328E-3,-4.0863056E-2,-6.731003E-2,-4.5596875E-2,-3.3194147E-2,1.6604118E-2,-4.8482265E-2,-2.541255E-2,6.209893E-2,-5.9018053E-2,2.4336267E-2,-2.3087585E-2,-5.086368E-2,-7.9901E-2],"categories":[],"categories_nodes":[],"categories_segments":[],"categories_sizes":[],"default_left":[0,0,0,0,0,0,0,0,0,0,0,0,0,0,0,0,0,0,0,0,0,0,0,0,0,0,0,0,0,0,0],"id":17,"left_children":[1,3,5,7,9,11,13,15,17,19,21,23,25,27,29,-1,-1,-1,-1,-1,-1,-1,-1,-1,-1,-1,-1,-1,-1,-1,-1],"loss_changes":[2.6500709E4,1.7017719E4,1.0382242E4,1.0425365E4,1.2157666E3,8.392664E3,1.2268079E4,1.7117148E3,5.828361E3,3.4486035E2,3.3425403E2,3.6564414E3,1.4018665E3,5.5745483E3,5.243076E2,0E0,0E0,0E0,0E0,0E0,0E0,0E0,0E0,0E0,0E0,0E0,0E0,0E0,0E0,0E0,0E0],"parents":[2147483647,0,0,1,1,2,2,3,3,4,4,5,5,6,6,7,7,8,8,9,9,10,10,11,11,12,12,13,13,14,14],"right_children":[2,4,6,8,10,12,14,16,18,20,22,24,26,28,30,-1,-1,-1,-1,-1,-1,-1,-1,-1,-1,-1,-1,-1,-1,-1,-1],"split_conditions":[1E0,1E0,4.4E1,1.7E1,4.9E1,1E0,1.8E1,1E1,1E0,6.12535E5,6.0137E5,4.02031E5,1E0,4.10447E5,3.4E1,4.0940847E-2,2.1158194E-2,5.144328E-3,-4.0863056E-2,-6.731003E-2,-4.5596875E-2,-3.3194147E-2,1.6604118E-2,-4.8482265E-2,-2.541255E-2,6.209893E-2,-5.9018053E-2,2.4336267E-2,-2.3087585E-2,-5.086368E-2,-7.9901E-2],"split_indices":[1,11,0,0,0,5,1,0,10,7,7,7,11,7,1,0,0,0,0,0,0,0,0,0,0,0,0,0,0,0,0],"split_type":[0,0,0,0,0,0,0,0,0,0,0,0,0,0,0,0,0,0,0,0,0,0,0,0,0,0,0,0,0,0,0],"sum_hessian":[3.8775228E5,2.7353334E5,1.14218945E5,2.631795E5,1.0353834E4,7.422334E4,3.9995605E4,9.940727E4,1.6377225E5,8.998008E3,1.3558265E3,7.127578E4,2.9475635E3,3.3339746E4,6.655857E3,1.2509812E4,8.689746E4,1.5657233E5,7.199908E3,6.433419E3,2.5645884E3,7.332773E2,6.225492E2,2.8874693E4,4.2401086E4,2.6857637E3,2.617999E2,2.5113898E4,8.22585E3,4.1704863E3,2.4853706E3],"tree_param":{"num_deleted":"0","num_feature":"13","num_nodes":"31","size_leaf_vector":"1"}},{"base_weights":[1.464711E-3,1.6313466E-1,-3.8659453E-1,2.1034952E-1,-1.0514575E0,-7.9830325E-1,-9.1709584E-2,2.6102147E-1,-6.993325E-1,-1.248968E0,-4.6420297E-1,-6.134195E-1,-1.291787E0,5.7693284E-2,-1.2196689E0,2.090059E-2,7.4715907E-4,-1.508707E-2,-4.7958937E-2,-6.82619E-2,-4.6171684E-2,-1.3208925E-2,-7.186906E-2,-2.4647726E-2,-5.7350446E-2,-5.8499485E-2,-7.194707E-2,9.911927E-3,-5.8727264E-2,-6.911114E-2,-2.1579264E-2],"categories":[],"categories_nodes":[],"categories_segments":[],"categories_sizes":[],"default_left":[0,0,0,0,0,0,0,0,0,0,0,0,0,0,0,0,0,0,0,0,0,0,0,0,0,0,0,0,0,0,0],"id":18,"left_children":[1,3,5,7,9,11,13,15,17,19,21,23,25,27,29,-1,-1,-1,-1,-1,-1,-1,-1,-1,-1,-1,-1,-1,-1,-1,-1],"loss_changes":[2.4237646E4,1.5639496E4,1.3793742E4,1.2100698E4,1.183168E3,4.325508E3,1.1156462E4,9.606264E3,1.4307373E3,2.8816016E2,4.9976764E2,2.2167998E3,2.3050195E2,1.012424E4,9.914678E2,0E0,0E0,0E0,0E0,0E0,0E0,0E0,0E0,0E0,0E0,0E0,0E0,0E0,0E0,0E0,0E0],"parents":[2147483647,0,0,1,1,2,2,3,3,4,4,5,5,6,6,7,7,8,8,9,9,10,10,11,11,12,12,13,13,14,14],"right_children":[2,4,6,8,10,12,14,16,18,20,22,24,26,28,30,-1,-1,-1,-1,-1,-1,-1,-1,-1,-1,-1,-1,-1,-1,-1,-1],"split_conditions":[1E0,1E0,4E0,2.308E3,4.1E1,2.9E1,1E0,2.2E1,1.6E1,6.12535E5,6.17771E5,2.048E3,6E0,1.8E1,1.2E1,2.090059E-2,7.4715907E-4,-1.508707E-2,-4.7958937E-2,-6.82619E-2,-4.6171684E-2,-1.3208925E-2,-7.186906E-2,-2.4647726E-2,-5.7350446E-2,-5.8499485E-2,-7.194707E-2,9.911927E-3,-5.8727264E-2,-6.911114E-2,-2.1579264E-2],"split_indices":[1,11,4,9,0,0,11,0,0,7,7,9,1,1,4,0,0,0,0,0,0,0,0,0,0,0,0,0,0,0,0],"split_type":[0,0,0,0,0,0,0,0,0,0,0,0,0,0,0,0,0,0,0,0,0,0,0,0,0,0,0,0,0,0,0],"sum_hessian":[3.863335E5,2.72717E5,1.1361649E5,2.6251284E5,1.0204167E4,4.741543E4,6.620106E4,2.486621E5,1.3850746E4,7.6354224E3,2.5687441E3,3.4493688E4,1.2921742E4,5.8458395E4,7.7426694E3,1.5181078E5,9.685132E4,5.474964E3,8.375782E3,5.624599E3,2.0108231E3,2.1314004E3,4.373439E2,2.8141514E4,6.352175E3,7.072826E3,5.848916E3,5.2473887E4,5.9845063E3,6.418297E3,1.3243723E3],"tree_param":{"num_deleted":"0","num_feature":"13","num_nodes":"31","size_leaf_vector":"1"}},{"base_weights":[2.3661267E-4,3.523184E-1,-1.6400176E-1,3.9362592E-1,-4.6864995E-1,-9.759505E-2,-1.0831448E0,8.8371986E-1,3.6341795E-1,-2.4210407E-1,-1.5352852E0,-1.1226985E0,-5.953423E-2,-1.2173318E0,-4.741601E-1,4.9205776E-2,3.9655384E-2,9.1154715E-3,1.9415112E-2,2.431388E-2,-1.5846087E-2,-6.864047E-2,-7.910995E-2,-7.5534545E-2,-3.9820913E-2,-1.1845008E-3,-5.9213277E-2,-6.649771E-2,-4.6526764E-2,-4.449836E-2,9.267797E-3],"categories":[],"categories_nodes":[],"categories_segments":[],"categories_sizes":[],"default_left":[0,0,0,0,0,0,0,0,0,0,0,0,0,0,0,0,0,0,0,0,0,0,0,0,0,0,0,0,0,0,0],"id":19,"left_children":[1,3,5,7,9,11,13,15,17,19,21,23,25,27,29,-1,-1,-1,-1,-1,-1,-1,-1,-1,-1,-1,-1,-1,-1,-1,-1],"loss_changes":[2.222299E4,4.1457646E3,1.5995525E4,1.7228633E3,1.4147899E3,9.535703E3,1.4425059E3,6.090039E1,4.9400684E2,2.6333615E2,6.4370117E0,1.1068105E3,9.500444E3,4.665039E2,8.7474646E2,0E0,0E0,0E0,0E0,0E0,0E0,0E0,0E0,0E0,0E0,0E0,0E0,0E0,0E0,0E0,0E0],"parents":[2147483647,0,0,1,1,2,2,3,3,4,4,5,5,6,6,7,7,8,8,9,9,10,10,11,11,12,12,13,13,14,14],"right_children":[2,4,6,8,10,12,14,16,18,20,22,24,26,28,30,-1,-1,-1,-1,-1,-1,-1,-1,-1,-1,-1,-1,-1,-1,-1,-1],"split_conditions":[2E0,2E0,1E0,9E0,5E0,3.9513E4,5.3E1,8E0,2.03762E5,1.8398E4,1.8398E4,5.19E3,1.8E1,6.12535E5,6.12535E5,4.9205776E-2,3.9655384E-2,9.1154715E-3,1.9415112E-2,2.431388E-2,-1.5846087E-2,-6.864047E-2,-7.910995E-2,-7.5534545E-2,-3.9820913E-2,-1.1845008E-3,-5.9213277E-2,-6.649771E-2,-4.6526764E-2,-4.449836E-2,9.267797E-3],"split_indices":[4,1,11,0,1,8,0,0,8,8,8,8,1,7,7,0,0,0,0,0,0,0,0,0,0,0,0,0,0,0,0],"split_type":[0,0,0,0,0,0,0,0,0,0,0,0,0,0,0,0,0,0,0,0,0,0,0,0,0,0,0,0,0,0,0],"sum_hessian":[3.84311E5,1.22247055E5,2.6206395E5,1.1639115E5,5.855909E3,2.444066E5,1.7657352E4,6.756488E3,1.09634664E5,4.8306255E3,1.0252838E3,8.749046E3,2.3565755E5,1.4468598E4,3.1887534E3,3.2023472E3,3.5541409E3,1.3245045E4,9.638962E4,4.4958994E2,4.3810356E3,2.3358249E2,7.9170135E2,3.995601E3,4.753445E3,2.2837988E5,7.277671E3,1.0387392E4,4.0812056E3,1.9557087E3,1.2330447E3],"tree_param":{"num_deleted":"0","num_feature":"13","num_nodes":"31","size_leaf_vector":"1"}},{"base_weights":[9.838054E-4,7.53982E-2,-7.40079E-1,-6.785833E-1,1.5238729E-1,-1.1509455E-2,-9.1082734E-1,-1.783414E-1,-1.1409628E0,-2.4885534E-1,2.750538E-1,4.4741115E-1,-5.042499E-1,-7.19199E-1,-1.2133492E0,-3.1268474E-2,6.0966283E-2,-3.0160313E-2,-6.798025E-2,1.5356644E-2,-2.127659E-2,2.1145558E-2,-1.1898034E-2,1.7722715E-2,6.1420757E-2,-6.3863635E-2,-4.098379E-3,-2.3437656E-2,-4.9223207E-2,-5.4448962E-2,-6.9238E-2],"categories":[],"categories_nodes":[],"categories_segments":[],"categories_sizes":[],"default_left":[0,0,0,0,0,0,0,0,0,0,0,0,0,0,0,0,0,0,0,0,0,0,0,0,0,0,0,0,0,0,0],"id":20,"left_children":[1,3,5,7,9,11,13,15,17,19,21,23,25,27,29,-1,-1,-1,-1,-1,-1,-1,-1,-1,-1,-1,-1,-1,-1,-1,-1],"loss_changes":[2.1117348E4,2.0200496E4,4.347008E3,7.4572793E3,1.5541107E4,1.5005352E3,1.6405078E3,9.676779E3,1.9693398E3,7.262182E3,1.8343156E4,2.4905304E2,1.0444182E3,1.1511035E3,2.3301465E2,0E0,0E0,0E0,0E0,0E0,0E0,0E0,0E0,0E0,0E0,0E0,0E0,0E0,0E0,0E0,0E0],"parents":[2147483647,0,0,1,1,2,2,3,3,4,4,5,5,6,6,7,7,8,8,9,9,10,10,11,11,12,12,13,13,14,14],"right_children":[2,4,6,8,10,12,14,16,18,20,22,24,26,28,30,-1,-1,-1,-1,-1,-1,-1,-1,-1,-1,-1,-1,-1,-1,-1,-1],"split_conditions":[2.048E3,4.19E2,1.3E1,3.34E2,4.02031E5,2.458E3,1E0,2.95E2,1.8E1,2.2E1,4.05405E5,2.339E3,2.498E3,2.479E3,7E0,-3.1268474E-2,6.0966283E-2,-3.0160313E-2,-6.798025E-2,1.5356644E-2,-2.127659E-2,2.1145558E-2,-1.1898034E-2,1.7722715E-2,6.1420757E-2,-6.3863635E-2,-4.098379E-3,-2.3437656E-2,-4.9223207E-2,-5.4448962E-2,-6.9238E-2],"split_indices":[9,9,0,9,7,9,1,9,0,0,7,9,9,9,1,0,0,0,0,0,0,0,0,0,0,0,0,0,0,0,0],"split_type":[0,0,0,0,0,0,0,0,0,0,0,0,0,0,0,0,0,0,0,0,0,0,0,0,0,0,0,0,0,0,0],"sum_hessian":[3.8293728E5,3.479938E5,3.4943484E4,3.2241004E4,3.157528E5,6.634732E3,2.830875E4,1.5486877E4,1.6754127E4,7.392909E4,2.4182372E5,3.4351763E3,3.1995557E3,1.7332031E4,1.097672E4,1.173418E4,3.752697E3,4.84357E3,1.1910558E4,1.7827207E4,5.6101887E4,1.8772052E5,5.410319E4,3.0705654E3,3.6461075E2,1.1299109E3,2.0696448E3,8.915944E3,8.416087E3,6.3636914E3,4.6130283E3],"tree_param":{"num_deleted":"0","num_feature":"13","num_nodes":"31","size_leaf_vector":"1"}},{"base_weights":[3.3266118E-4,1.4659089E-1,-3.5107365E-1,1.8800431E-1,-9.586029E-1,-6.250358E-1,7.4048504E-2,4.178683E-1,5.0919283E-2,-1.1554455E0,-3.892354E-1,-9.456546E-1,-4.0549177E-1,2.5808993E-1,-1.0594759E0,3.7677914E-2,1.8519385E-2,4.4233953E-3,-3.838961E-2,-6.376592E-2,-4.1449707E-2,-9.689922E-3,-6.856647E-2,-3.6251076E-2,-6.1929893E-2,-3.9293407E-3,-4.4647835E-2,2.3495715E-2,-5.232198E-2,-6.2169857E-2,-1.8651169E-2],"categories":[],"categories_nodes":[],"categories_segments":[],"categories_sizes":[],"default_left":[0,0,0,0,0,0,0,0,0,0,0,0,0,0,0,0,0,0,0,0,0,0,0,0,0,0,0,0,0,0,0],"id":21,"left_children":[1,3,5,7,9,11,13,15,17,19,21,23,25,27,29,-1,-1,-1,-1,-1,-1,-1,-1,-1,-1,-1,-1,-1,-1,-1,-1],"loss_changes":[1.9601043E4,1.2325457E4,1.3053881E4,8.1791016E3,1.089708E3,4.797324E3,9.163173E3,1.5453027E3,4.9984683E3,2.8208105E2,4.7948135E2,1.7897988E3,6.446881E3,1.04423545E4,7.7421875E2,0E0,0E0,0E0,0E0,0E0,0E0,0E0,0E0,0E0,0E0,0E0,0E0,0E0,0E0,0E0,0E0],"parents":[2147483647,0,0,1,1,2,2,3,3,4,4,5,5,6,6,7,7,8,8,9,9,10,10,11,11,12,12,13,13,14,14],"right_children":[2,4,6,8,10,12,14,16,18,20,22,24,26,28,30,-1,-1,-1,-1,-1,-1,-1,-1,-1,-1,-1,-1,-1,-1,-1,-1],"split_conditions":[1E0,1E0,6E0,1.7E1,4.1E1,4.02031E5,1E0,1E1,1E0,6.12535E5,6.17771E5,3E1,4.05405E5,1.8E1,1.2E1,3.7677914E-2,1.8519385E-2,4.4233953E-3,-3.838961E-2,-6.376592E-2,-4.1449707E-2,-9.689922E-3,-6.856647E-2,-3.6251076E-2,-6.1929893E-2,-3.9293407E-3,-4.4647835E-2,2.3495715E-2,-5.232198E-2,-6.2169857E-2,-1.8651169E-2],"split_indices":[1,11,4,0,0,7,11,0,10,7,7,0,7,1,4,0,0,0,0,0,0,0,0,0,0,0,0,0,0,0,0],"split_type":[0,0,0,0,0,0,0,0,0,0,0,0,0,0,0,0,0,0,0,0,0,0,0,0,0,0,0,0,0,0,0],"sum_hessian":[3.813719E5,2.6929122E5,1.1208067E5,2.5956539E5,9.725835E3,6.8157695E4,4.392298E4,9.696794E4,1.6259745E5,7.226715E3,2.4991199E3,2.7701193E4,4.04565E4,3.7788098E4,6.134882E3,1.2014605E4,8.4953336E4,1.5546778E5,7.129661E3,5.2844897E3,1.942225E3,2.0849207E3,4.1419925E2,1.580191E4,1.1899283E4,2.4216893E4,1.6239607E4,3.25097E4,5.2783994E3,4.838067E3,1.2968147E3],"tree_param":{"num_deleted":"0","num_feature":"13","num_nodes":"31","size_leaf_vector":"1"}},{"base_weights":[8.034416E-4,7.167114E-2,-7.099886E-1,-6.4734614E-1,1.4430277E-1,-2.4110216E-1,-9.254946E-1,-1.7129016E-1,-1.0960884E0,-2.285248E-1,2.5841638E-1,-1.13259144E-1,-1.0989109E0,-6.348762E-1,-1.0672144E0,-2.9590428E-2,5.7474304E-2,-3.9429728E-2,-6.79395E-2,-1.5421837E-2,2.3484845E-2,1.9777015E-2,-1.0701476E-2,-1.3982691E-2,2.7503783E-2,-4.449738E-2,-5.5330504E-2,-3.487897E-2,3.2282133E-2,-5.0853964E-2,-6.78264E-2],"categories":[],"categories_nodes":[],"categories_segments":[],"categories_sizes":[],"default_left":[0,0,0,0,0,0,0,0,0,0,0,0,0,0,0,0,0,0,0,0,0,0,0,0,0,0,0,0,0,0,0],"id":22,"left_children":[1,3,5,7,9,11,13,15,17,19,21,23,25,27,29,-1,-1,-1,-1,-1,-1,-1,-1,-1,-1,-1,-1,-1,-1,-1,-1],"loss_changes":[1.911389E4,1.8019783E4,3.4760605E3,6.762669E3,1.3333328E4,1.1878899E3,9.7021875E2,8.532489E3,1.3156309E3,4.0979272E3,1.5545017E4,1.0407971E3,1.5686035E0,6.2068506E2,2.2886133E2,0E0,0E0,0E0,0E0,0E0,0E0,0E0,0E0,0E0,0E0,0E0,0E0,0E0,0E0,0E0,0E0],"parents":[2147483647,0,0,1,1,2,2,3,3,4,4,5,5,6,6,7,7,8,8,9,9,10,10,11,11,12,12,13,13,14,14],"right_children":[2,4,6,8,10,12,14,16,18,20,22,24,26,28,30,-1,-1,-1,-1,-1,-1,-1,-1,-1,-1,-1,-1,-1,-1,-1,-1],"split_conditions":[2.048E3,4.19E2,2E0,3.34E2,4.02031E5,2.684E3,2.308E3,2.95E2,3E0,8E0,4.05405E5,2.498E3,1E0,2.28E3,2.684E3,-2.9590428E-2,5.7474304E-2,-3.9429728E-2,-6.79395E-2,-1.5421837E-2,2.3484845E-2,1.9777015E-2,-1.0701476E-2,-1.3982691E-2,2.7503783E-2,-4.449738E-2,-5.5330504E-2,-3.487897E-2,3.2282133E-2,-5.0853964E-2,-6.78264E-2],"split_indices":[9,9,4,9,7,9,9,9,4,4,7,9,12,9,9,0,0,0,0,0,0,0,0,0,0,0,0,0,0,0,0],"split_type":[0,0,0,0,0,0,0,0,0,0,0,0,0,0,0,0,0,0,0,0,0,0,0,0,0,0,0,0,0,0,0],"sum_hessian":[3.7945338E5,3.450515E5,3.4401887E4,3.1657047E4,3.1339444E5,1.0833174E4,2.3568713E4,1.5361477E4,1.629557E4,7.344299E4,2.3995147E5,9.428661E3,1.4045122E3,7.726915E3,1.5841799E4,1.1651984E4,3.709492E3,7.508823E3,8.786747E3,6.5901E4,7.5419897E3,1.8597416E5,5.3977312E4,7.5381807E3,1.8904803E3,5.2442585E1,1.3520696E3,7.366505E3,3.6041022E2,1.3504252E4,2.337547E3],"tree_param":{"num_deleted":"0","num_feature":"13","num_nodes":"31","size_leaf_vector":"1"}},{"base_weights":[-1.0850251E-3,6.714049E-2,-6.892392E-1,-6.198488E-1,1.3627374E-1,-2.422211E-1,-9.311951E-1,-1.6068433E-1,-1.0565014E0,3.724925E-1,-1.8846415E-2,2.1133022E-1,-6.617951E-1,-7.802976E-1,-1.153699E0,-2.8102744E-2,5.5052616E-2,-2.7174352E-2,-6.391351E-2,1.4756915E-2,5.110199E-2,8.222267E-3,-1.7383112E-2,1.3006665E-2,-7.237726E-2,-6.0850453E-2,-1.9530965E-2,-2.8193504E-2,-5.0372656E-2,-6.101024E-2,-3.8692724E-2],"categories":[],"categories_nodes":[],"categories_segments":[],"categories_sizes":[],"default_left":[0,0,0,0,0,0,0,0,0,0,0,0,0,0,0,0,0,0,0,0,0,0,0,0,0,0,0,0,0,0,0],"id":23,"left_children":[1,3,5,7,9,11,13,15,17,19,21,23,25,27,29,-1,-1,-1,-1,-1,-1,-1,-1,-1,-1,-1,-1,-1,-1,-1,-1],"loss_changes":[1.7738445E4,1.6325403E4,3.6857373E3,6.3010283E3,1.1443788E4,2.2777715E3,7.417344E2,7.7586562E3,1.8321836E3,6.2198047E3,1.1361744E4,4.6572635E2,9.357202E2,6.473921E2,2.2501855E2,0E0,0E0,0E0,0E0,0E0,0E0,0E0,0E0,0E0,0E0,0E0,0E0,0E0,0E0,0E0,0E0],"parents":[2147483647,0,0,1,1,2,2,3,3,4,4,5,5,6,6,7,7,8,8,9,9,10,10,11,11,12,12,13,13,14,14],"right_children":[2,4,6,8,10,12,14,16,18,20,22,24,26,28,30,-1,-1,-1,-1,-1,-1,-1,-1,-1,-1,-1,-1,-1,-1,-1,-1],"split_conditions":[2.048E3,4.19E2,1.6E1,3.34E2,2E1,2.458E3,1E0,2.95E2,1.8E1,1.906E3,4.57E2,6E0,2.498E3,2.479E3,9E0,-2.8102744E-2,5.5052616E-2,-2.7174352E-2,-6.391351E-2,1.4756915E-2,5.110199E-2,8.222267E-3,-1.7383112E-2,1.3006665E-2,-7.237726E-2,-6.0850453E-2,-1.9530965E-2,-2.8193504E-2,-5.0372656E-2,-6.101024E-2,-3.8692724E-2],"split_indices":[9,9,0,9,0,9,1,9,0,9,9,1,9,9,4,0,0,0,0,0,0,0,0,0,0,0,0,0,0,0,0],"split_type":[0,0,0,0,0,0,0,0,0,0,0,0,0,0,0,0,0,0,0,0,0,0,0,0,0,0,0,0,0,0,0],"sum_hessian":[3.7781597E5,3.4373722E5,3.4078754E4,3.1427834E4,3.1230938E5,1.1968371E4,2.2110383E4,1.5319473E4,1.6108361E4,1.2379416E5,1.8851522E5,5.751318E3,6.217053E3,1.3176835E4,8.933549E3,1.1622576E4,3.696897E3,4.8624043E3,1.1245957E4,1.1062123E5,1.3172933E4,1.2104248E5,6.7472734E4,5.5874214E3,1.6389655E2,2.0394025E3,4.177651E3,6.7488745E3,6.4279604E3,7.601292E3,1.3322568E3],"tree_param":{"num_deleted":"0","num_feature":"13","num_nodes":"31","size_leaf_vector":"1"}},{"base_weights":[6.857191E-7,1.3569032E-1,-3.2731783E-1,1.8020728E-1,-6.577749E-1,-7.138821E-1,-5.4451305E-2,3.3774245E-1,-4.411826E-2,-9.112295E-1,-3.041126E-1,-5.4192686E-1,-1.1914781E0,1.8792623E-1,-6.0217404E-1,1.3862895E-2,3.616004E-2,-3.9483454E-2,9.133255E-4,-1.9855542E-2,-7.067613E-2,2.5057241E-2,-4.7669243E-2,-7.5478926E-3,-3.415717E-2,-5.3396937E-2,-6.712956E-2,-4.8781116E-2,1.9631637E-2,-5.3084787E-2,-1.3580698E-2],"categories":[],"categories_nodes":[],"categories_segments":[],"categories_sizes":[],"default_left":[0,0,0,0,0,0,0,0,0,0,0,0,0,0,0,0,0,0,0,0,0,0,0,0,0,0,0,0,0,0,0],"id":24,"left_children":[1,3,5,7,9,11,13,15,17,19,21,23,25,27,29,-1,-1,-1,-1,-1,-1,-1,-1,-1,-1,-1,-1,-1,-1,-1,-1],"loss_changes":[1.6695936E4,9.387072E3,1.162036E4,8.892591E3,1.2652207E3,3.74325E3,8.573663E3,3.446211E3,4.8284414E3,2.1231816E3,3.0822188E3,1.8504951E3,2.2432227E2,1.0663773E4,3.0091265E3,0E0,0E0,0E0,0E0,0E0,0E0,0E0,0E0,0E0,0E0,0E0,0E0,0E0,0E0,0E0,0E0],"parents":[2147483647,0,0,1,1,2,2,3,3,4,4,5,5,6,6,7,7,8,8,9,9,10,10,11,11,12,12,13,13,14,14],"right_children":[2,4,6,8,10,12,14,16,18,20,22,24,26,28,30,-1,-1,-1,-1,-1,-1,-1,-1,-1,-1,-1,-1,-1,-1,-1,-1],"split_conditions":[1E0,2.327E3,4E0,2.2E1,2.498E3,2.9E1,4.57E2,1.906E3,4.19E2,2.479E3,2.612E3,2E0,6E0,4.38E2,1.736E3,1.3862895E-2,3.616004E-2,-3.9483454E-2,9.133255E-4,-1.9855542E-2,-7.067613E-2,2.5057241E-2,-4.7669243E-2,-7.5478926E-3,-3.415717E-2,-5.3396937E-2,-6.712956E-2,-4.8781116E-2,1.9631637E-2,-5.3084787E-2,-1.3580698E-2],"split_indices":[1,9,4,0,9,0,9,9,9,9,9,1,1,9,9,0,0,0,0,0,0,0,0,0,0,0,0,0,0,0,0],"split_type":[0,0,0,0,0,0,0,0,0,0,0,0,0,0,0,0,0,0,0,0,0,0,0,0,0,0,0,0,0,0,0],"sum_hessian":[3.7591775E5,2.6575134E5,1.10166414E5,2.5163406E5,1.4117285E4,4.5585383E4,6.4581027E4,1.4782352E5,1.0381055E5,8.223083E3,5.8942017E3,3.3518535E4,1.2066849E4,4.476973E4,1.9811297E4,1.27774734E5,2.0048771E4,8.015409E3,9.579514E4,4.0642463E3,4.158837E3,2.631033E3,3.2631687E3,8.894677E3,2.462386E4,6.641731E3,5.425117E3,6.697705E3,3.8072027E4,8.288203E3,1.1523093E4],"tree_param":{"num_deleted":"0","num_feature":"13","num_nodes":"31","size_leaf_vector":"1"}},{"base_weights":[4.4582962E-4,4.489965E-2,-9.7293884E-1,1.6640235E-1,-2.5834072E-1,-1.1092507E0,-3.5836107E-1,3.689355E-1,4.742782E-2,-5.473069E-1,2.4544692E-1,-1.2312757E0,-8.0752504E-1,-8.127127E-1,3.5419765E-1,3.472977E-2,1.615817E-2,1.4247148E-2,-1.7311476E-3,-2.9972766E-2,5.8053065E-2,2.1815455E-2,-5.2104216E-2,-6.530832E-2,-5.0640877E-2,-6.721274E-3,-7.252926E-2,-2.4767756E-2,-7.0870064E-2,5.7347722E-2,-7.004039E-2],"categories":[],"categories_nodes":[],"categories_segments":[],"categories_sizes":[],"default_left":[0,0,0,0,0,0,0,0,0,0,0,0,0,0,0,0,0,0,0,0,0,0,0,0,0,0,0,0,0,0,0],"id":25,"left_children":[1,3,5,7,9,11,13,15,17,19,21,23,25,27,29,-1,-1,-1,-1,-1,-1,-1,-1,-1,-1,-1,-1,-1,-1,-1,-1],"loss_changes":[1.6197549E4,1.3189772E4,1.3692607E3,6.1584595E3,1.4908047E4,4.9194727E2,9.61323E2,1.4095674E3,3.1376956E3,5.798004E3,9.173186E3,1.5496094E2,1.6682749E3,3.473871E2,1.6093574E3,0E0,0E0,0E0,0E0,0E0,0E0,0E0,0E0,0E0,0E0,0E0,0E0,0E0,0E0,0E0,0E0],"parents":[2147483647,0,0,1,1,2,2,3,3,4,4,5,5,6,6,7,7,8,8,9,9,10,10,11,11,12,12,13,13,14,14],"right_children":[2,4,6,8,10,12,14,16,18,20,22,24,26,28,30,-1,-1,-1,-1,-1,-1,-1,-1,-1,-1,-1,-1,-1,-1,-1,-1],"split_conditions":[1E0,1E0,5.4E1,1.7E1,6E0,6.12535E5,6.12535E5,1E1,2E0,1E0,1.9E1,3.7E1,6.17771E5,1E0,6.17771E5,3.472977E-2,1.615817E-2,1.4247148E-2,-1.7311476E-3,-2.9972766E-2,5.8053065E-2,2.1815455E-2,-5.2104216E-2,-6.530832E-2,-5.0640877E-2,-6.721274E-3,-7.252926E-2,-2.4767756E-2,-7.0870064E-2,5.7347722E-2,-7.004039E-2],"split_indices":[11,1,0,0,4,7,7,0,4,5,1,0,7,5,7,0,0,0,0,0,0,0,0,0,0,0,0,0,0,0,0],"split_type":[0,0,0,0,0,0,0,0,0,0,0,0,0,0,0,0,0,0,0,0,0,0,0,0,0,0,0,0,0,0,0],"sum_hessian":[3.7433206E5,3.5798375E5,1.6348297E4,2.5557873E5,1.0240502E5,1.3380066E4,2.9682307E3,9.45767E4,1.6100203E5,6.507753E4,3.7327492E4,9.525753E3,3.8543135E3,1.8125544E3,1.1556763E3,1.1653684E4,8.2923016E4,4.1338387E4,1.1966364E5,6.315024E4,1.9272937E3,3.2508828E4,4.818663E3,7.091677E3,2.4340762E3,1.8835433E3,1.97077E3,1.1893992E3,6.2315533E2,7.962369E2,3.5943945E2],"tree_param":{"num_deleted":"0","num_feature":"13","num_nodes":"31","size_leaf_vector":"1"}},{"base_weights":[-8.3218457E-4,6.274821E-2,-6.52643E-1,-5.7801265E-1,1.2614779E-1,-2.3029321E-1,-8.84001E-1,-1.3584173E-1,-1.0092583E0,-2.0712219E-1,2.2910759E-1,1.902883E-1,-6.1701566E-1,-7.0517194E-1,-1.0351332E0,-2.5998354E-2,5.4046154E-2,-2.721481E-2,-6.103604E-2,-2.6307786E-2,2.8311138E-3,1.7715313E-2,-9.887345E-3,4.720708E-3,4.9325347E-2,-5.8315635E-2,-1.763714E-2,-3.183802E-2,-6.1594423E-2,-4.592122E-2,-5.724016E-2],"categories":[],"categories_nodes":[],"categories_segments":[],"categories_sizes":[],"default_left":[0,0,0,0,0,0,0,0,0,0,0,0,0,0,0,0,0,0,0,0,0,0,0,0,0,0,0,0,0,0,0],"id":26,"left_children":[1,3,5,7,9,11,13,15,17,19,21,23,25,27,29,-1,-1,-1,-1,-1,-1,-1,-1,-1,-1,-1,-1,-1,-1,-1,-1],"loss_changes":[1.544707E4,1.3796203E4,3.23675E3,5.830326E3,1.0603945E4,1.907152E3,5.779004E2,7.056806E3,1.521459E3,6.137326E3,1.2617276E4,4.286196E2,8.863955E2,3.5272363E2,1.4771875E2,0E0,0E0,0E0,0E0,0E0,0E0,0E0,0E0,0E0,0E0,0E0,0E0,0E0,0E0,0E0,0E0],"parents":[2147483647,0,0,1,1,2,2,3,3,4,4,5,5,6,6,7,7,8,8,9,9,10,10,11,11,12,12,13,13,14,14],"right_children":[2,4,6,8,10,12,14,16,18,20,22,24,26,28,30,-1,-1,-1,-1,-1,-1,-1,-1,-1,-1,-1,-1,-1,-1,-1,-1],"split_conditions":[2.048E3,4.19E2,1.6E1,3.34E2,4.02031E5,2.458E3,2.4E1,2.95E2,1.8E1,5.44306E5,4.05405E5,2.339E3,2.498E3,2.684E3,2.458E3,-2.5998354E-2,5.4046154E-2,-2.721481E-2,-6.103604E-2,-2.6307786E-2,2.8311138E-3,1.7715313E-2,-9.887345E-3,4.720708E-3,4.9325347E-2,-5.8315635E-2,-1.763714E-2,-3.183802E-2,-6.1594423E-2,-4.592122E-2,-5.724016E-2],"split_indices":[9,9,0,9,7,9,0,9,0,8,7,9,9,9,9,0,0,0,0,0,0,0,0,0,0,0,0,0,0,0,0],"split_type":[0,0,0,0,0,0,0,0,0,0,0,0,0,0,0,0,0,0,0,0,0,0,0,0,0,0,0,0,0,0,0],"sum_hessian":[3.7273356E5,3.3960712E5,3.312642E4,3.0576266E4,3.0903088E5,1.1724494E4,2.1401928E4,1.5097339E4,1.5478926E4,7.293771E4,2.3609316E5,5.616377E3,6.108117E3,9.804327E3,1.1597601E4,1.147509E4,3.6222485E3,4.8396953E3,1.063923E4,3.3008945E4,3.9928766E4,1.8255047E5,5.354269E4,5.01339E3,6.029867E2,1.9834298E3,4.124687E3,8.678438E3,1.1258887E3,5.621211E3,5.9763896E3],"tree_param":{"num_deleted":"0","num_feature":"13","num_nodes":"31","size_leaf_vector":"1"}},{"base_weights":[1.2155756E-3,4.2775393E-2,-9.292108E-1,1.5547922E-1,-2.3994374E-1,-1.164671E0,-5.838716E-1,1.8021558E-1,-7.1387005E-1,-6.5400445E-1,8.2784176E-2,-1.0800862E0,-1.3291249E0,-7.3148274E-1,-1.8532464E-1,1.7315518E-2,3.954242E-3,-5.097654E-2,-1.2256074E-2,-2.429401E-2,-5.655208E-2,9.593482E-3,-5.513466E-2,-5.6621343E-2,-4.3685045E-2,-7.079124E-2,-6.406378E-2,-4.8699956E-2,-2.4464663E-2,9.991338E-3,-4.5525055E-2],"categories":[],"categories_nodes":[],"categories_segments":[],"categories_sizes":[],"default_left":[0,0,0,0,0,0,0,0,0,0,0,0,0,0,0,0,0,0,0,0,0,0,0,0,0,0,0,0,0,0,0],"id":27,"left_children":[1,3,5,7,9,11,13,15,17,19,21,23,25,27,29,-1,-1,-1,-1,-1,-1,-1,-1,-1,-1,-1,-1,-1,-1,-1,-1],"loss_changes":[1.4345383E4,1.1315545E4,1.2893164E3,5.460173E3,1.3525738E4,1.3022949E2,3.7822998E2,4.1469126E3,1.0062417E3,3.5553516E3,7.3560083E3,6.661279E1,1.2101074E1,2.7527026E2,4.8593063E2,0E0,0E0,0E0,0E0,0E0,0E0,0E0,0E0,0E0,0E0,0E0,0E0,0E0,0E0,0E0,0E0],"parents":[2147483647,0,0,1,1,2,2,3,3,4,4,5,5,6,6,7,7,8,8,9,9,10,10,11,11,12,12,13,13,14,14],"right_children":[2,4,6,8,10,12,14,16,18,20,22,24,26,28,30,-1,-1,-1,-1,-1,-1,-1,-1,-1,-1,-1,-1,-1,-1,-1,-1],"split_conditions":[1E0,1E0,3.9E1,1E0,4E0,1E0,1.164801E6,1.7E1,4.6E1,2.9E1,2E1,1.17876E6,6E0,5.3E1,1.415686E6,1.7315518E-2,3.954242E-3,-5.097654E-2,-1.2256074E-2,-2.429401E-2,-5.655208E-2,9.593482E-3,-5.513466E-2,-5.6621343E-2,-4.3685045E-2,-7.079124E-2,-6.406378E-2,-4.8699956E-2,-2.4464663E-2,9.991338E-3,-4.5525055E-2],"split_indices":[11,1,0,10,4,1,8,0,0,0,1,8,4,0,8,0,0,0,0,0,0,0,0,0,0,0,0,0,0,0,0],"split_type":[0,0,0,0,0,0,0,0,0,0,0,0,0,0,0,0,0,0,0,0,0,0,0,0,0,0,0,0,0,0,0],"sum_hessian":[3.7098638E5,3.5512444E5,1.5861936E4,2.5390695E5,1.012175E5,9.430518E3,6.4314185E3,2.4688269E5,7.0242593E3,4.4335168E4,5.6882332E4,6.230389E3,3.2001282E3,4.6926997E3,1.7387191E3,9.343123E4,1.5345147E5,4.251287E3,2.7729722E3,3.2782652E4,1.1552516E4,5.208964E4,4.7926895E3,4.9677954E3,1.2625936E3,1.1322252E3,2.0679028E3,2.3438064E3,2.3488933E3,1.1357373E3,6.0298175E2],"tree_param":{"num_deleted":"0","num_feature":"13","num_nodes":"31","size_leaf_vector":"1"}},{"base_weights":[-6.187528E-4,5.992518E-2,-6.267745E-1,-5.5351305E-1,1.1997596E-1,-2.105843E-2,-7.755713E-1,-2.2041109E-1,-1.0775075E0,-1.9232418E-1,2.164225E-1,3.5923052E-1,-4.2939788E-1,-6.0722154E-1,-1.062141E0,9.556128E-4,-5.564643E-2,-6.492349E-2,-2.5184382E-2,-1.421077E-2,3.4410935E-2,1.6656248E-2,-8.97929E-3,1.3843603E-2,5.1879514E-2,-5.673464E-2,-2.6709398E-3,-1.971993E-2,-4.2404488E-2,-4.6999022E-2,-6.552332E-2],"categories":[],"categories_nodes":[],"categories_segments":[],"categories_sizes":[],"default_left":[0,0,0,0,0,0,0,0,0,0,0,0,0,0,0,0,0,0,0,0,0,0,0,0,0,0,0,0,0,0,0],"id":28,"left_children":[1,3,5,7,9,11,13,15,17,19,21,23,25,27,29,-1,-1,-1,-1,-1,-1,-1,-1,-1,-1,-1,-1,-1,-1,-1,-1],"loss_changes":[1.4000956E4,1.2405305E4,2.934662E3,5.2406953E3,9.238878E3,9.973577E2,1.2606152E3,3.9246245E3,1.4790703E3,5.8562646E3,1.083089E4,1.855119E2,8.211563E2,8.43896E2,2.9258594E2,0E0,0E0,0E0,0E0,0E0,0E0,0E0,0E0,0E0,0E0,0E0,0E0,0E0,0E0,0E0,0E0],"parents":[2147483647,0,0,1,1,2,2,3,3,4,4,5,5,6,6,7,7,8,8,9,9,10,10,11,11,12,12,13,13,14,14],"right_children":[2,4,6,8,10,12,14,16,18,20,22,24,26,28,30,-1,-1,-1,-1,-1,-1,-1,-1,-1,-1,-1,-1,-1,-1,-1,-1],"split_conditions":[2.048E3,4.19E2,1.3E1,3.72E2,4.02031E5,2.458E3,1E0,1.357726E6,3.95E2,1.405822E6,4.05405E5,2.339E3,2.498E3,2.479E3,9E0,9.556128E-4,-5.564643E-2,-6.492349E-2,-2.5184382E-2,-1.421077E-2,3.4410935E-2,1.6656248E-2,-8.97929E-3,1.3843603E-2,5.1879514E-2,-5.673464E-2,-2.6709398E-3,-1.971993E-2,-4.2404488E-2,-4.6999022E-2,-6.552332E-2],"split_indices":[9,9,0,9,7,9,1,8,9,8,7,9,9,9,1,0,0,0,0,0,0,0,0,0,0,0,0,0,0,0,0],"split_type":[0,0,0,0,0,0,0,0,0,0,0,0,0,0,0,0,0,0,0,0,0,0,0,0,0,0,0,0,0,0,0],"sum_hessian":[3.6931906E5,3.3675775E5,3.2561318E4,3.0026059E4,3.067317E5,6.421633E3,2.6139686E4,1.8357281E4,1.1668776E4,7.2375055E4,2.3435664E5,3.3249253E3,3.0967073E3,1.6467506E4,9.672181E3,1.4473446E4,3.883836E3,8.424088E3,3.2446885E3,6.5536305E4,6.8387505E3,1.81013E5,5.334364E4,2.9657148E3,3.5921063E2,1.0763395E3,2.0203679E3,8.743648E3,7.723857E3,6.484841E3,3.1873394E3],"tree_param":{"num_deleted":"0","num_feature":"13","num_nodes":"31","size_leaf_vector":"1"}},{"base_weights":[5.799064E-4,4.615495E-2,-7.6864314E-1,8.291278E-2,-8.5567003E-1,-5.899135E-1,-1.1181713E0,1.06907606E-1,-9.9381924E-1,-9.9630433E-1,-3.050555E-1,-8.3772993E-1,-2.5263795E-1,-1.0274802E0,-1.284776E0,-2.096694E-2,7.589367E-3,-6.392043E-2,-3.711563E-2,-4.3447994E-2,-6.0729392E-2,2.3584217E-3,-5.6640476E-2,-1.723647E-2,-6.713668E-2,3.348513E-2,-3.8557325E-2,-5.7082396E-2,-4.4450168E-2,-6.435511E-2,7.977831E-2],"categories":[],"categories_nodes":[],"categories_segments":[],"categories_sizes":[],"default_left":[0,0,0,0,0,0,0,0,0,0,0,0,0,0,0,0,0,0,0,0,0,0,0,0,0,0,0,0,0,0,0],"id":29,"left_children":[1,3,5,7,9,11,13,15,17,19,21,23,25,27,29,-1,-1,-1,-1,-1,-1,-1,-1,-1,-1,-1,-1,-1,-1,-1,-1],"loss_changes":[1.2897548E4,1.151339E4,1.2850342E3,8.621971E3,1.0530039E3,1.1379258E3,1.0429492E2,7.7099497E3,5.2002246E2,3.0043164E2,8.0722253E2,1.9537681E3,2.7589448E3,7.060156E1,1.7421387E1,0E0,0E0,0E0,0E0,0E0,0E0,0E0,0E0,0E0,0E0,0E0,0E0,0E0,0E0,0E0,0E0],"parents":[2147483647,0,0,1,1,2,2,3,3,4,4,5,5,6,6,7,7,8,8,9,9,10,10,11,11,12,12,13,13,14,14],"right_children":[2,4,6,8,10,12,14,16,18,20,22,24,26,28,30,-1,-1,-1,-1,-1,-1,-1,-1,-1,-1,-1,-1,-1,-1,-1,-1],"split_conditions":[2.327E3,1E0,1E0,1.7E1,1E1,2.498E3,9E0,4.19E2,9E0,1E0,1E0,2.479E3,2.596E3,2.498E3,5E0,-2.096694E-2,7.589367E-3,-6.392043E-2,-3.711563E-2,-4.3447994E-2,-6.0729392E-2,2.3584217E-3,-5.6640476E-2,-1.723647E-2,-6.713668E-2,3.348513E-2,-3.8557325E-2,-5.7082396E-2,-4.4450168E-2,-6.435511E-2,7.977831E-2],"split_indices":[9,11,1,1,4,9,1,9,4,1,5,9,9,9,3,0,0,0,0,0,0,0,0,0,0,0,0,0,0,0,0],"split_type":[0,0,0,0,0,0,0,0,0,0,0,0,0,0,0,0,0,0,0,0,0,0,0,0,0,0,0,0,0,0,0],"sum_hessian":[3.6789934E5,3.4732178E5,2.0577574E4,3.3372012E5,1.360166E4,1.3616479E4,6.9610957E3,3.2644588E5,7.27426E3,1.0833941E4,2.7677188E3,7.8486025E3,5.7678755E3,4.51017E3,2.4509255E3,2.5651979E4,3.0079388E5,3.4115364E3,3.8627234E3,6.8441055E3,3.989836E3,1.9417994E3,8.259193E2,3.9720254E3,3.8765771E3,2.0755242E3,3.6923516E3,2.469685E3,2.0404849E3,2.4492588E3,1.6668353E0],"tree_param":{"num_deleted":"0","num_feature":"13","num_nodes":"31","size_leaf_vector":"1"}},{"base_weights":[7.8435603E-4,3.779034E-2,-8.6470485E-1,-2.5783038E-1,1.324398E-1,-1.0709614E0,-4.0967804E-1,-5.1457055E-2,-6.307578E-1,2.4621843E-1,-2.60575E-1,-1.1859686E0,-6.9979155E-1,3.586032E-1,-1.3563644E0,-1.7749608E-2,7.565614E-3,-4.3179467E-2,2.4636438E-2,1.4096203E-2,-6.962699E-2,-2.8195584E-3,-3.371645E-2,-6.1614525E-2,-4.8190244E-2,-1.5331882E-2,-6.6823E-2,5.7827504E-3,5.5239607E-2,-6.806577E-2,-3.3619575E-2],"categories":[],"categories_nodes":[],"categories_segments":[],"categories_sizes":[],"default_left":[0,0,0,0,0,0,0,0,0,0,0,0,0,0,0,0,0,0,0,0,0,0,0,0,0,0,0,0,0,0,0],"id":30,"left_children":[1,3,5,7,9,11,13,15,17,19,21,23,25,27,29,-1,-1,-1,-1,-1,-1,-1,-1,-1,-1,-1,-1,-1,-1,-1,-1],"loss_changes":[1.1737604E4,9.833746E3,1.4099521E3,6.559796E3,1.1904383E4,4.407627E2,3.4099805E3,3.377235E3,7.9430596E3,1.2080079E4,5.0491924E3,8.041211E1,6.1220996E2,4.6900665E2,6.451172E0,0E0,0E0,0E0,0E0,0E0,0E0,0E0,0E0,0E0,0E0,0E0,0E0,0E0,0E0,0E0,0E0],"parents":[2147483647,0,0,1,1,2,2,3,3,4,4,5,5,6,6,7,7,8,8,9,9,10,10,11,11,12,12,13,13,14,14],"right_children":[2,4,6,8,10,12,14,16,18,20,22,24,26,28,30,-1,-1,-1,-1,-1,-1,-1,-1,-1,-1,-1,-1,-1,-1,-1,-1],"split_conditions":[1E0,4.02031E5,6.12535E5,2E0,4.05405E5,1.17876E6,6.17771E5,5.44306E5,8E0,1E0,2E0,1E1,1.415686E6,1.1E1,1.6E1,-1.7749608E-2,7.565614E-3,-4.3179467E-2,2.4636438E-2,1.4096203E-2,-6.962699E-2,-2.8195584E-3,-3.371645E-2,-6.1614525E-2,-4.8190244E-2,-1.5331882E-2,-6.6823E-2,5.7827504E-3,5.5239607E-2,-6.806577E-2,-3.3619575E-2],"split_indices":[11,7,7,1,7,8,7,8,4,10,1,4,8,4,4,0,0,0,0,0,0,0,0,0,0,0,0,0,0,0,0],"split_type":[0,0,0,0,0,0,0,0,0,0,0,0,0,0,0,0,0,0,0,0,0,0,0,0,0,0,0,0,0,0,0],"sum_hessian":[3.6647778E5,3.5145125E5,1.5026515E4,8.523452E4,2.6621675E5,1.0339076E4,4.687438E3,5.487064E4,3.0363883E4,2.064496E5,5.9767152E4,7.8922812E3,2.446795E3,2.587645E3,2.099793E3,2.197513E4,3.2895508E4,2.5151654E4,5.2122285E3,2.020478E5,4.401788E3,4.0018965E4,1.9748184E4,6.5283687E3,1.3639125E3,1.5132404E3,9.335546E2,1.952614E3,6.3503107E2,2.084066E3,1.572715E1],"tree_param":{"num_deleted":"0","num_feature":"13","num_nodes":"31","size_leaf_vector":"1"}},{"base_weights":[9.191014E-5,5.589502E-2,-5.879592E-1,-5.118489E-1,1.092959E-1,-2.0723823E-1,-8.032575E-1,-1.8488935E-1,-1.0795419E0,-1.8027511E-1,1.9402298E-1,1.5930815E-1,-5.5403817E-1,-6.2973285E-1,-9.555649E-1,2.1666845E-3,-5.270433E-2,-6.2431116E-2,-2.704714E-2,1.6498448E-2,-1.7235737E-2,1.4786419E-2,-7.7121006E-3,3.335248E-3,4.6193834E-2,-5.420805E-2,-1.5097876E-2,-2.8141728E-2,-5.816195E-2,-4.207632E-2,-5.3071994E-2],"categories":[],"categories_nodes":[],"categories_segments":[],"categories_sizes":[],"default_left":[0,0,0,0,0,0,0,0,0,0,0,0,0,0,0,0,0,0,0,0,0,0,0,0,0,0,0,0,0,0,0],"id":31,"left_children":[1,3,5,7,9,11,13,15,17,19,21,23,25,27,29,-1,-1,-1,-1,-1,-1,-1,-1,-1,-1,-1,-1,-1,-1,-1,-1],"loss_changes":[1.1973651E4,1.0103766E4,2.5920322E3,5.3177314E3,7.473459E3,1.4523428E3,5.3342285E2,3.6066677E3,9.529971E2,5.7854434E3,8.347138E3,3.9312726E2,7.842092E2,3.3657422E2,1.292373E2,0E0,0E0,0E0,0E0,0E0,0E0,0E0,0E0,0E0,0E0,0E0,0E0,0E0,0E0,0E0,0E0],"parents":[2147483647,0,0,1,1,2,2,3,3,4,4,5,5,6,6,7,7,8,8,9,9,10,10,11,11,12,12,13,13,14,14],"right_children":[2,4,6,8,10,12,14,16,18,20,22,24,26,28,30,-1,-1,-1,-1,-1,-1,-1,-1,-1,-1,-1,-1,-1,-1,-1,-1],"split_conditions":[2.048E3,3.99E2,1.6E1,3.72E2,3.84615E5,2.458E3,2.4E1,1.357726E6,3.95E2,2.2E1,4.05405E5,2.339E3,2.498E3,2.684E3,2.391E3,2.1666845E-3,-5.270433E-2,-6.2431116E-2,-2.704714E-2,1.6498448E-2,-1.7235737E-2,1.4786419E-2,-7.7121006E-3,3.335248E-3,4.6193834E-2,-5.420805E-2,-1.5097876E-2,-2.8141728E-2,-5.816195E-2,-4.207632E-2,-5.3071994E-2],"split_indices":[9,9,0,9,7,9,0,8,9,0,7,9,9,9,9,0,0,0,0,0,0,0,0,0,0,0,0,0,0,0,0],"split_type":[0,0,0,0,0,0,0,0,0,0,0,0,0,0,0,0,0,0,0,0,0,0,0,0,0,0,0,0,0,0,0],"sum_hessian":[3.6488325E5,3.3325922E5,3.1624012E4,2.8650334E4,3.0460888E5,1.1423975E4,2.0200037E4,1.8180318E4,1.0470016E4,6.895166E4,2.3565723E5,5.553863E3,5.8701123E3,9.44384E3,1.0756198E4,1.4399767E4,3.780552E3,7.9678516E3,2.5021636E3,1.680521E4,5.214645E4,1.8239264E5,5.326459E4,4.9544614E3,5.9940125E2,1.8911007E3,3.9790115E3,8.392668E3,1.0511722E3,5.181063E3,5.575135E3],"tree_param":{"num_deleted":"0","num_feature":"13","num_nodes":"31","size_leaf_vector":"1"}},{"base_weights":[-1.7633972E-4,5.3224295E-2,-5.6714785E-1,8.690979E-2,-7.867451E-1,-1.0630858E-2,-7.068019E-1,-2.0107642E-1,1.7929837E-1,-1.0177222E0,-2.779895E-1,3.2264405E-1,-3.7368768E-1,-5.4363084E-1,-9.9393606E-1,3.307719E-2,-1.4352105E-2,1.42206205E-2,-9.315899E-3,-5.562613E-2,-1.522304E-2,2.7126446E-2,-6.694069E-2,1.2155257E-2,4.8907213E-2,-5.101342E-2,-2.0523716E-3,-1.9744584E-2,-4.249134E-2,-4.1911315E-2,-6.0502674E-2],"categories":[],"categories_nodes":[],"categories_segments":[],"categories_sizes":[],"default_left":[0,0,0,0,0,0,0,0,0,0,0,0,0,0,0,0,0,0,0,0,0,0,0,0,0,0,0,0,0,0,0],"id":32,"left_children":[1,3,5,7,9,11,13,15,17,19,21,23,25,27,29,-1,-1,-1,-1,-1,-1,-1,-1,-1,-1,-1,-1,-1,-1,-1,-1],"loss_changes":[1.0994015E4,9.389884E3,2.4291914E3,8.489272E3,1.5033354E3,7.5882306E2,1.1702373E3,5.74692E3,9.283863E3,5.947129E2,3.4787815E3,1.7023108E2,6.454739E2,7.253823E2,3.0393945E2,0E0,0E0,0E0,0E0,0E0,0E0,0E0,0E0,0E0,0E0,0E0,0E0,0E0,0E0,0E0,0E0],"parents":[2147483647,0,0,1,1,2,2,3,3,4,4,5,5,6,6,7,7,8,8,9,9,10,10,11,11,12,12,13,13,14,14],"right_children":[2,4,6,8,10,12,14,16,18,20,22,24,26,28,30,-1,-1,-1,-1,-1,-1,-1,-1,-1,-1,-1,-1,-1,-1,-1,-1],"split_conditions":[2.048E3,1E0,1.3E1,4.02031E5,6.12535E5,2.458E3,1E0,1.7E1,4.05405E5,1.916E3,6.17771E5,2.339E3,2.498E3,2.4E1,7E0,3.307719E-2,-1.4352105E-2,1.42206205E-2,-9.315899E-3,-5.562613E-2,-1.522304E-2,2.7126446E-2,-6.694069E-2,1.2155257E-2,4.8907213E-2,-5.101342E-2,-2.0523716E-3,-1.9744584E-2,-4.249134E-2,-4.1911315E-2,-6.0502674E-2],"split_indices":[9,11,0,7,7,9,1,0,7,9,7,9,9,0,1,0,0,0,0,0,0,0,0,0,0,0,0,0,0,0,0],"split_type":[0,0,0,0,0,0,0,0,0,0,0,0,0,0,0,0,0,0,0,0,0,0,0,0,0,0,0,0,0,0,0],"sum_hessian":[3.631161E5,3.318599E5,3.1256195E4,3.190649E5,1.2794974E4,6.2703423E3,2.4985854E4,7.749672E4,2.415682E5,8.79934E3,3.9956343E3,3.269147E3,3.0011953E3,1.593321E4,9.052644E3,7.0227363E3,7.047398E4,1.8762634E5,5.394186E4,7.766646E3,1.0326934E3,2.253085E3,1.7425493E3,2.9161384E3,3.5300848E2,1.01904944E3,1.9821459E3,1.0724901E4,5.2083076E3,5.2633613E3,3.7892827E3],"tree_param":{"num_deleted":"0","num_feature":"13","num_nodes":"31","size_leaf_vector":"1"}},{"base_weights":[1.5455196E-3,4.1748986E-2,-7.034096E-1,-4.7736424E-1,8.9708835E-2,-5.3037804E-1,-1.0567768E0,-8.3211E-2,-8.901775E-1,1.1258847E-1,-9.908147E-1,-7.871881E-1,-1.8551436E-1,-9.5086145E-1,-1.2223359E0,-2.249037E-2,5.268509E-2,-2.2470133E-2,-5.589039E-2,-7.286861E-3,9.669285E-3,-4.1087072E-2,-6.800833E-2,-1.5849E-2,-6.443765E-2,2.7701525E-2,-4.1178655E-2,2.5005534E-2,-4.8290677E-2,-6.2382426E-2,-4.1727558E-2],"categories":[],"categories_nodes":[],"categories_segments":[],"categories_sizes":[],"default_left":[0,0,0,0,0,0,0,0,0,0,0,0,0,0,0,0,0,0,0,0,0,0,0,0,0,0,0,0,0,0,0],"id":33,"left_children":[1,3,5,7,9,11,13,15,17,19,21,23,25,27,29,-1,-1,-1,-1,-1,-1,-1,-1,-1,-1,-1,-1,-1,-1,-1,-1],"loss_changes":[1.0242703E4,8.512249E3,1.1917783E3,4.7048843E3,7.737681E3,1.1591807E3,1.1157861E2,6.165784E3,1.4166699E3,6.3972793E3,4.0450488E2,1.7690928E3,2.6371638E3,8.513672E1,2.3793701E1,0E0,0E0,0E0,0E0,0E0,0E0,0E0,0E0,0E0,0E0,0E0,0E0,0E0,0E0,0E0,0E0],"parents":[2147483647,0,0,1,1,2,2,3,3,4,4,5,5,6,6,7,7,8,8,9,9,10,10,11,11,12,12,13,13,14,14],"right_children":[2,4,6,8,10,12,14,16,18,20,22,24,26,28,30,-1,-1,-1,-1,-1,-1,-1,-1,-1,-1,-1,-1,-1,-1,-1,-1],"split_conditions":[2.327E3,4.19E2,1E0,3.34E2,1.8E1,2.498E3,8E0,2.95E2,1.8E1,4.02031E5,3.4E1,2.479E3,2.612E3,8E0,6.6E1,-2.249037E-2,5.268509E-2,-2.2470133E-2,-5.589039E-2,-7.286861E-3,9.669285E-3,-4.1087072E-2,-6.800833E-2,-1.5849E-2,-6.443765E-2,2.7701525E-2,-4.1178655E-2,2.5005534E-2,-4.8290677E-2,-6.2382426E-2,-4.1727558E-2],"split_indices":[9,9,1,9,1,9,1,9,0,7,1,9,9,0,0,0,0,0,0,0,0,0,0,0,0,0,0,0,0,0,0],"split_type":[0,0,0,0,0,0,0,0,0,0,0,0,0,0,0,0,0,0,0,0,0,0,0,0,0,0,0,0,0,0,0],"sum_hessian":[3.6140253E5,3.419044E5,1.9498135E4,2.8915795E4,3.1298862E5,1.308997E4,6.408166E3,1.4792647E4,1.4123147E4,3.0649916E5,6.4894526E3,7.502295E3,5.5876743E3,3.9104548E3,2.4977114E3,1.1186093E4,3.6065544E3,4.8103975E3,9.312749E3,7.302412E4,2.3347505E5,4.4529634E3,2.0364891E3,3.872712E3,3.6295833E3,2.587977E3,2.9996973E3,3.9652008E1,3.8708027E3,2.3433809E3,1.5433047E2],"tree_param":{"num_deleted":"0","num_feature":"13","num_nodes":"31","size_leaf_vector":"1"}},{"base_weights":[-1.5036805E-4,9.768445E-2,-2.412381E-1,2.875667E-1,-5.6657544E-3,-4.441321E-1,1.9546306E-1,7.980667E-1,2.5198486E-1,-4.249299E-2,5.848222E-1,-5.0880945E-1,1.1350647E0,3.5401684E-1,-9.47652E-1,5.267433E-2,3.3260852E-2,3.0914757E-2,9.901657E-3,-3.0246648E-4,-6.805003E-2,6.239155E-2,-6.3939528E-3,-3.903896E-2,-1.6321007E-2,5.994534E-2,-8.271503E-2,-1.7235518E-2,3.1729084E-2,-3.1391814E-2,-6.781508E-2],"categories":[],"categories_nodes":[],"categories_segments":[],"categories_sizes":[],"default_left":[0,0,0,0,0,0,0,0,0,0,0,0,0,0,0,0,0,0,0,0,0,0,0,0,0,0,0,0,0,0,0],"id":34,"left_children":[1,3,5,7,9,11,13,15,17,19,21,23,25,27,29,-1,-1,-1,-1,-1,-1,-1,-1,-1,-1,-1,-1,-1,-1,-1,-1],"loss_changes":[8.496576E3,5.0285986E3,9.213519E3,1.6402852E3,3.60825E3,7.2519014E3,5.978741E3,1.9914404E2,1.668438E3,7.504901E3,4.603033E3,3.3830605E3,4.9840918E2,5.6791426E3,5.2450806E2,0E0,0E0,0E0,0E0,0E0,0E0,0E0,0E0,0E0,0E0,0E0,0E0,0E0,0E0,0E0,0E0],"parents":[2147483647,0,0,1,1,2,2,3,3,4,4,5,5,6,6,7,7,8,8,9,9,10,10,11,11,12,12,13,13,14,14],"right_children":[2,4,6,8,10,12,14,16,18,20,22,24,26,28,30,-1,-1,-1,-1,-1,-1,-1,-1,-1,-1,-1,-1,-1,-1,-1,-1],"split_conditions":[1E0,1.7E1,7E0,3.58364E5,1.398846E6,1E0,2E1,1.4E1,1E1,1.390928E6,1.415686E6,4.02031E5,7.8E1,4E0,3.8E1,5.267433E-2,3.3260852E-2,3.0914757E-2,9.901657E-3,-3.0246648E-4,-6.805003E-2,6.239155E-2,-6.3939528E-3,-3.903896E-2,-1.6321007E-2,5.994534E-2,-8.271503E-2,-1.7235518E-2,3.1729084E-2,-3.1391814E-2,-6.781508E-2],"split_indices":[1,0,4,7,8,5,1,0,0,8,8,7,0,1,1,0,0,0,0,0,0,0,0,0,0,0,0,0,0,0,0],"split_type":[0,0,0,0,0,0,0,0,0,0,0,0,0,0,0,0,0,0,0,0,0,0,0,0,0,0,0,0,0,0,0],"sum_hessian":[3.6022462E5,2.562406E5,1.0398405E5,9.03124E4,1.6592819E5,7.099812E4,3.298593E4,5.883729E3,8.4428664E4,1.561878E5,9.740403E3,6.8205125E4,2.7929973E3,2.8968357E4,4.017573E3,2.0117238E3,3.8720054E3,1.0837746E4,7.359092E4,1.5198742E5,4.200367E3,5.045998E3,4.6944053E3,2.7378098E4,4.0827023E4,2.7308162E3,6.2181087E1,8.2992295E3,2.0669127E4,2.2545999E3,1.7629731E3],"tree_param":{"num_deleted":"0","num_feature":"13","num_nodes":"31","size_leaf_vector":"1"}},{"base_weights":[-4.5809362E-4,4.8736993E-2,-5.337595E-1,-3.3725556E-3,5.385911E-1,-1.885008E-1,-7.334571E-1,9.7044885E-2,-5.272632E-1,-3.8939786E-1,1.1350935E0,-7.138627E-2,-1.2254825E0,-6.571923E-1,-1.1661627E0,2.0587072E-3,4.166472E-2,-4.5030575E-2,6.8508903E-3,4.941812E-2,-8.390103E-2,5.1167477E-2,8.3202146E-2,9.331717E-4,-4.326656E-2,-2.3010958E-3,-6.1657783E-2,-2.9528683E-2,-5.7784926E-2,-6.266642E-2,-3.7519265E-2],"categories":[],"categories_nodes":[],"categories_segments":[],"categories_sizes":[],"default_left":[0,0,0,0,0,0,0,0,0,0,0,0,0,0,0,0,0,0,0,0,0,0,0,0,0,0,0,0,0,0,0],"id":35,"left_children":[1,3,5,7,9,11,13,15,17,19,21,23,25,27,29,-1,-1,-1,-1,-1,-1,-1,-1,-1,-1,-1,-1,-1,-1,-1,-1],"loss_changes":[9.416121E3,8.387672E3,2.0897295E3,1.5624397E4,1.7489066E4,1.3488915E3,6.3315625E2,1.0251768E4,1.1847728E4,2.1949242E4,1.1356289E3,7.137335E2,1.0044434E1,5.417134E2,1.0358301E2,0E0,0E0,0E0,0E0,0E0,0E0,0E0,0E0,0E0,0E0,0E0,0E0,0E0,0E0,0E0,0E0],"parents":[2147483647,0,0,1,1,2,2,3,3,4,4,5,5,6,6,7,7,8,8,9,9,10,10,11,11,12,12,13,13,14,14],"right_children":[2,4,6,8,10,12,14,16,18,20,22,24,26,28,30,-1,-1,-1,-1,-1,-1,-1,-1,-1,-1,-1,-1,-1,-1,-1,-1],"split_conditions":[2.048E3,1.906E3,1.6E1,1.105E3,4.07932E5,5E0,7E0,6.53E2,1.736E3,4.0183E5,1.405822E6,2.684E3,1.05585E5,2.684E3,9E0,2.0587072E-3,4.166472E-2,-4.5030575E-2,6.8508903E-3,4.941812E-2,-8.390103E-2,5.1167477E-2,8.3202146E-2,9.331717E-4,-4.326656E-2,-2.3010958E-3,-6.1657783E-2,-2.9528683E-2,-5.7784926E-2,-6.266642E-2,-3.7519265E-2],"split_indices":[9,9,0,9,8,1,1,9,9,8,8,9,7,9,4,0,0,0,0,0,0,0,0,0,0,0,0,0,0,0,0],"split_type":[0,0,0,0,0,0,0,0,0,0,0,0,0,0,0,0,0,0,0,0,0,0,0,0,0,0,0,0,0,0,0],"sum_hessian":[3.589006E5,3.2858966E5,3.031092E4,2.969962E5,3.1593479E4,1.1107887E4,1.9203033E4,2.4922573E5,4.7770457E4,1.2361886E4,1.9231592E4,9.981256E3,1.1266312E3,1.6326892E4,2.8761416E3,2.3164767E5,1.757806E4,3.0582201E4,1.7188254E4,5.974332E3,6.3875537E3,1.587876E4,3.3528315E3,8.964823E3,1.0164332E3,7.3889437E0,1.1192423E3,1.4403369E4,1.9235216E3,2.3766423E3,4.994994E2],"tree_param":{"num_deleted":"0","num_feature":"13","num_nodes":"31","size_leaf_vector":"1"}},{"base_weights":[9.1342125E-5,3.247828E-2,-7.955465E-1,7.910191E-2,-4.866541E-1,-1.0451798E0,-4.5658377E-1,2.968912E-2,5.5229753E-1,-3.6593604E-1,-1.08793E0,-9.63603E-1,-1.2126278E0,-1.1523284E0,-3.3214292E-1,6.408717E-3,-2.399007E-2,-1.5816955E-2,5.4240387E-2,-4.6810787E-3,-3.0656392E-2,-5.962343E-2,-1.26362685E-2,-5.1059294E-2,-3.6973E-2,-6.528792E-2,-5.80295E-2,1.06857335E-2,-5.8497686E-2,-1.12705035E-2,-5.3532034E-2],"categories":[],"categories_nodes":[],"categories_segments":[],"categories_sizes":[],"default_left":[0,0,0,0,0,0,0,0,0,0,0,0,0,0,0,0,0,0,0,0,0,0,0,0,0,0,0,0,0,0,0],"id":36,"left_children":[1,3,5,7,9,11,13,15,17,19,21,23,25,27,29,-1,-1,-1,-1,-1,-1,-1,-1,-1,-1,-1,-1,-1,-1,-1,-1],"loss_changes":[9.228827E3,8.329524E3,1.1849492E3,7.3835137E3,2.058191E3,1.0938672E2,5.1413367E2,1.4346937E4,1.3810855E4,1.5898152E3,4.1369043E2,6.94917E1,1.1791016E1,2.1920044E1,3.9713E2,0E0,0E0,0E0,0E0,0E0,0E0,0E0,0E0,0E0,0E0,0E0,0E0,0E0,0E0,0E0,0E0],"parents":[2147483647,0,0,1,1,2,2,3,3,4,4,5,5,6,6,7,7,8,8,9,9,10,10,11,11,12,12,13,13,14,14],"right_children":[2,4,6,8,10,12,14,16,18,20,22,24,26,28,30,-1,-1,-1,-1,-1,-1,-1,-1,-1,-1,-1,-1,-1,-1,-1,-1],"split_conditions":[1E0,2.048E3,3.9E1,1.906E3,5E0,1E0,4.38E2,1.105E3,4.07932E5,1.7E1,9E0,1.17876E6,6E0,9.3E1,1.929E3,6.408717E-3,-2.399007E-2,-1.5816955E-2,5.4240387E-2,-4.6810787E-3,-3.0656392E-2,-5.962343E-2,-1.26362685E-2,-5.1059294E-2,-3.6973E-2,-6.528792E-2,-5.80295E-2,1.06857335E-2,-5.8497686E-2,-1.12705035E-2,-5.3532034E-2],"split_indices":[11,9,0,9,1,1,9,9,8,0,4,8,4,9,9,0,0,0,0,0,0,0,0,0,0,0,0,0,0,0,0],"split_type":[0,0,0,0,0,0,0,0,0,0,0,0,0,0,0,0,0,0,0,0,0,0,0,0,0,0,0,0,0,0,0],"sum_hessian":[3.5814884E5,3.44141E5,1.400787E4,3.157811E5,2.8359898E4,8.06613E3,5.9417397E3,2.8592456E5,2.9856531E4,2.3618906E4,4.740994E3,5.4264575E3,2.6396729E3,9.007491E2,5.0409907E3,2.3960848E5,4.631608E4,1.1347074E4,1.8509457E4,1.1238883E4,1.2380022E4,4.2133013E3,5.2769293E2,4.315556E3,1.1109011E3,9.4122314E2,1.6984496E3,1.1330747E1,8.8941833E2,4.40512E3,6.358708E2],"tree_param":{"num_deleted":"0","num_feature":"13","num_nodes":"31","size_leaf_vector":"1"}},{"base_weights":[4.0794406E-4,3.132136E-2,-7.690795E-1,7.532686E-2,-4.618576E-1,-9.7926486E-1,-3.2040772E-1,2.779725E-2,5.3456E-1,-3.4410873E-1,-1.0679104E0,-1.1364726E0,-7.1459794E-1,3.8603064E-1,-1.2833037E0,6.0685775E-3,-2.2747204E-2,4.1709747E-2,1.4085141E-2,-4.024861E-3,-2.9331146E-2,-5.8542013E-2,-1.3088815E-2,-5.93048E-2,-4.915123E-2,-4.5668803E-2,1.1721827E-2,-1.3241817E-2,4.2195503E-2,-5.860122E-2,-6.642212E-2],"categories":[],"categories_nodes":[],"categories_segments":[],"categories_sizes":[],"default_left":[0,0,0,0,0,0,0,0,0,0,0,0,0,0,0,0,0,0,0,0,0,0,0,0,0,0,0,0,0,0,0],"id":37,"left_children":[1,3,5,7,9,11,13,15,17,19,21,23,25,27,29,-1,-1,-1,-1,-1,-1,-1,-1,-1,-1,-1,-1,-1,-1,-1,-1],"loss_changes":[8.496047E3,7.4520615E3,1.3005981E3,6.8808433E3,2.0069878E3,3.9025E2,2.9943997E3,1.2904723E4,2.2398955E3,1.5056716E3,3.793667E2,4.406543E1,6.608141E2,7.569016E2,8.328857E0,0E0,0E0,0E0,0E0,0E0,0E0,0E0,0E0,0E0,0E0,0E0,0E0,0E0,0E0,0E0,0E0],"parents":[2147483647,0,0,1,1,2,2,3,3,4,4,5,5,6,6,7,7,8,8,9,9,10,10,11,11,12,12,13,13,14,14],"right_children":[2,4,6,8,10,12,14,16,18,20,22,24,26,28,30,-1,-1,-1,-1,-1,-1,-1,-1,-1,-1,-1,-1,-1,-1,-1,-1],"split_conditions":[1E0,2.048E3,6.12535E5,1.906E3,5E0,3.9E1,6.17771E5,1.105E3,2.2E1,1.7E1,9E0,3.2E1,1.916E3,3.7E1,4.43E2,6.0685775E-3,-2.2747204E-2,4.1709747E-2,1.4085141E-2,-4.024861E-3,-2.9331146E-2,-5.8542013E-2,-1.3088815E-2,-5.93048E-2,-4.915123E-2,-4.5668803E-2,1.1721827E-2,-1.3241817E-2,4.2195503E-2,-5.860122E-2,-6.642212E-2],"split_indices":[11,9,7,9,1,0,7,9,0,0,4,0,9,0,9,0,0,0,0,0,0,0,0,0,0,0,0,0,0,0,0],"split_type":[0,0,0,0,0,0,0,0,0,0,0,0,0,0,0,0,0,0,0,0,0,0,0,0,0,0,0,0,0,0,0],"sum_hessian":[3.5716662E5,3.4337256E5,1.3794053E4,3.152445E5,2.812809E4,9.392987E3,4.4010654E3,2.856782E5,2.9566305E4,2.3552975E4,4.5751143E3,5.891507E3,3.5014802E3,2.5387107E3,1.862355E3,2.3929412E5,4.6384055E4,1.3530804E4,1.6035501E4,1.1286113E4,1.2266862E4,4.056781E3,5.1833307E2,4.448798E3,1.4427091E3,2.8951968E3,6.062834E2,1.0484092E3,1.4903015E3,5.419627E2,1.3203922E3],"tree_param":{"num_deleted":"0","num_feature":"13","num_nodes":"31","size_leaf_vector":"1"}},{"base_weights":[1.1328154E-4,2.9495142E-2,-7.4615824E-1,6.1492655E-2,-5.854103E-1,-9.5055276E-1,-3.145352E-1,-1.8249016E-1,1.4013533E-1,-3.0463278E-1,-7.484162E-1,-1.1125579E0,-6.8510544E-1,3.574234E-1,-1.2623141E0,7.7044256E-3,-1.8158162E-2,1.1749355E-2,-9.220583E-3,-3.0510247E-2,-1.6079946E-5,-3.4365922E-2,-5.7020932E-2,-5.7967838E-2,-4.8307907E-2,-4.430578E-2,1.2332508E-2,3.3983972E-2,-2.7638612E-2,-6.3651465E-2,-3.9295435E-2],"categories":[],"categories_nodes":[],"categories_segments":[],"categories_sizes":[],"default_left":[0,0,0,0,0,0,0,0,0,0,0,0,0,0,0,0,0,0,0,0,0,0,0,0,0,0,0,0,0,0,0],"id":38,"left_children":[1,3,5,7,9,11,13,15,17,19,21,23,25,27,29,-1,-1,-1,-1,-1,-1,-1,-1,-1,-1,-1,-1,-1,-1,-1,-1],"loss_changes":[7.8054785E3,6.7387456E3,1.1893462E3,6.246616E3,7.751289E2,3.929502E2,2.7607363E3,4.8258105E3,7.5790166E3,5.7866046E2,2.5611768E2,3.815381E1,6.500095E2,7.4421265E2,8.473633E0,0E0,0E0,0E0,0E0,0E0,0E0,0E0,0E0,0E0,0E0,0E0,0E0,0E0,0E0,0E0,0E0],"parents":[2147483647,0,0,1,1,2,2,3,3,4,4,5,5,6,6,7,7,8,8,9,9,10,10,11,11,12,12,13,13,14,14],"right_children":[2,4,6,8,10,12,14,16,18,20,22,24,26,28,30,-1,-1,-1,-1,-1,-1,-1,-1,-1,-1,-1,-1,-1,-1,-1,-1],"split_conditions":[1E0,2.327E3,6.12535E5,4.02031E5,2E0,3.9E1,6.17771E5,2.4E1,4.05405E5,2.498E3,2.684E3,3.2E1,1.916E3,1.105E3,7.8E1,7.7044256E-3,-1.8158162E-2,1.1749355E-2,-9.220583E-3,-3.0510247E-2,-1.6079946E-5,-3.4365922E-2,-5.7020932E-2,-5.7967838E-2,-4.8307907E-2,-4.430578E-2,1.2332508E-2,3.3983972E-2,-2.7638612E-2,-6.3651465E-2,-3.9295435E-2],"split_indices":[11,9,7,7,4,0,7,0,7,9,9,0,9,9,0,0,0,0,0,0,0,0,0,0,0,0,0,0,0,0,0],"split_type":[0,0,0,0,0,0,0,0,0,0,0,0,0,0,0,0,0,0,0,0,0,0,0,0,0,0,0,0,0,0,0],"sum_hessian":[3.5598044E5,3.4249644E5,1.3483999E4,3.2555625E5,1.694019E4,9.150132E3,4.3338667E3,7.93566E4,2.4619966E5,6.223046E3,1.0717144E4,5.6809946E3,3.4691377E3,2.5360547E3,1.7978123E3,2.771864E4,5.163796E4,1.9051917E5,5.5680484E4,3.1046748E3,3.1183708E3,9.273416E3,1.4437281E3,4.3017373E3,1.3792572E3,2.853645E3,6.154926E2,1.8731129E3,6.6294165E2,1.7572427E3,4.056959E1],"tree_param":{"num_deleted":"0","num_feature":"13","num_nodes":"31","size_leaf_vector":"1"}},{"base_weights":[-4.77415E-4,3.2037992E-2,-6.0824543E-1,-4.6632862E-1,7.747652E-2,-4.448198E-1,-9.7088736E-1,-9.405486E-2,-8.666147E-1,9.966013E-2,-8.96888E-1,-7.025974E-1,-1.0721943E-1,-8.609208E-1,-1.1516534E0,-2.1949735E-2,4.937819E-2,-2.5970895E-2,-5.6451034E-2,-6.418746E-2,5.7831146E-3,-5.9828054E-2,-3.286911E-2,-1.1072078E-2,-6.2032234E-2,3.664032E-2,-3.0758888E-2,-5.0167885E-2,-3.4096833E-2,-5.914786E-2,-3.467185E-2],"categories":[],"categories_nodes":[],"categories_segments":[],"categories_sizes":[],"default_left":[0,0,0,0,0,0,0,0,0,0,0,0,0,0,0,0,0,0,0,0,0,0,0,0,0,0,0,0,0,0,0],"id":39,"left_children":[1,3,5,7,9,11,13,15,17,19,21,23,25,27,29,-1,-1,-1,-1,-1,-1,-1,-1,-1,-1,-1,-1,-1,-1,-1,-1],"loss_changes":[7.00949E3,7.624181E3,1.0671597E3,4.191979E3,6.669282E3,1.0805688E3,1.10523926E2,5.438633E3,1.2345635E3,6.678491E3,4.9239355E2,1.8225728E3,2.2947043E3,8.823706E1,2.9731934E1,0E0,0E0,0E0,0E0,0E0,0E0,0E0,0E0,0E0,0E0,0E0,0E0,0E0,0E0,0E0,0E0],"parents":[2147483647,0,0,1,1,2,2,3,3,4,4,5,5,6,6,7,7,8,8,9,9,10,10,11,11,12,12,13,13,14,14],"right_children":[2,4,6,8,10,12,14,16,18,20,22,24,26,28,30,-1,-1,-1,-1,-1,-1,-1,-1,-1,-1,-1,-1,-1,-1,-1,-1],"split_conditions":[2.327E3,4.19E2,1E0,3.34E2,1.7E1,2.498E3,8E0,2.95E2,2E1,5.19E3,9E0,2.479E3,2.596E3,2.498E3,6.7E1,-2.1949735E-2,4.937819E-2,-2.5970895E-2,-5.6451034E-2,-6.418746E-2,5.7831146E-3,-5.9828054E-2,-3.286911E-2,-1.1072078E-2,-6.2032234E-2,3.664032E-2,-3.0758888E-2,-5.0167885E-2,-3.4096833E-2,-5.914786E-2,-3.467185E-2],"split_indices":[9,9,1,9,1,9,1,9,0,8,4,9,9,9,0,0,0,0,0,0,0,0,0,0,0,0,0,0,0,0,0],"split_type":[0,0,0,0,0,0,0,0,0,0,0,0,0,0,0,0,0,0,0,0,0,0,0,0,0,0,0,0,0,0,0],"sum_hessian":[3.5469466E5,3.3668253E5,1.8012107E4,2.8131488E4,3.0855106E5,1.241751E4,5.594597E3,1.4576203E4,1.3555284E4,3.0168312E5,6.8679463E3,7.040693E3,5.376817E3,3.4806348E3,2.1139622E3,1.1051993E4,3.52421E3,5.835733E3,7.719551E3,3.4491987E3,2.982339E5,3.049701E3,3.8182454E3,3.717321E3,3.3233718E3,2.0259781E3,3.3508386E3,1.9366074E3,1.5440275E3,1.9778342E3,1.3612794E2],"tree_param":{"num_deleted":"0","num_feature":"13","num_nodes":"31","size_leaf_vector":"1"}},{"base_weights":[-3.566235E-5,-5.526597E-1,3.311451E-2,-2.6059163E-1,-8.8672024E-1,6.444036E-2,-5.696798E-1,-8.099675E-2,-1.1394243E0,-9.3126315E-1,5.6970733E-1,-4.04967E-1,1.0420933E-1,-2.901152E-1,-7.3511505E-1,-1.2332025E-2,3.4512516E-2,-7.026419E-2,-3.4136213E-2,-5.2423805E-2,-2.5076909E-2,8.184157E-2,-6.497599E-2,-2.3556564E-3,-4.1923907E-2,-6.259701E-2,5.885216E-3,-2.8765073E-2,-4.3641735E-4,1.577542E-2,-3.8518075E-2],"categories":[],"categories_nodes":[],"categories_segments":[],"categories_sizes":[],"default_left":[0,0,0,0,0,0,0,0,0,0,0,0,0,0,0,0,0,0,0,0,0,0,0,0,0,0,0,0,0,0,0],"id":40,"left_children":[1,3,5,7,9,11,13,15,17,19,21,23,25,27,29,-1,-1,-1,-1,-1,-1,-1,-1,-1,-1,-1,-1,-1,-1,-1,-1],"loss_changes":[6.4770576E3,1.9519824E3,6.298365E3,1.6848904E3,6.057666E2,5.9190225E3,7.618638E2,1.1325963E3,2.1924854E2,4.557412E2,5.5404816E2,3.8417102E3,5.3495303E3,4.9159528E2,3.834751E2,0E0,0E0,0E0,0E0,0E0,0E0,0E0,0E0,0E0,0E0,0E0,0E0,0E0,0E0,0E0,0E0],"parents":[2147483647,0,0,1,1,2,2,3,3,4,4,5,5,6,6,7,7,8,8,9,9,10,10,11,11,12,12,13,13,14,14],"right_children":[2,4,6,8,10,12,14,16,18,20,22,24,26,28,30,-1,-1,-1,-1,-1,-1,-1,-1,-1,-1,-1,-1,-1,-1,-1,-1],"split_conditions":[1.05585E5,2.9E1,2.327E3,1.385861E6,1.433199E6,3.99E2,2E0,2.7E1,1.398846E6,8E0,1.437582E6,3.34E2,5.19E3,2.498E3,1.56544E5,-1.2332025E-2,3.4512516E-2,-7.026419E-2,-3.4136213E-2,-5.2423805E-2,-2.5076909E-2,8.184157E-2,-6.497599E-2,-2.3556564E-3,-4.1923907E-2,-6.259701E-2,5.885216E-3,-2.8765073E-2,-4.3641735E-4,1.577542E-2,-3.8518075E-2],"split_indices":[7,0,9,8,8,9,4,0,8,4,8,9,8,9,7,0,0,0,0,0,0,0,0,0,0,0,0,0,0,0,0],"split_type":[0,0,0,0,0,0,0,0,0,0,0,0,0,0,0,0,0,0,0,0,0,0,0,0,0,0,0,0,0,0,0],"sum_hessian":[3.5355538E5,2.0008158E4,3.3354722E5,1.0675655E4,9.332503E3,3.170704E5,1.6476818E4,8.864749E3,1.8109061E3,9.055792E3,2.7671042E2,2.4764074E4,2.9230634E5,6.126236E3,1.0350582E4,7.2978345E3,1.5669149E3,1.1438042E3,6.671019E2,7.114319E3,1.9414733E3,1.7622238E2,1.0048803E2,1.3566233E4,1.1197842E4,2.8795425E3,2.8942678E5,3.0421414E3,3.0840947E3,3.3575E2,1.0014832E4],"tree_param":{"num_deleted":"0","num_feature":"13","num_nodes":"31","size_leaf_vector":"1"}},{"base_weights":[4.5117634E-4,8.5343115E-2,-2.1096413E-1,2.571946E-1,-7.738876E-3,-4.636682E-2,-5.0565916E-1,7.5335306E-1,2.2272776E-1,1.0766503E-1,-2.8740776E-1,-8.550572E-1,9.27931E-2,-8.671823E-1,-2.0805393E-1,2.4274325E-2,4.753421E-2,2.9403025E-2,8.45535E-3,2.3422502E-3,4.658501E-2,-5.2088436E-2,1.336839E-3,-2.9220805E-2,-5.583644E-2,-6.385099E-2,8.726235E-3,-5.394554E-3,-4.861523E-2,1.3067353E-2,-4.017004E-2],"categories":[],"categories_nodes":[],"categories_segments":[],"categories_sizes":[],"default_left":[0,0,0,0,0,0,0,0,0,0,0,0,0,0,0,0,0,0,0,0,0,0,0,0,0,0,0,0,0,0,0],"id":41,"left_children":[1,3,5,7,9,11,13,15,17,19,21,23,25,27,29,-1,-1,-1,-1,-1,-1,-1,-1,-1,-1,-1,-1,-1,-1,-1,-1],"loss_changes":[6.3227456E3,4.020872E3,4.8957134E3,1.5100767E3,5.2623853E3,7.2881704E3,3.8914502E3,3.0282422E2,1.6175366E3,5.7845024E3,1.1286915E4,6.728628E2,6.1860254E3,1.303373E3,5.5445605E3,0E0,0E0,0E0,0E0,0E0,0E0,0E0,0E0,0E0,0E0,0E0,0E0,0E0,0E0,0E0,0E0],"parents":[2147483647,0,0,1,1,2,2,3,3,4,4,5,5,6,6,7,7,8,8,9,9,10,10,11,11,12,12,13,13,14,14],"right_children":[2,4,6,8,10,12,14,16,18,20,22,24,26,28,30,-1,-1,-1,-1,-1,-1,-1,-1,-1,-1,-1,-1,-1,-1,-1,-1],"split_conditions":[1E0,1.7E1,4.57E2,3.58364E5,1.105E3,4.38E2,1.736E3,6.57E2,1E1,6.8E2,1.736E3,3.21E2,5.19E3,1.7E1,1.929E3,2.4274325E-2,4.753421E-2,2.9403025E-2,8.45535E-3,2.3422502E-3,4.658501E-2,-5.2088436E-2,1.336839E-3,-2.9220805E-2,-5.583644E-2,-6.385099E-2,8.726235E-3,-5.394554E-3,-4.861523E-2,1.3067353E-2,-4.017004E-2],"split_indices":[1,0,9,7,9,9,9,9,0,9,9,9,8,0,9,0,0,0,0,0,0,0,0,0,0,0,0,0,0,0,0],"split_type":[0,0,0,0,0,0,0,0,0,0,0,0,0,0,0,0,0,0,0,0,0,0,0,0,0,0,0,0,0,0,0],"sum_hessian":[3.5229175E5,2.5136081E5,1.0093093E5,8.831342E4,1.6304739E5,6.4760742E4,3.6170188E4,5.735548E3,8.2577875E4,1.15419914E5,4.7627477E4,9.507663E3,5.525308E4,1.6330735E4,1.9839451E4,2.4338975E3,3.3016506E3,1.0568047E4,7.200983E4,1.07487195E5,7.9327188E3,1.4002407E4,3.362507E4,4.6747114E3,4.8329517E3,3.1106345E3,5.214244E4,1.986237E3,1.4344498E4,1.1093163E4,8.746287E3],"tree_param":{"num_deleted":"0","num_feature":"13","num_nodes":"31","size_leaf_vector":"1"}},{"base_weights":[-8.501909E-4,3.7400797E-2,-4.3783805E-1,-4.3394184E-1,7.999072E-2,-2.3951027E-1,-7.299746E-1,-1.556202E-1,-9.7100836E-1,1.0047382E-1,-8.968314E-1,-1.470499E-1,-1.1680331E0,-6.625979E-1,-1.1254483E0,2.5970088E-3,-4.840346E-2,-5.7902474E-2,-2.1050729E-2,-6.0114205E-2,5.7461946E-3,-4.6340086E-2,7.2855726E-2,-3.236786E-3,-4.293927E-2,-5.6177218E-2,-6.345002E-2,-2.4940995E-2,-4.184165E-2,-5.941257E-2,-4.3973614E-2],"categories":[],"categories_nodes":[],"categories_segments":[],"categories_sizes":[],"default_left":[0,0,0,0,0,0,0,0,0,0,0,0,0,0,0,0,0,0,0,0,0,0,0,0,0,0,0,0,0,0,0],"id":42,"left_children":[1,3,5,7,9,11,13,15,17,19,21,23,25,27,29,-1,-1,-1,-1,-1,-1,-1,-1,-1,-1,-1,-1,-1,-1,-1,-1],"loss_changes":[5.877129E3,6.4900757E3,1.6394751E3,4.0046167E3,5.932634E3,1.4470051E3,3.043579E2,2.9760842E3,9.403467E2,5.4671074E3,4.3024756E2,8.980806E2,5.904541E0,2.7870264E2,2.4989258E1,0E0,0E0,0E0,0E0,0E0,0E0,0E0,0E0,0E0,0E0,0E0,0E0,0E0,0E0,0E0,0E0],"parents":[2147483647,0,0,1,1,2,2,3,3,4,4,5,5,6,6,7,7,8,8,9,9,10,10,11,11,12,12,13,13,14,14],"right_children":[2,4,6,8,10,12,14,16,18,20,22,24,26,28,30,-1,-1,-1,-1,-1,-1,-1,-1,-1,-1,-1,-1,-1,-1,-1,-1],"split_conditions":[2.048E3,3.99E2,2.1E1,3.72E2,1.8E1,5E0,9E0,1.357726E6,3.95E2,5.19E3,4E0,2.684E3,1.249497E6,2.458E3,5.8E1,2.5970088E-3,-4.840346E-2,-5.7902474E-2,-2.1050729E-2,-6.0114205E-2,5.7461946E-3,-4.6340086E-2,7.2855726E-2,-3.236786E-3,-4.293927E-2,-5.6177218E-2,-6.345002E-2,-2.4940995E-2,-4.184165E-2,-5.941257E-2,-4.3973614E-2],"split_indices":[9,9,0,9,1,1,1,8,9,8,3,9,8,9,0,0,0,0,0,0,0,0,0,0,0,0,0,0,0,0,0],"split_type":[0,0,0,0,0,0,0,0,0,0,0,0,0,0,0,0,0,0,0,0,0,0,0,0,0,0,0,0,0,0,0],"sum_hessian":[3.516001E5,3.2330075E5,2.8299354E4,2.6791568E4,2.965092E5,1.6856766E4,1.1442588E4,1.764718E4,9.14439E3,2.9041988E5,6.089298E3,1.533084E4,1.5259261E3,9.778259E3,1.6643286E3,1.4056453E4,3.5907268E3,6.8232227E3,2.3211667E3,3.185445E3,2.8723444E5,6.0130854E3,7.6212585E1,1.3742202E4,1.5886377E3,1.0641067E3,4.6181952E2,5.041675E3,4.7365845E3,1.323969E3,3.403596E2],"tree_param":{"num_deleted":"0","num_feature":"13","num_nodes":"31","size_leaf_vector":"1"}},{"base_weights":[-4.8919977E-4,2.6340686E-2,-7.1076983E-1,5.1486865E-2,-6.951518E-1,-9.212672E-1,-2.7748364E-1,7.258273E-4,5.016255E-1,-1.1487507E0,5.2370455E-2,-1.051711E0,-5.131485E-1,3.6377412E-1,-1.2415583E0,-1.2677579E-2,4.1486695E-3,2.9428838E-2,-2.725791E-2,-6.1412353E-2,-1.1859245E-2,1.8335158E-2,-6.2899075E-2,-5.5554498E-2,-4.0091537E-2,-4.3259647E-2,4.0829178E-2,3.235747E-2,-2.4565337E-2,-6.270175E-2,-3.250351E-2],"categories":[],"categories_nodes":[],"categories_segments":[],"categories_sizes":[],"default_left":[0,0,0,0,0,0,0,0,0,0,0,0,0,0,0,0,0,0,0,0,0,0,0,0,0,0,0,0,0,0,0],"id":43,"left_children":[1,3,5,7,9,11,13,15,17,19,21,23,25,27,29,-1,-1,-1,-1,-1,-1,-1,-1,-1,-1,-1,-1,-1,-1,-1,-1],"loss_changes":[6.6740234E3,6.122549E3,1.1623975E3,7.4512246E3,3.8539082E3,4.5629443E2,2.5776208E3,6.1288755E3,3.0080664E3,5.122959E2,1.7681816E3,9.581494E1,9.736277E2,6.0690247E2,1.1692627E1,0E0,0E0,0E0,0E0,0E0,0E0,0E0,0E0,0E0,0E0,0E0,0E0,0E0,0E0,0E0,0E0],"parents":[2147483647,0,0,1,1,2,2,3,3,4,4,5,5,6,6,7,7,8,8,9,9,10,10,11,11,12,12,13,13,14,14],"right_children":[2,4,6,8,10,12,14,16,18,20,22,24,26,28,30,-1,-1,-1,-1,-1,-1,-1,-1,-1,-1,-1,-1,-1,-1,-1,-1],"split_conditions":[1E0,1E0,6.12535E5,7E0,6.12535E5,1.17876E6,6.17771E5,4.02031E5,1.9E1,2.218E3,6.17771E5,1E1,1.91E3,1.105E3,1.4E1,-1.2677579E-2,4.1486695E-3,2.9428838E-2,-2.725791E-2,-6.1412353E-2,-1.1859245E-2,1.8335158E-2,-6.2899075E-2,-5.5554498E-2,-4.0091537E-2,-4.3259647E-2,4.0829178E-2,3.235747E-2,-2.4565337E-2,-6.270175E-2,-3.250351E-2],"split_indices":[11,10,7,4,7,8,7,7,4,9,7,4,9,9,4,0,0,0,0,0,0,0,0,0,0,0,0,0,0,0,0],"split_type":[0,0,0,0,0,0,0,0,0,0,0,0,0,0,0,0,0,0,0,0,0,0,0,0,0,0,0,0,0,0,0],"sum_hessian":[3.5021384E5,3.374668E5,1.274701E4,3.261018E5,1.1365023E4,8.578596E3,4.1684136E3,2.9305538E5,3.3046418E4,7.072981E3,4.2920425E3,6.500014E3,2.0785815E3,2.5034456E3,1.6649684E3,7.162293E4,2.2143245E5,3.0512229E4,2.5341882E3,6.5053735E3,5.676074E2,3.4619998E3,8.3004266E2,5.250272E3,1.2497424E3,1.6436719E3,4.3490964E2,1.8804873E3,6.229582E2,1.6298595E3,3.510878E1],"tree_param":{"num_deleted":"0","num_feature":"13","num_nodes":"31","size_leaf_vector":"1"}},{"base_weights":[1.2467144E-4,2.5764514E-2,-6.9196916E-1,4.9480014E-2,-6.6140646E-1,-8.922763E-1,-2.7944514E-1,1.5233159E-3,4.7678208E-1,-1.1103151E0,5.1544357E-2,-9.8199165E-1,-2.6691982E-1,3.282264E-1,-1.2233804E0,-1.2131668E-2,4.022557E-3,2.6715776E-2,-9.924214E-2,-2.356505E-2,-6.1051853E-2,1.717583E-2,-6.1871838E-2,-5.1929135E-2,-2.7568495E-2,1.1415223E-1,-5.1407933E-2,3.027922E-2,-2.5526231E-2,-6.167986E-2,-2.4819275E-2],"categories":[],"categories_nodes":[],"categories_segments":[],"categories_sizes":[],"default_left":[0,0,0,0,0,0,0,0,0,0,0,0,0,0,0,0,0,0,0,0,0,0,0,0,0,0,0,0,0,0,0],"id":44,"left_children":[1,3,5,7,9,11,13,15,17,19,21,23,25,27,29,-1,-1,-1,-1,-1,-1,-1,-1,-1,-1,-1,-1,-1,-1,-1,-1],"loss_changes":[6.2012764E3,5.4916235E3,1.0313271E3,6.6750376E3,3.598065E3,4.7119385E2,2.3413594E3,5.643866E3,4.6555044E3,4.8762305E2,1.6349315E3,1.7863232E2,2.0491572E3,5.778544E2,1.1394287E1,0E0,0E0,0E0,0E0,0E0,0E0,0E0,0E0,0E0,0E0,0E0,0E0,0E0,0E0,0E0,0E0],"parents":[2147483647,0,0,1,1,2,2,3,3,4,4,5,5,6,6,7,7,8,8,9,9,10,10,11,11,12,12,13,13,14,14],"right_children":[2,4,6,8,10,12,14,16,18,20,22,24,26,28,30,-1,-1,-1,-1,-1,-1,-1,-1,-1,-1,-1,-1,-1,-1,-1,-1],"split_conditions":[1E0,1E0,6.12535E5,7E0,5.95552E5,1.405822E6,6.17771E5,4.02031E5,2E0,2.41075E5,6.17771E5,1.2E1,1.406523E6,1.105E3,1.5E1,-1.2131668E-2,4.022557E-3,2.6715776E-2,-9.924214E-2,-2.356505E-2,-6.1051853E-2,1.717583E-2,-6.1871838E-2,-5.1929135E-2,-2.7568495E-2,1.1415223E-1,-5.1407933E-2,3.027922E-2,-2.5526231E-2,-6.167986E-2,-2.4819275E-2],"split_indices":[11,10,7,4,7,8,7,7,5,7,7,4,8,9,4,0,0,0,0,0,0,0,0,0,0,0,0,0,0,0,0],"split_type":[0,0,0,0,0,0,0,0,0,0,0,0,0,0,0,0,0,0,0,0,0,0,0,0,0,0,0,0,0,0,0],"sum_hessian":[3.4946538E5,3.369819E5,1.2483467E4,3.2574062E5,1.1241281E4,8.402624E3,4.080843E3,2.9287194E5,3.2868684E4,6.8978926E3,4.3433887E3,7.348013E3,1.0546107E3,2.482755E3,1.5980881E3,7.154649E4,2.2132545E5,3.211844E4,7.5024414E2,1.0192105E3,5.878682E3,3.5416091E3,8.0177966E2,6.4936934E3,8.5431976E2,2.4219286E2,8.124179E2,1.8659735E3,6.1678143E2,1.5754615E3,2.262652E1],"tree_param":{"num_deleted":"0","num_feature":"13","num_nodes":"31","size_leaf_vector":"1"}},{"base_weights":[2.438805E-4,2.456509E-2,-6.6942525E-1,4.309684E-2,-8.6094373E-1,-8.0714124E-1,-1.8656795E-1,7.923347E-2,-3.7653616E-1,-1.1275628E0,-5.733533E-1,-1.1166719E0,-7.2216344E-1,1.4482455E-1,-9.5207584E-1,1.7615904E-3,2.5069302E-2,-1.4023639E-2,-4.8714213E-2,-5.7047E-2,7.113203E-2,4.8598754E-3,-6.0684886E-2,-3.5319887E-2,-5.591103E-2,-2.9469922E-2,-4.9019106E-2,-7.824219E-3,3.222539E-2,-4.569679E-2,-7.445916E-2],"categories":[],"categories_nodes":[],"categories_segments":[],"categories_sizes":[],"default_left":[0,0,0,0,0,0,0,0,0,0,0,0,0,0,0,0,0,0,0,0,0,0,0,0,0,0,0,0,0,0,0],"id":45,"left_children":[1,3,5,7,9,11,13,15,17,19,21,23,25,27,29,-1,-1,-1,-1,-1,-1,-1,-1,-1,-1,-1,-1,-1,-1,-1,-1],"loss_changes":[5.680601E3,5.5228735E3,8.12625E2,4.998993E3,5.28499E2,2.4956348E2,6.8847516E2,5.638004E3,1.5006062E3,1.2289014E2,1.4257881E3,7.233887E-1,2.5541724E2,2.8524658E2,1.5875122E1,0E0,0E0,0E0,0E0,0E0,0E0,0E0,0E0,0E0,0E0,0E0,0E0,0E0,0E0,0E0,0E0],"parents":[2147483647,0,0,1,1,2,2,3,3,4,4,5,5,6,6,7,7,8,8,9,9,10,10,11,11,12,12,13,13,14,14],"right_children":[2,4,6,8,10,12,14,16,18,20,22,24,26,28,30,-1,-1,-1,-1,-1,-1,-1,-1,-1,-1,-1,-1,-1,-1,-1,-1],"split_conditions":[1E0,1.7E1,1E1,2.048E3,1E1,3.95E2,1E0,1.906E3,5E0,1E0,3E1,1.03E2,1E0,1.3E1,1E0,1.7615904E-3,2.5069302E-2,-1.4023639E-2,-4.8714213E-2,-5.7047E-2,7.113203E-2,4.8598754E-3,-6.0684886E-2,-3.5319887E-2,-5.591103E-2,-2.9469922E-2,-4.9019106E-2,-7.824219E-3,3.222539E-2,-4.569679E-2,-7.445916E-2],"split_indices":[11,1,4,9,4,9,5,9,1,2,1,9,1,4,2,0,0,0,0,0,0,0,0,0,0,0,0,0,0,0,0],"split_type":[0,0,0,0,0,0,0,0,0,0,0,0,0,0,0,0,0,0,0,0,0,0,0,0,0,0,0,0,0,0,0],"sum_hessian":[3.4878075E5,3.365582E5,1.2222572E4,3.2965972E5,6.8984634E3,9.509749E3,2.7128232E3,3.0352256E5,2.6137154E4,3.5788132E3,3.31965E3,2.0468558E3,7.462893E3,1.8934243E3,8.193988E2,2.7487288E5,2.8649678E4,2.2519047E4,3.618107E3,3.5604524E3,1.8361015E1,1.6217094E3,1.6979407E3,8.799385E0,2.0380564E3,4.9300835E3,2.5328093E3,1.181265E3,7.121593E2,7.6650616E2,5.2892643E1],"tree_param":{"num_deleted":"0","num_feature":"13","num_nodes":"31","size_leaf_vector":"1"}},{"base_weights":[-1.2650589E-3,7.600799E-2,-1.9647048E-1,1.5250774E-1,-9.331573E-2,-5.353852E-1,3.462503E-2,9.320427E-2,8.0166E-1,-6.9552803E-1,1.4887032E-1,-1.23047516E-1,-6.6097766E-1,2.2675635E-1,-4.2031997E-1,5.682279E-3,-1.0002907E-1,7.408484E-2,2.3568518E-2,-2.0120235E-2,-7.0081435E-2,-1.6920974E-2,1.8744323E-2,-9.4585E-3,6.913366E-2,4.390273E-2,-3.4572758E-2,-3.6897156E-2,1.8143212E-2,-7.252954E-2,-1.2242583E-2],"categories":[],"categories_nodes":[],"categories_segments":[],"categories_sizes":[],"default_left":[0,0,0,0,0,0,0,0,0,0,0,0,0,0,0,0,0,0,0,0,0,0,0,0,0,0,0,0,0,0,0],"id":46,"left_children":[1,3,5,7,9,11,13,15,17,19,21,23,25,27,29,-1,-1,-1,-1,-1,-1,-1,-1,-1,-1,-1,-1,-1,-1,-1,-1],"loss_changes":[5.2462065E3,3.227476E3,7.7251543E3,6.6069014E3,1.1308952E4,2.0707373E3,5.12615E3,6.7305635E3,3.2262246E3,4.602552E3,6.0905386E3,9.2962354E2,1.4380322E3,5.414063E3,3.1475835E3,0E0,0E0,0E0,0E0,0E0,0E0,0E0,0E0,0E0,0E0,0E0,0E0,0E0,0E0,0E0,0E0],"parents":[2147483647,0,0,1,1,2,2,3,3,4,4,5,5,6,6,7,7,8,8,9,9,10,10,11,11,12,12,13,13,14,14],